<?xml version="1.0"?>
<opencv_storage>
<ann type_id="opencv-ml-ann-mlp">
  <layer_sizes type_id="opencv-matrix">
    <rows>1</rows>
    <cols>3</cols>
    <dt>i</dt>
    <data>
      140 40 54</data></layer_sizes>
  <activation_function>SIGMOID_SYM</activation_function>
  <f_param1>1.</f_param1>
  <f_param2>1.</f_param2>
  <min_val>-9.4999999999999996e-01</min_val>
  <max_val>9.4999999999999996e-01</max_val>
  <min_val1>-9.7999999999999998e-01</min_val1>
  <max_val1>9.7999999999999998e-01</max_val1>
  <training_params>
    <train_method>RPROP</train_method>
    <dw0>1.0000000000000001e-01</dw0>
    <dw_plus>1.2000000000000000e+00</dw_plus>
    <dw_minus>5.0000000000000000e-01</dw_minus>
    <dw_min>1.1920928955078125e-07</dw_min>
    <dw_max>50.</dw_max>
    <term_criteria><epsilon>9.9999997764825821e-03</epsilon>
      <iterations>1000</iterations></term_criteria></training_params>
  <input_scale>
    8.0174447035615728e+00 -2.6499901287235206e+00
    7.4080730887970851e+00 -2.6638694472229956e+00
    6.5896339112508970e+00 -2.4094734045641628e+00
    5.2025045688174281e+00 -2.0570260210712750e+00
    3.6667181578288957e+00 -2.0278446323767350e+00
    3.4341196016258677e+00 -2.3678868124323578e+00
    3.7920780420882587e+00 -3.0420398962422350e+00
    3.9181245489973544e+00 -3.2158769450983771e+00
    5.3134410391766753e+00 -4.2281798296486244e+00
    5.7981983488433313e+00 -4.5139559383787820e+00
    5.7192247712654627e+00 -4.5396160286667229e+00
    5.5571508010751307e+00 -4.6626182391282516e+00
    5.4822514035718708e+00 -4.7927201361822576e+00
    5.0322058651697379e+00 -4.1705621999761515e+00
    4.6006602910521046e+00 -3.3238533500020684e+00
    4.7552518809202935e+00 -2.5310745154036169e+00
    4.9521997281228645e+00 -3.9042748856067910e-01
    7.6180922545365215e+00 -3.6872351363478606e-01
    9.5451563098247192e+00 -3.7762362278057782e-01
    1.0013982840283733e+01 -3.9135617725296590e-01
    6.0160143967344943e+00 -4.4807213598651296e+00
    6.3979819096934643e+00 -5.1759840518153242e+00
    6.4564244657072560e+00 -5.3012506755511701e+00
    6.3864589229433122e+00 -5.0530141868436695e+00
    6.4908007629479521e+00 -4.8725240838877246e+00
    6.6763461663719044e+00 -4.9497446341228439e+00
    6.7098189827311288e+00 -4.9779459992326398e+00
    6.6402416034565910e+00 -4.9537949891704187e+00
    5.9378307847205569e+00 -4.5004696460172431e+00
    5.7711288928429747e+00 -4.5250982114624856e+00
    5.7667984443964704e+00 -4.4917999450766262e+00
    5.7463113070389484e+00 -4.3084083394997172e+00
    5.9002984073042555e+00 -4.2605467682605420e+00
    5.9747718999909036e+00 -4.3109976444957434e+00
    6.0285526904581719e+00 -4.4235139554360048e+00
    5.9681514240776172e+00 -4.3524880872526106e+00
    5.4249764356033081e+00 -4.0843900351758871e+00
    5.3232913941908935e+00 -4.1519324472729568e+00
    5.2407619830045524e+00 -4.0086643712765149e+00
    5.4341885863971493e+00 -3.9150788249728370e+00
    1.3824207977164784e+00 -1.0279326682129297e+00
    6.1176264470825852e-02 -2.3940611996520841e-01
    1.3993523269943018e-02 -6.9539610197610080e-01
    1.0569119273569840e-02 -1.4382794719606933e+00
    1.0187042909009621e-02 -1.6636692631373260e+00
    1.1368376418327391e-02 -2.0221830709684343e+00
    1.1529741217795540e-02 -1.6866780587930508e+00
    1.5297914087023037e-02 -6.5523356661458421e-01
    8.3932168110829833e-02 -1.5749506048349854e-01
    1.5035471977750805e+00 -1.3268108410797919e-01
    5.3778692911543713e-01 -4.7964033002841844e-01
    3.6632271381326284e-02 -2.6249570885806783e-01
    1.1520394255935205e-02 -9.1555056471994867e-01
    1.0556452957574475e-02 -1.7973166098852815e+00
    1.1495993030460398e-02 -1.5855330319036489e+00
    1.1588237935670152e-02 -1.7897523180273553e+00
    1.1014521492172738e-02 -2.0103153146502715e+00
    1.2744438506301773e-02 -9.2209048023100837e-01
    6.0094553643303857e-02 -1.8095812858989041e-01
    4.0816502173589880e-01 -6.5917671861906210e-02
    4.5959797734466745e-01 -4.1132286423426972e-01
    3.2206903533705540e-02 -2.7415050494240750e-01
    1.0564714798479440e-02 -8.9067098915604315e-01
    1.0469822450541592e-02 -1.5251424091027801e+00
    1.0053233167324465e-02 -8.8193779489225366e-01
    9.7775955373064563e-03 -9.4740226409078543e-01
    9.9672975674643879e-03 -1.4773495662838194e+00
    1.1367788270002616e-02 -8.6802101573336454e-01
    5.0866441792379868e-02 -2.0147416642422153e-01
    3.8679375178457059e-01 -6.6741142571463782e-02
    4.9910763757404630e-01 -3.9246143742757000e-01
    3.3846027188409442e-02 -2.7330260987899158e-01
    1.0523424775493732e-02 -8.9723195678378531e-01
    1.0329583471466739e-02 -1.5770925201973811e+00
    9.9395261260837222e-03 -1.0998129940156476e+00
    1.0021464367736710e-02 -1.1407151615657714e+00
    9.8555806216629738e-03 -1.3505455413641683e+00
    1.1684510348453813e-02 -7.8097717509879261e-01
    5.0925036723447073e-02 -1.9938076835058979e-01
    6.9171457508172518e-01 -7.9589845299413722e-02
    6.3330448136090722e-01 -4.3450156671848400e-01
    3.9646393444785315e-02 -2.5592847502491384e-01
    1.0901094709220283e-02 -8.4315465924302579e-01
    9.9761420394363746e-03 -1.6205085469561873e+00
    1.0307550059311764e-02 -1.6907508273351655e+00
    1.1611751774627472e-02 -2.0968026219885521e+00
    1.1407409226762533e-02 -1.9372980649240210e+00
    1.2569235658604402e-02 -7.6222097847433512e-01
    5.6790627322707732e-02 -1.8072575919076903e-01
    4.9430361009262652e-01 -7.1867137279573945e-02
    6.0419344479722492e-01 -4.6970967427090637e-01
    4.0663017787895626e-02 -2.5213021961494025e-01
    1.1082110657135769e-02 -7.8149008709394840e-01
    1.0075030897125218e-02 -1.4567647034993154e+00
    1.0809876103248529e-02 -1.3916011390058083e+00
    1.0744805219507908e-02 -1.6524308173009545e+00
    1.1081223934190433e-02 -1.9605421267699596e+00
    1.1869297003119676e-02 -8.7251637504606938e-01
    4.6307609383795335e-02 -2.0188165725620508e-01
    5.6057584557443318e-01 -8.9427024028409408e-02
    6.1984501181877372e-01 -4.8171813761207133e-01
    3.7698739129458182e-02 -2.5876541148344767e-01
    1.0687155824935254e-02 -8.3414020337239692e-01
    9.7094157633786059e-03 -1.2639468216900378e+00
    1.0953021961526078e-02 -8.2153107439973416e-01
    1.0185623501726335e-02 -9.8449566320721260e-01
    1.0321787198799044e-02 -1.6375145744985748e+00
    1.0870919470709792e-02 -9.3240859824177902e-01
    3.4736988123163753e-02 -2.4412912403556566e-01
    3.3562177533921894e-01 -7.6515553819196502e-02
    7.2866532654235938e-01 -5.1796917531887909e-01
    3.8242426891025916e-02 -2.6392254720064423e-01
    1.0694742540872994e-02 -9.8704263843041984e-01
    1.0618024284633178e-02 -1.6111742017315764e+00
    1.0658840207906566e-02 -8.8411024928069970e-01
    9.5999420434685796e-03 -9.5167650267742698e-01
    1.0106470594298537e-02 -1.5763054912593553e+00
    1.0800971188898872e-02 -9.4594372656663095e-01
    3.2301812716765563e-02 -2.5037779301843849e-01
    2.6272734284369997e-01 -7.2322048711172718e-02
    6.3664410036776564e-01 -4.5304711254752067e-01
    4.5060248285343329e-02 -2.3065195288349233e-01
    1.1665936304744341e-02 -9.8044338724707636e-01
    1.0403415704747229e-02 -1.8032616932024808e+00
    1.1982242359018418e-02 -1.5885771940964373e+00
    1.2220375378139301e-02 -1.7162005376406275e+00
    9.7759360970551372e-03 -1.6479378899233814e+00
    1.2420000872181872e-02 -8.8272666239981856e-01
    3.8182054248627501e-02 -2.0773432067774092e-01
    2.1748555415599094e-01 -7.6377080747550272e-02
    8.5333521367125154e-01 -6.4797035630297317e-01
    6.5430340340909873e-02 -1.9727763341991947e-01
    1.4478000341407109e-02 -6.5921912880761779e-01
    1.1032504445587498e-02 -1.4509397465445486e+00
    1.0017976878113670e-02 -1.6038547526607172e+00
    1.0046082823614796e-02 -1.5240119375463963e+00
    1.1114307486009136e-02 -1.3500360382881307e+00
    1.6074899855984665e-02 -5.9581109499624996e-01
    6.7360270565088670e-02 -1.5921308639047860e-01
    5.4696292702198768e-01 -8.9739034034193491e-02</input_scale>
  <output_scale>
    5.2631578947368418e-01 4.9999999999999994e-01 5.2631578947368418e-01
    4.9999999999999994e-01 5.2631578947368418e-01 4.9999999999999994e-01
    5.2631578947368418e-01 4.9999999999999994e-01 5.2631578947368418e-01
    4.9999999999999994e-01 5.2631578947368418e-01 4.9999999999999994e-01
    5.2631578947368418e-01 4.9999999999999994e-01 5.2631578947368418e-01
    4.9999999999999994e-01 5.2631578947368418e-01 4.9999999999999994e-01
    5.2631578947368418e-01 4.9999999999999994e-01 5.2631578947368418e-01
    4.9999999999999994e-01 5.2631578947368418e-01 4.9999999999999994e-01
    5.2631578947368418e-01 4.9999999999999994e-01 5.2631578947368418e-01
    4.9999999999999994e-01 5.2631578947368418e-01 4.9999999999999994e-01
    5.2631578947368418e-01 4.9999999999999994e-01 5.2631578947368418e-01
    4.9999999999999994e-01 5.2631578947368418e-01 4.9999999999999994e-01
    5.2631578947368418e-01 4.9999999999999994e-01 5.2631578947368418e-01
    4.9999999999999994e-01 5.2631578947368418e-01 4.9999999999999994e-01
    5.2631578947368418e-01 4.9999999999999994e-01 5.2631578947368418e-01
    4.9999999999999994e-01 5.2631578947368418e-01 4.9999999999999994e-01
    5.2631578947368418e-01 4.9999999999999994e-01 5.2631578947368418e-01
    4.9999999999999994e-01 5.2631578947368418e-01 4.9999999999999994e-01
    5.2631578947368418e-01 4.9999999999999994e-01 5.2631578947368418e-01
    4.9999999999999994e-01 5.2631578947368418e-01 4.9999999999999994e-01
    5.2631578947368418e-01 4.9999999999999994e-01 5.2631578947368418e-01
    4.9999999999999994e-01 5.2631578947368418e-01 4.9999999999999994e-01
    5.2631578947368418e-01 4.9999999999999994e-01 5.2631578947368418e-01
    4.9999999999999994e-01 5.2631578947368418e-01 4.9999999999999994e-01
    5.2631578947368418e-01 4.9999999999999994e-01 5.2631578947368418e-01
    4.9999999999999994e-01 5.2631578947368418e-01 4.9999999999999994e-01
    5.2631578947368418e-01 4.9999999999999994e-01 5.2631578947368418e-01
    4.9999999999999994e-01 5.2631578947368418e-01 4.9999999999999994e-01
    5.2631578947368418e-01 4.9999999999999994e-01 5.2631578947368418e-01
    4.9999999999999994e-01 5.2631578947368418e-01 4.9999999999999994e-01
    5.2631578947368418e-01 4.9999999999999994e-01 5.2631578947368418e-01
    4.9999999999999994e-01 5.2631578947368418e-01 4.9999999999999994e-01
    5.2631578947368418e-01 4.9999999999999994e-01 1. 0.
    5.2631578947368418e-01 4.9999999999999994e-01 5.2631578947368418e-01
    4.9999999999999994e-01 5.2631578947368418e-01 4.9999999999999994e-01
    5.2631578947368418e-01 4.9999999999999994e-01</output_scale>
  <inv_output_scale>
    1.8999999999999999e+00 -9.4999999999999996e-01
    1.8999999999999999e+00 -9.4999999999999996e-01
    1.8999999999999999e+00 -9.4999999999999996e-01
    1.8999999999999999e+00 -9.4999999999999996e-01
    1.8999999999999999e+00 -9.4999999999999996e-01
    1.8999999999999999e+00 -9.4999999999999996e-01
    1.8999999999999999e+00 -9.4999999999999996e-01
    1.8999999999999999e+00 -9.4999999999999996e-01
    1.8999999999999999e+00 -9.4999999999999996e-01
    1.8999999999999999e+00 -9.4999999999999996e-01
    1.8999999999999999e+00 -9.4999999999999996e-01
    1.8999999999999999e+00 -9.4999999999999996e-01
    1.8999999999999999e+00 -9.4999999999999996e-01
    1.8999999999999999e+00 -9.4999999999999996e-01
    1.8999999999999999e+00 -9.4999999999999996e-01
    1.8999999999999999e+00 -9.4999999999999996e-01
    1.8999999999999999e+00 -9.4999999999999996e-01
    1.8999999999999999e+00 -9.4999999999999996e-01
    1.8999999999999999e+00 -9.4999999999999996e-01
    1.8999999999999999e+00 -9.4999999999999996e-01
    1.8999999999999999e+00 -9.4999999999999996e-01
    1.8999999999999999e+00 -9.4999999999999996e-01
    1.8999999999999999e+00 -9.4999999999999996e-01
    1.8999999999999999e+00 -9.4999999999999996e-01
    1.8999999999999999e+00 -9.4999999999999996e-01
    1.8999999999999999e+00 -9.4999999999999996e-01
    1.8999999999999999e+00 -9.4999999999999996e-01
    1.8999999999999999e+00 -9.4999999999999996e-01
    1.8999999999999999e+00 -9.4999999999999996e-01
    1.8999999999999999e+00 -9.4999999999999996e-01
    1.8999999999999999e+00 -9.4999999999999996e-01
    1.8999999999999999e+00 -9.4999999999999996e-01
    1.8999999999999999e+00 -9.4999999999999996e-01
    1.8999999999999999e+00 -9.4999999999999996e-01
    1.8999999999999999e+00 -9.4999999999999996e-01
    1.8999999999999999e+00 -9.4999999999999996e-01
    1.8999999999999999e+00 -9.4999999999999996e-01
    1.8999999999999999e+00 -9.4999999999999996e-01
    1.8999999999999999e+00 -9.4999999999999996e-01
    1.8999999999999999e+00 -9.4999999999999996e-01
    1.8999999999999999e+00 -9.4999999999999996e-01
    1.8999999999999999e+00 -9.4999999999999996e-01
    1.8999999999999999e+00 -9.4999999999999996e-01
    1.8999999999999999e+00 -9.4999999999999996e-01
    1.8999999999999999e+00 -9.4999999999999996e-01
    1.8999999999999999e+00 -9.4999999999999996e-01
    1.8999999999999999e+00 -9.4999999999999996e-01
    1.8999999999999999e+00 -9.4999999999999996e-01
    1.8999999999999999e+00 -9.4999999999999996e-01 1. 0.
    1.8999999999999999e+00 -9.4999999999999996e-01
    1.8999999999999999e+00 -9.4999999999999996e-01
    1.8999999999999999e+00 -9.4999999999999996e-01
    1.8999999999999999e+00 -9.4999999999999996e-01</inv_output_scale>
  <weights>
    <_>
      -4.2765508907845834e-02 4.9646814145280591e-02
      4.2677247625465646e-03 2.9223144712243870e-01
      5.5759139880015718e-01 -6.1744923159687459e-01
      1.9204397447425448e-01 1.4515106805518615e-02
      3.4760405448915357e-02 6.5057405377817235e-02
      -3.0565244445208573e-02 -4.7834686245458384e-02
      1.0880809811645106e-01 -5.1413408199925880e-03
      -4.9431241798803677e-02 -2.3782100794018896e-02
      9.7212061696723195e-02 -4.8391402398117955e-02
      -1.2628120476983185e-01 -2.1545293017495515e-01
      1.9145162720422954e-02 2.8882737322178981e-01
      -5.1538929403734328e-02 -7.0717519754951871e-02
      4.2692246957906570e-02 -1.3538454235580114e-01
      5.6715233887579472e-02 4.0113483393654427e-02
      5.0551905375594168e-02 5.4930498935715388e-01
      -2.3617297336466302e-02 3.3528407840198907e-02
      1.1339851603455252e-01 -3.1107922755607795e-02
      -1.1481339813880759e-01 2.7419301652212291e-01
      -7.3444580723944462e-03 -3.9638945975271539e-02
      1.5834061428201211e-02 9.4004451853307414e-02
      -6.2305749598109909e-02 6.7077529249543535e-02
      -1.6148944857731407e-01 -2.4565105629765679e-01
      6.6942520366430232e-03 -6.9907353307422249e-01
      2.7988508138765478e-01 -2.1990630691332065e-02
      2.1026822976203971e-01 5.1004754285848150e-02
      -5.5247261145687288e-02 4.7259303757609724e-03
      -4.5708118889153077e-02 -1.0328156734942057e-01
      -3.4077832826138965e-02 -5.4540659090322664e-02
      1.0049515739873374e-01 -2.3340789516105173e-02
      1.2562320414325498e-01 -1.0211023353715477e-01
      9.8360949876339684e-02 8.1050928744436368e-02
      -4.6444516818446045e-02 1.9354964462816419e-02
      3.2870169580077428e-02 -2.3477828412255888e-01
      -1.6743736345222954e-01 7.6256755047066152e-02
      -5.7556906278606421e-02 -1.5987615702061825e-01
      1.0165289076283633e-01 -5.2295699097572364e-03
      1.2749053848307523e-01 -1.6427060373876040e-01
      -1.8465076579380780e-02 7.1574256768939290e-02
      9.2359930835873710e-02 3.4678524619092085e-02
      -2.9653340010699580e-02 1.6669717608079515e-01
      -6.2536243190523463e-02 9.8977986009975413e-02
      -2.0815971547380149e-01 -7.5142499130903470e-02
      5.3509738517524763e-01 -1.5785837238347625e-01
      1.2554395827939221e-01 -8.2971115540461104e-02
      1.4591847431227215e-01 2.7227276391200494e-02
      -1.1589116797421975e-01 -9.7564595229646403e-02
      1.1307529963789231e-01 -6.8704539325157951e-02
      -8.2744505093208923e-02 -4.9982351938364443e-02
      -8.9742522232638622e-02 1.2503118988197057e-01
      9.8993386617371643e-02 -1.4729441099958115e-01
      -9.8174783520410716e-02 8.9437815634607048e-03
      -2.1427945352548650e-01 -7.5190157072428185e-03
      7.9515926251967808e-02 -4.0826949466930529e-01
      7.1366092067794415e-02 9.6980603260889559e-02
      2.5707380659787926e-01 -2.7453615815914028e-02
      1.0445825233354213e-01 -7.1002318644652011e-03
      9.2481030640724202e-02 -9.3307021738886178e-02
      -1.3838100924467792e-01 1.0950852537146769e-01
      1.1701589538476390e-01 1.5563150761133998e-01
      4.8209312103052307e-02 -8.3030287432701196e-03
      -1.7643188721597847e-01 2.2408370723624862e-01
      -1.5808371494657195e-01 1.5883774941714757e-01
      1.0560667197440136e-02 4.0261803026339638e-01
      1.4440798164800928e-01 -7.5598313162815014e-03
      5.0821885116702013e-02 1.6677075891420598e-01
      1.0088968473080216e-01 -2.9921076245182027e-01
      -2.9636035778619355e-02 -6.3344710528955003e-02
      -6.4246981746959073e-02 -1.8309224163677842e-01
      -3.1588751811769022e-01 2.0890875582576393e-01
      3.0436923465453299e-02 1.1310569166515049e-02
      -3.6796194947678371e-02 -3.8537945085737532e-02
      1.0239368713860328e-01 -5.5802562463202678e-02
      -3.8077100034962230e-01 1.6955381738552155e-02
      1.8410607598257853e-01 -1.6522218355857488e-01
      3.5450641435564045e-01 -3.0024844594801398e-01
      -1.6843201900542662e-01 -1.3798443663484755e-01
      2.9437402567175436e-02 2.4553419633775259e-01
      2.9148274992851964e-01 -2.2474057269709638e-01
      1.7361490853348750e-02 -3.6644487285029275e-03
      1.9458749272572204e-01 -2.3701180054981280e-01
      -1.1276881862012178e-01 -1.9083295689551202e-01
      1.9259289391461064e-02 7.0203859936948110e-02
      1.7098449443398048e-01 1.9547517659621863e-01
      -9.9602008532120694e-03 3.9764899662056825e-02
      1.6807394066772127e-01 8.9389793679365823e-02
      -1.2941309219232050e-01 -1.0086104770344656e-01
      2.2595909768277800e-01 -1.7440797965814586e-01
      -1.2111336263463071e-01 -6.7380261582239143e-02
      7.6752569919312785e-02 7.8141945056203171e-02
      -1.3101647112981568e-02 1.3436032355344959e-02
      9.1991609727112289e-02 1.8763483379337079e-01
      8.9202201998839006e-02 9.5071315993424471e-02
      3.9912914297412816e-01 -1.2361904824396907e-02
      -3.4334729632731759e-01 -1.9202861335151775e-01
      1.4196276930471585e-01 -3.9995278271393220e-01
      -3.4825525350342411e-02 -5.0089022534761940e-01
      -3.8973856203277008e-02 -5.2402457132977719e-02
      3.2454370594463733e-01 1.2461147764712366e-01
      -4.2683583176761547e-02 2.4968904992416388e-01
      8.9769615784256046e-02 -1.0879567649190509e-01
      4.5019233779880756e-02 -2.1919891123073443e-01
      8.7855699936686876e-02 1.5406939728583821e-01
      -3.8287442544027252e-02 -1.6328092305368813e-01
      -4.7658297990452632e-02 -3.7699919236664700e-02
      -1.1839306801711301e-02 1.6940360757322967e-01
      -9.0215799644086311e-02 -2.1872779033900702e-01
      1.2633712389621476e-01 -2.3133074162768347e-01
      -2.4265349037568703e-03 -6.0640141113787675e-02
      -3.6891122192340255e-03 1.3593982673181382e-01
      -5.4203431328173499e-02 -4.8408919816377557e-02
      -2.8037175483672733e-01 2.3783124667727368e-01
      -4.2608952129784876e-02 1.2070583262438524e-01
      1.0263536204961324e-01 -1.0204490811511389e-01
      -7.8708678896104514e-02 -1.7763622885946034e-01
      1.4596797615139781e-01 -3.2690581350586573e-01
      1.1775156428763339e-01 8.7312307022933966e-02
      -5.1321786591594663e-02 -4.4723290865888839e-02
      3.4319915614270213e-01 5.1959350248604987e-03
      -3.5166604021528103e-02 1.4245141745549900e-01
      -9.9757051667143479e-02 1.2184980042113301e-01
      -6.7863516113081085e-02 1.1985688034139952e-01
      1.1784565080157859e-01 1.9475981626957656e-01
      1.6563929216259690e-01 1.7435939509210485e-01
      -6.2646823093341353e-02 -3.5988134697094776e-02
      9.6856547850589919e-02 1.6057508918450136e-01
      -1.6520151035388339e-01 4.0270538517060174e-02
      1.1306251482317080e-01 -1.4849403973240094e-01
      -2.6018882365419843e-01 1.3343473100077569e-01
      2.1461243943580474e-01 1.3171916824478511e-01
      -6.1592709813135582e-02 -4.6752457370512202e-01
      4.8808488277718186e-02 7.2983466032648811e-02
      -8.2462582724364047e-02 4.5021835010956031e-02
      7.6487591036483907e-02 -5.0080067798790956e-02
      -1.7051810497399102e-02 -2.6191822827064853e-01
      -5.7753038263739710e-02 -3.6027268283955854e-01
      8.1215834179322363e-02 -7.6793954681719268e-01
      -5.1438735202259689e-01 -8.3301847800421491e-02
      3.1464173379962251e-01 9.2383768444822059e-02
      4.3061505949308292e-02 6.3565878078880988e-03
      -1.0826201944881536e-01 6.1662189956065989e-02
      7.0162424345037522e-03 9.6758667855313951e-02
      2.5708630306514846e-01 4.1583592761072249e-02
      6.0650229454629362e-02 5.9734998095790026e-01
      -1.4387921063221437e-01 -6.9635681204834876e-02
      3.0656482486078063e-01 5.6847399592738726e-02
      6.7072849932523918e-03 5.2309935993007345e-02
      9.1496717322498894e-02 1.1284735243990406e-01
      9.4401482671242862e-02 -6.0311791150408356e-02
      2.1354208390556023e-01 2.8189558003961906e-01
      1.0400961392637370e-01 -3.6641431155622683e-01
      6.5696659662618423e-02 7.5361828918276128e-02
      -8.6553716660486363e-02 -4.8125022219708671e-02
      6.7295985132174441e-01 1.1485684504878210e-01
      1.4184395313075204e-03 -2.3435770438119957e-01
      -1.4944394970984795e-01 1.9604839079663372e-01
      6.2051506560055973e-02 6.5917007776381820e-01
      -1.3470436841004579e-01 5.2579278962375298e-02
      2.8343557978849389e-03 2.7754037047032304e-01
      9.1247167202216650e-02 -1.1535744554260084e-01
      -7.1860480837567089e-02 2.4985557882185938e-01
      -1.1684716267239284e-01 -5.5483841579215848e-02
      -3.9717287900215045e-02 -5.4478540712167817e-02
      7.4445590375740592e-03 1.4938102787567553e-01
      7.1574004635256372e-02 -3.8895763312075921e-02
      2.1127752609797781e-01 -5.7447471301966062e-04
      -2.1370231885631244e-01 -1.0390881308271722e-01
      3.2231448766439413e-01 6.7180506859249506e-02
      -7.3170680168801863e-02 -2.0616440245562393e-02
      3.0575284896846389e-01 -1.6775678574118813e-01
      1.2564469875536852e-01 -1.2120774679559063e-01
      -1.2638842372381368e-01 1.6644596374413099e-02
      -1.6044522798121114e-01 -2.8502702355079751e-01
      1.9746067540092060e-01 3.9256408714003121e-01
      -1.0673584025733773e-02 -2.0538722660075195e-01
      2.0600525831808653e-01 4.1532543922212631e-02
      -1.2471868257005661e-01 1.0483717470027190e-01
      1.4565508341632405e-01 -1.2905464299034695e-02
      4.4629551123081501e-01 -2.6543747480765798e-02
      -5.9993531857187796e-02 -1.1122234675301382e-01
      -8.5543746205849883e-02 -1.6701529623836066e-02
      1.0401020454137114e-01 3.7034083419760505e-01
      -4.7001147339866794e-01 -8.4554979806377197e-03
      2.6602266954119524e-01 -8.7441627969380500e-02
      3.3868542805083407e-01 1.4245692618871708e-01
      -2.3327422297094065e-02 1.3073384533035323e-01
      2.8273451678761963e-01 1.9569298524127073e-03
      1.3305737088602035e-01 -7.6853564987790196e-02
      -3.0749773656819668e-01 -2.1547723765430005e-02
      1.5754203303101272e-01 -2.9645318986671715e-01
      2.8645612451991508e-02 9.5087324818114966e-02
      -6.8921716688206458e-02 2.8836920526346821e-01
      -3.4488271388228860e-02 -3.6977752274035221e-02
      3.4772254239081390e-01 1.5578904485246287e-01
      -5.8862415622519836e-02 5.7774043592104043e-02
      1.1713975384634253e-02 2.1959183228048748e-01
      -2.0120625188458383e-01 3.3798497075674470e-02
      6.3745786284501435e-02 2.1365553305819512e-01
      -5.4758506563648418e-02 -2.2143328729336973e-02
      6.5051674087912154e-02 -2.2121294823151752e-01
      -1.6893018876376190e-01 1.3741568206385235e-01
      -2.7509753717747769e-02 1.0000665675569715e+00
      -5.9307146229773788e-02 5.7525811720253754e-04
      2.8349366453769231e-01 -1.4341454237536916e-01
      1.4623996660747185e-01 1.2870845313275017e-01
      -6.4018989602974502e-02 -2.5912040179231793e-01
      2.8703481639392864e-01 1.5605483609829757e-01
      -2.4890961215098922e-01 -2.9968360396335181e-01
      -2.5061627499389394e-01 -8.8254300870653724e-02
      1.1178324121743492e-01 -1.7101896642517481e-01
      3.5282739023961167e-02 2.7600462101593409e-01
      2.6987995748215039e-02 5.9728843850398949e-01
      1.8683587633742094e-01 -1.8537895068587285e-01
      1.0882242569731955e+00 1.7594535985429607e-01
      -1.2675268749530022e-01 3.0498370646041167e-01
      9.6326753859955261e-02 2.0888550635912834e-01
      -3.7298931231346999e-01 -2.9596893014133785e-01
      9.6841772102958093e-02 2.0630137910370014e-01
      -5.1891585705840231e-02 -1.6488685482627702e-03
      -3.0966517465461901e-01 2.9601902139490370e-02
      -1.8396372070034489e-01 1.6852590386106131e-01
      2.2695010832840333e-02 -4.5474189624405699e-02
      1.0687406660529379e-01 -3.5208724376338985e-02
      6.0950117124386902e-02 -8.0961299781523929e-02
      2.2548292386978020e-02 2.6106313158667477e-01
      -1.8893410108684023e-02 -1.9010303814358868e-02
      2.5096545632673162e-01 1.0335885555353919e-02
      -2.8209197953605471e-02 8.0128300504385911e-03
      -2.3817180104524643e-01 7.7200791001509922e-02
      8.1804577633156822e-02 -5.0439289473815069e-02
      7.0192473674481242e-03 -9.6797971487572864e-03
      -2.6457641021832595e-01 5.8113649960777913e-01
      -5.0727310631781701e-02 1.0794289310933729e-02
      1.7247275279680999e-01 3.7186443611209169e-01
      -1.3552516152322380e-01 -6.4565221655497065e-02
      8.8372612719633245e-02 2.3686750526674855e-01
      -2.1599189842870115e-01 -1.5990609484761145e-01
      4.2779288411445854e-01 -3.6352841387391527e-01
      5.6514607831902744e-03 3.6414184708899763e-03
      1.9198806482489258e-01 3.4029139017984260e-02
      1.4780242585643394e-02 2.9486348132205487e-01
      2.5025992954888265e-01 9.4926311213618095e-02
      1.1707944891855111e-01 -1.2716948537929115e-02
      -1.8883644970147956e-01 -1.7133566419365448e-01
      1.2908956608454780e-01 -8.1869494856033537e-02
      1.1512539253330295e-01 1.8875594903483586e-02
      -2.7862719453690676e-02 -5.8328836938505491e-02
      3.1100069950560927e-01 2.3645903316950163e-02
      -1.7290501439304728e-01 1.1321078581771256e-01
      8.7124396276121910e-02 1.6690764339052245e-02
      1.9187029230684750e-02 -4.4609385652365871e-02
      -3.0296959507872318e-01 3.1256928781560228e-01
      -3.6691540210246266e-02 -1.4991121827186346e-01
      7.1508464820800144e-02 3.8937361741237284e-02
      6.0190752296820933e-03 -6.2569016179212100e-01
      8.6639066941577608e-02 -1.8787433151332886e-01
      -4.8600589582810549e-02 -2.1471751636284328e-01
      4.1159801753585468e-01 -1.6565492207760735e-01
      2.2777080396310934e-01 9.3813983322942149e-02
      8.7037311270320106e-02 1.0089764387507777e-01
      1.6829662568873799e-01 9.1922716772717294e-02
      -5.9003533260361403e-02 -2.0639703511162269e-01
      -6.5369495873705885e-02 -1.4002235747577743e-01
      -4.2603725217614807e-01 2.7937158511605883e-02
      2.0041823756521188e-01 -2.8226260541047580e-03
      8.8076167437053335e-02 2.1686256713147726e-02
      -1.2866847652328428e-02 4.5423432101286937e-02
      -3.7886387344827682e-01 1.0108981116667806e-01
      -7.2543551197177414e-01 -2.9844229813378170e-02
      1.1478175501402799e-01 -4.0420745513981914e-02
      -3.0758497765302546e-02 2.5533363721493368e-02
      -2.1451995564011736e-01 1.9496071733430831e-01
      1.5656694280010035e-02 -1.0666767730129278e-01
      1.6614951326414737e-01 2.4964390204977094e-02
      6.3754456409323684e-03 -3.7606307775890629e-01
      3.5171723826118577e-04 -1.0111726031172487e-01
      -6.6196408167675774e-02 -8.3727538504465282e-01
      1.3248056104669315e-01 -1.4859788202549248e-01
      2.5698514744211320e-01 -5.4244597543794432e-02
      7.9736838824235601e-03 1.4963983624922167e-01
      2.4060472671960542e-01 -1.1510930796617778e-02
      2.7455882674306830e-02 -2.0258784759712822e-01
      -3.7204978638851235e-02 -4.0427540874390634e-02
      8.4164110610026266e-02 5.4011927496772874e-02
      1.7265642463370356e-01 5.5714796412616382e-02
      -1.2730352398173514e-02 2.3278002451510019e-02
      3.6144692286244597e-02 2.2476372669399496e-02
      1.2682185868324741e-01 -6.9956846452696966e-02
      -4.2668550486500721e-02 -3.8315194096564885e-02
      1.0138308967178829e-02 -1.7350700006873329e-01
      -1.8315163111137669e-01 -2.1088876105669424e-01
      -1.8435751593443993e-03 2.1598202626640856e-01
      -7.3872889966997271e-02 2.0693061412326900e-02
      -7.4337075743393197e-02 -4.2325107821536728e-02
      -1.0366212733650530e-01 -1.6013037321770318e-01
      -9.4971992498167433e-03 -5.4267502625383365e-02
      9.7254893884155799e-02 2.5292035207824765e-01
      1.2101137065193883e-01 -4.8794655916072634e-02
      2.0944775907315141e-01 -5.8700539875493084e-02
      -8.4551433731854378e-02 -1.7962823142684586e-02
      2.5423194111884240e-01 -7.8764913737883344e-02
      2.6017551925617919e-02 -1.8744240389072189e-01
      3.5151076557518909e-02 -5.1714056740374048e-01
      1.9943520860589367e-01 2.7993468497812213e-01
      5.1519853266238924e-01 -3.7974168470988466e-02
      -1.0384629442851351e-01 5.0693506961958686e-02
      -1.8247821832668560e-02 -2.5297729393046600e-02
      -3.8673146106141081e-03 -5.5486820825854398e-02
      -1.8074178793251423e-02 -5.3116743574338016e-02
      3.2841468546199681e-02 -1.4387549152461382e-01
      -2.2314041737902321e-01 -2.2234651134046360e-01
      -2.8797619563938229e-02 3.7278823261685225e-02
      4.8906702165327595e-02 -2.8466522466320998e-01
      3.3235883765133323e-01 -3.1478345497345774e-02
      1.8224424514888898e-01 2.9427720476801083e-03
      6.7844626155469781e-02 -9.7227413524572648e-02
      -1.4228305983490985e-01 1.6957044101599875e-01
      1.8417951809119468e-01 -2.5546510036517325e-02
      3.2782871660562757e-01 -4.1689848870835731e-02
      4.7271137225759347e-03 9.7498572271604064e-02
      1.0423386350731402e-01 1.0837790596362495e-01
      8.9290971801086499e-02 -1.5765077941931485e-01
      -1.8240254543307544e-01 9.1320633118734007e-02
      -3.3436679969567384e-01 1.1411012322026716e-01
      2.9669938828422865e-01 -1.5056943685380452e-02
      2.5920968506102485e-02 2.1420187652778372e-01
      1.8966926551471455e-01 -5.5413335991204216e-01
      -1.3884399025390587e-01 -1.1183427492325121e-01
      -4.0200447693587193e-01 7.8931071292603142e-02
      2.7227568221373277e-01 -8.3372530964615065e-03
      -6.1165292296756851e-02 -3.8887871671122363e-02
      -5.4522554301345429e-02 6.1602423872206109e-02
      -1.6964260476340925e-01 1.9707820565496423e-01
      -9.3005492484694204e-03 3.7728661407717390e-01
      -2.4051140672897514e-01 -1.6247596184263166e-01
      2.4559505070805690e-01 3.0864295697783511e-01
      4.9267741580181551e-03 -2.0023035787167597e-02
      -1.5674050521613381e-01 -8.1609389377564082e-02
      3.9694050397681940e-01 8.2347163715046884e-02
      -3.1285366539810311e-01 -5.9819666030369728e-02
      -4.8352828575103521e-02 5.8662416434982667e-01
      8.5363131302575238e-02 -7.2575206231646663e-02
      -1.4932298318488549e-01 -2.5014873891547629e-01
      4.7621030802745001e-01 1.0723442360758142e-01
      2.3827306790889791e-01 -4.6542764216463514e-02
      2.5391290001133559e-02 2.0736374300316748e-01
      1.3377281297454741e-02 -5.5487006987775378e-01
      -6.6785152112441820e-02 -8.3404918010536580e-02
      2.8336061903005477e-01 -1.6893451095851719e-01
      1.9597011272382314e-01 2.5116856072488352e-02
      -5.4855979624053183e-02 -2.5694217254324837e-02
      1.5364008163267370e-02 -1.8454384215302540e-02
      -1.7764191471225968e-01 2.0361094166193289e-01
      -1.8358602529528891e-02 3.3532734795807928e-01
      -2.5397962371502825e-01 -1.9124218751163768e-01
      2.0613863559595932e-01 3.0392009262168113e-01
      7.1187477445285113e-02 1.0700109997756557e-01
      -1.6724870458454219e-01 -1.3966367107961250e-01
      4.2210707938281422e-01 1.0109194908398622e-01
      -3.4988857253070332e-01 -2.7703456255806802e-01
      -9.5329749119872822e-03 -1.3842006453627007e-01
      9.3318337645978369e-02 -1.3565805959035970e-01
      -1.8687747135362415e-01 1.5250927936995000e-02
      4.3656250720928269e-01 5.5433849031433342e-02
      3.3487478178695640e-01 -8.4625767695760384e-02
      4.2801052417448630e-02 2.6708099339318619e-01
      3.4428098766096260e-02 -5.2748835444725073e-01
      -8.3986899084369959e-02 -8.5000441795236539e-02
      4.2999279300728799e-01 -5.8046348426856874e-02
      1.6858143342483747e-01 4.2662654771370330e-02
      -6.6421693262863915e-02 -2.0952438020011660e-01
      -1.9062927427956369e-02 1.1029541995988409e-01
      -1.6222831412714711e-01 4.8839810817693774e-01
      -7.5868415579345557e-03 3.4456416994147859e-01
      -2.0586527576281113e-01 -5.4166653303846268e-01
      2.1285261705456790e-01 -2.1123170210447049e-02
      -4.8933383856601381e-01 9.4292862748795739e-02
      -1.8106094549390148e-01 -1.2583296024948210e-01
      2.2138943205205980e-01 2.4004870299782460e-01
      1.7393271647605429e-02 -4.2969853257240825e-01
      -1.5346076643015524e-01 4.6207513523486642e-02
      3.3711567445047713e-01 -1.7668263470325296e-01
      -2.2182377877804516e-03 1.9652357560641862e-01
      4.6187542919286417e-01 1.0089859185657124e-01
      3.8582979829090397e-01 -8.8759196194940812e-02
      -2.9869639456547646e-03 2.1046823317574220e-01
      3.5835051604120739e-02 -5.3122827490949376e-01
      2.3061529088711161e-01 -9.9093525957168874e-02
      1.8614354151329590e-01 -2.6831278590346919e-01
      2.3663406713743901e-01 2.7353901218648134e-02
      -3.2700320888957785e-01 8.5923958432550795e-02
      -4.7481316695602543e-02 -6.4550532682851811e-02
      -1.5944918262314672e-01 5.3682760221046166e-01
      -2.4549666264091408e-01 3.5815176777978547e-01
      -3.2053033011321169e-01 -1.7707377196154581e-01
      2.7266019424443577e-01 -3.5316187014833050e-02
      3.8677172466341936e-01 2.6026495836164076e-01
      -2.7442448901581540e-01 2.0898500239037388e-01
      4.1688521849669419e-01 1.9876969604031869e-01
      6.7386330663204833e-02 1.6822108068883806e-01
      -1.2183343599699680e-02 -5.4482816238663953e-02
      -8.1242086562277160e-02 -3.4481484666713036e-01
      3.2832221997546734e-02 -5.8793145771002704e-03
      4.3044770650491684e-02 2.2014419399089390e-02
      1.3232976098994928e-01 -3.2470761605811949e-01
      3.4199013233311643e-01 -1.1472308948723985e-01
      -8.3601613479821563e-02 1.4010763946803881e-01
      -2.0226052683881926e-01 -3.1561482386574014e-01
      9.4922897454499267e-03 1.9737592234818219e-01
      3.4156804684323548e-02 5.5865846053292589e-02
      7.5681651296336333e-02 2.9441230519510170e-02
      2.8203444502178640e-02 6.9862253043883882e-02
      -7.0645148979572817e-02 4.6346752668977934e-02
      5.3847367627066811e-01 -7.2402277681549762e-02
      -1.9515279801230004e-01 2.8626139196383255e-01
      8.2776382384409902e-02 -4.6717668770771367e-02
      -1.7687896279040066e-01 3.3375678571836315e-01
      1.5698122597683195e-01 8.1729473211973033e-02
      -1.1942736290530224e-02 1.6533310029877990e-01
      -8.1304379434596952e-02 -1.9447974757283093e-01
      -1.5897652889397137e-01 -6.9063531088267863e-02
      1.1132459944055366e-01 -2.6637542022751637e-01
      1.0549679976557128e-01 2.4245150271656403e-03
      3.9863916222574236e-02 -2.6044030718917349e-01
      3.5335879599895870e-01 7.8885692517048477e-03
      -8.7305833548915371e-02 -9.5086962686083382e-02
      -6.4846359607601531e-02 -5.6051254097626693e-02
      4.6299117345218632e-02 -4.4753860546194818e-01
      -3.1226716244288986e-02 -7.3341536974566093e-02
      3.3011296891707037e-02 -1.3332933298633290e-02
      1.0291168149888894e-01 1.8772606376560469e-01
      2.0361936841081078e-03 6.6061326806332255e-02
      -2.1289734043802688e-01 5.1730834129912209e-02
      1.3978157088344159e-01 3.0961552696933830e-02
      -9.3941054306602143e-02 1.4503755183268260e-01
      1.5488433645475838e-01 4.0223340677223846e-01
      -8.4945210369557031e-02 -1.0519897600783237e-01
      2.0827662747741008e-01 2.4162716246972075e-02
      -6.7554543499466421e-02 2.5308979339426158e-01
      -6.2376580967389808e-02 -1.0442271748179362e-02
      -2.5309961463577524e-01 3.0876519522051966e-02
      -1.6094901533669961e-01 9.4347227100452083e-02
      2.8479686590569320e-01 2.1560928962171171e-03
      -5.3847600832542719e-01 1.9263468658434263e-01
      3.0061813497164375e-01 -5.0435217871363858e-01
      -1.0900548347070327e-01 9.9959701558575295e-02
      5.8972802894513808e-02 5.4884975245356035e-03
      -1.5641971000873261e-02 -1.3709530350664800e-01
      2.4781174518671165e-02 -2.0805637375146879e-01
      -3.6840892720253859e-01 5.8283810655901033e-03
      6.7193028948602573e-02 2.1041008431373434e-01
      7.7826811352385089e-02 8.5916838751473462e-02
      -2.1336983341032970e-02 1.3916606478772553e-01
      -9.1230814985776454e-01 7.3558893268271391e-02
      1.9196216280074810e-01 1.2209936627814411e-01
      3.2076134107195439e-02 5.1306092581568083e-02
      -2.7882715369100496e-02 -9.3968181686550439e-02
      7.9167608427092917e-02 1.3012293348111494e-02
      -1.1449915260433607e-01 1.4220752963917818e-01
      -7.4489425784254673e-02 -1.4564508424197764e-01
      -3.4955592747442622e-02 -1.0542015840334901e-01
      -1.1028680873000099e-01 9.4310389198921832e-02
      2.5303514489401402e-01 -1.7845475640483530e-01
      3.0952680576016644e-02 1.2857285271290966e-01
      1.3257338375040897e-01 2.8205339477412150e-01
      -1.0861693979398105e-02 2.0388205160692205e-01
      3.1797286252218920e-01 -1.2691313319464720e-01
      -1.5420982699061816e-03 2.6824891242137567e-02
      1.4717087439064597e-01 -4.5099496557981705e-02
      1.1565032067874449e-01 1.1189868849621309e-01
      3.6141216918427484e-02 -5.0515747824510522e-02
      8.7698791108275068e-02 6.1803079215171662e-02
      4.2023068207450574e-02 9.8156295906889263e-02
      8.1782698837000373e-02 -3.0357765821716457e-02
      2.2808574988355274e-01 9.1667155240441098e-02
      -4.0949283627647930e-02 -3.3800398563792113e-02
      -2.3422704138889375e-02 1.0346943990900241e-03
      4.5037566470656841e-02 1.3460121829645822e-03
      -8.6782199947022867e-02 -7.3520597520916026e-02
      -5.6785492740961119e-03 -5.0896001709792922e-02
      -2.5914185548059993e-02 -7.2556498639045189e-02
      3.3918166006246435e-03 -2.6743512593014540e-01
      2.8886739386032828e-01 -9.1552775926442467e-02
      -3.5505408880902659e-02 2.3579369298797151e-01
      3.3196962377614414e-01 1.2336352888874356e-01
      -1.5151326996422851e-01 1.9389903782957310e-01
      3.8302698825492731e-01 -3.7955407447464923e-01
      -1.5921298264001749e-01 1.3050199236458684e-01
      3.2759846028298778e-01 -1.1682137214611258e-02
      8.8583560672752124e-02 -1.8187309139493676e-01
      7.3505724076396136e-03 1.0016964309802362e-01
      4.2929559505756151e-02 1.6027555303317345e-01
      7.3810538067402190e-02 -8.1109773897803342e-02
      9.3783855898989285e-02 1.0109031663380444e-01
      1.1960122156478016e-01 6.4164179596834750e-02
      -7.1642798415795905e-01 -3.6629339347500628e-01
      -1.2541925127820927e-03 2.7293699798920518e-01
      -1.6822023304609496e-01 -2.1681604482962091e-01
      8.0750073005402545e-02 -2.0236805093678351e-01
      2.7841623757085709e-01 -8.2791754006182119e-02
      1.9149701126924636e-02 5.9464021582095287e-02
      2.0197417634303455e-01 1.6236538122811317e-01
      -5.2282932176904891e-03 -3.6548774552634050e-01
      -3.5439282636751823e-01 8.2264045652540405e-02
      -3.5066625663380030e-01 -2.5922559713756899e-02
      4.4468910888368823e-02 -1.4274061303381378e-02
      3.5789206554716829e-01 -1.0927954544205809e-02
      -1.8487217451102347e-01 2.1007810278519656e-01
      8.1351471621325055e-02 -2.0341315021713907e-01
      -6.8164780174963122e-02 -2.0386932690204149e-01
      -7.0316433546454032e-02 1.7612025041383242e-01
      1.3223906012091530e-01 -5.3009202894746726e-02
      -1.0038543863691186e-01 -9.7905697867543981e-02
      -2.3972406449904621e-01 2.6166114188465273e-01
      4.1599063491894944e-01 -2.9365080454031806e-01
      -2.5645112100086587e-01 -5.2644786855885328e-01
      5.7358889844650562e-01 1.6176348650831548e-02
      -3.6057808323838370e-01 1.0917075395533180e-03
      4.2559456902656403e-03 -5.7153918561910551e-02
      1.8959603707997147e-01 -9.2509009650683857e-02
      3.1498098043276274e-01 8.4406807082470448e-02
      2.9241345189416795e-01 1.0858710413197721e-01
      -7.2004628617973840e-02 -6.0289377535931853e-02
      -6.6446043674712837e-02 8.6215281801908059e-02
      -3.5392733564240808e-01 -2.0258172574753392e-02
      -3.7619021091151429e-02 1.2199329631741654e-01
      1.9702392562070845e-01 -2.7341549913143498e-02
      -3.4733318356456583e-01 1.7466543616129648e-01
      6.4280787305681722e-02 -1.2130457029590334e-01
      -1.7873216422245847e-01 -2.0233674264675597e-01
      7.3491142062218975e-03 2.2772432577902224e-01
      3.7016991047490871e-02 -2.1726736077126604e-01
      -1.4036912386767805e-01 -2.7148497942888222e-01
      -2.1481534004778410e-01 3.5945523002256369e-02
      4.4701753470726485e-01 -9.6873421386385591e-02
      -8.3781494762228362e-02 6.6181208882088421e-02
      3.3356687715411842e-01 -1.9078947937184185e-01
      -2.1104910977882557e-01 2.6962723074966513e-02
      -1.6935708283367973e-01 -7.6645320064158320e-02
      4.8630278063777399e-02 5.1565843036130425e-02
      5.2004052417683785e-02 -4.5551589066120543e-02
      5.2946395646797199e-02 9.9117067174179174e-02
      -1.1371785285249360e-01 -1.0615177133800466e-01
      4.2900993994554423e-02 -6.9798576700637896e-02
      -3.2827796500347506e-01 -4.0222637433847380e-02
      -1.8675706078957560e-01 5.1390387815088326e-02
      1.9342436710456729e-01 -2.9977099883807996e-02
      -8.6421710232643320e-02 -2.2036752533052862e-02
      1.3036432458206307e-01 -2.2845182300104433e-01
      3.1120194201922691e-01 -1.7132300880990342e-01
      -3.0943657752755913e-02 4.9419006650189591e-02
      2.8513834807108056e-02 1.1794044585172550e-01
      1.0525358378525349e-01 -1.3708129559016877e-01
      1.2055059989304630e-01 -4.4404468154131578e-02
      2.0418103819210542e-01 -3.8323985692683388e-02
      -8.4910819806818055e-02 2.5035920555511168e-02
      1.3093330468184325e-02 -3.7608140615805291e-01
      -1.6321565312346756e-01 8.4503869247080241e-02
      -4.0437875726811262e-02 -5.9830316103594947e-02
      -1.9544479587100632e-02 1.7543883358871717e-01
      -2.6089373854787282e-02 -3.4297212494522632e-02
      4.0594018342748374e-02 9.4255656146448888e-02
      -3.9124524048993768e-02 8.0323071839640769e-02
      -3.7731349499833333e-01 3.4358172758130295e-01
      5.6244910453655705e-01 4.1723737342183306e-02
      1.6956288828724700e-02 8.7527502113769307e-02
      -3.2993464590284327e-01 -3.8563373195969142e-02
      4.7490739516515709e-02 1.0055965965350913e-04
      -9.8380430638755234e-02 -2.2133710768388168e-01
      4.1731365791690633e-01 -1.1253032913412245e-01
      9.0955531895422104e-02 1.6691736872452314e-02
      1.7455230890355605e-01 8.2252686463847188e-02
      -3.2873215548517472e-02 1.4222032339485224e-01
      7.4372801992945381e-02 -5.6826322636074719e-02
      6.7980644576519214e-02 -1.3015267884114012e-02
      5.8247381261559955e-02 4.9581188180079713e-02
      -3.3553791926047141e-02 -4.6373762814705088e-01
      -3.9365194322071820e-02 2.2057407151518124e-01
      4.7623054392599007e-01 2.6302946186984671e-02
      8.9776141392070193e-03 -2.3659009780142192e-02
      1.3372186957751575e-01 -5.5786129624861090e-02
      -1.2583590242908971e-01 1.2975817746255505e-01
      -9.9680337129385899e-02 5.5947325588260162e-02
      -1.5915594865104916e-02 3.5023095548033828e-01
      4.8402649256690813e-02 -2.3335739700201300e-01
      3.1692813772014897e-02 7.5551735355419231e-02
      -7.8931467593893294e-03 -6.1306860529150228e-02
      3.0514641609281168e-01 -1.2244275441637510e-01
      -2.0995593211133673e-01 -2.2561067565972631e-01
      1.8166684793635224e-01 -1.9385078182260884e-03
      1.4577549111170610e-01 4.4442198179319367e-02
      2.7087283172615684e-01 5.4720303171194203e-02
      -1.4974321378705090e-02 4.4834854219660727e-02
      3.2673707669004116e-06 -5.3069108576012401e-02
      1.1354348440679780e-01 3.0947800406101383e-02
      -1.5337565465006919e-01 1.9992438258110862e-01
      -2.3979144070694923e-02 -7.1607563389208095e-01
      -2.5360758432731106e-01 1.2707898907109716e-01
      1.7012706804831107e-01 3.5111385223376146e-02
      9.9359717582483600e-03 -1.0931707025175401e-01
      2.2266223206300678e-01 -9.7097491221909429e-02
      -2.5574875989865808e-02 9.8569616956461992e-02
      -9.7693452908853784e-02 1.0756200358544921e-01
      -4.2337699019785804e-02 -2.2404256707855613e-01
      1.2048893605178500e-01 -3.9021579710948884e-02
      2.2664916754544396e-02 3.3703859791584484e-01
      1.7039474343813574e-01 -3.0070223291937304e-01
      2.1106069820332898e-01 -1.2187881891441328e-01
      -6.6691232849786924e-02 -1.5662261599018382e-01
      -5.5306670659924534e-02 4.2169355728200145e-02
      8.5820186391804193e-02 6.3312248190819626e-02
      1.0884503519825832e-01 1.9104243509315829e-02
      -3.0778560790418512e-02 -1.0278495381291021e-01
      -1.1895039853265232e-02 -3.1342399325682613e-02
      6.2648202858454391e-02 2.5212284562241949e-02
      -1.1021483112854547e-01 3.4082642474561740e-02
      -6.4731119717764754e-03 -1.5465994913048428e-01
      -4.9289923218919722e-02 3.5618945217395483e-02
      2.0471390189272523e-01 4.2057797003320152e-01
      2.5981051311465653e-01 -1.3760219000435078e-01
      -3.1732622691685197e-02 -7.6078908044967503e-02
      8.1992043269974155e-02 1.0598079051670493e-01
      3.0700824983206543e-01 -7.2113570158102904e-03
      4.5294109182114677e-02 9.0734027161929687e-02
      -1.6055643592282359e-01 1.6126870010246475e-01
      -6.6664694493399818e-02 6.6121113456838075e-03
      3.0635514607237713e-01 -7.5593271930506273e-02
      -4.0524657176688095e-01 2.2034829362429523e-01
      7.3522759253949480e-02 -1.6694111549622495e-01
      -2.1897100308016970e-01 3.0413229629716021e-01
      -5.5734919250966894e-02 1.7489426077291320e-01
      1.0600491475579520e-01 -2.5044023367437218e-01
      6.4484867656874306e-02 -2.3155219296086684e-02
      1.3580446566890497e-01 -2.2051213706180853e-02
      2.0831112444307919e-03 -1.4830035113945736e-01
      -2.2889798372678608e-01 -8.8868733058730692e-02
      -1.8397767298453060e-02 -7.1502230520213345e-02
      -7.5190928046780870e-03 -7.4618643250302541e-02
      1.3629466398082321e-01 9.5404684414733501e-02
      4.9160607688578301e-02 -1.9947978663981630e-01
      6.6051851066656524e-03 1.2571127793890838e-01
      -2.3705476837481747e-02 2.4171962503589783e-01
      2.5903278352103642e-01 -1.2339591674079123e-01
      5.8464238503914939e-02 6.7955645637984397e-02
      -1.9360758227618804e-01 3.8894967761118213e-02
      -1.7823459424215812e-01 6.6543585997848199e-03
      9.0674937372316466e-02 -2.6072805403625388e-01
      -4.8248277577460918e-01 2.0424051667185283e-01
      4.6934220859923851e-03 -5.4163911903259906e-02
      -6.9493753529102656e-02 2.0679848374590790e-01
      -6.0608519508291832e-02 -7.2621193256029767e-02
      -1.8572137027412652e-01 -2.0516530306690867e-01
      4.0932072114550501e-02 -7.3230950788000541e-03
      -6.8489655266746621e-02 -6.8768150351563931e-03
      1.8940671301000159e-01 2.6304571750010319e-01
      1.6635596216085080e-01 -9.6552062471816719e-02
      1.4769359396577986e-03 -2.0162707304701724e-01
      -1.0764736930299232e-01 -1.0768171885867492e-01
      2.0784805198191664e-01 -8.1473020223181855e-02
      -3.3473016833203625e-02 -1.2156058308368842e-01
      -9.5700283740356329e-02 9.6805323043761243e-02
      -6.0324928008499180e-02 -2.2539728865706274e-01
      3.5920235960866986e-01 -1.1778244519522137e-01
      1.9288755551905893e-03 -4.7388399165475187e-02
      -1.5800582002725574e-01 -9.6712760069634848e-02
      -1.9392301699781109e-01 -4.2943673896867804e-02
      9.4740861769135237e-02 -1.8295838270628406e-01
      -4.3665138748856591e-01 1.8152174437428831e-01
      8.3492101789677003e-02 -4.4672929085053555e-03
      5.2828154284265565e-02 7.7038936309490297e-02
      1.1736705227272905e-01 -1.3800241522085733e-03
      -2.3709020409503190e-01 -1.9784878238214479e-01
      7.1913479285446738e-02 -1.6815153505574238e-02
      2.2819162314962904e-01 2.7411406161234952e-02
      4.7531091589198798e-02 -4.8727512113251679e-02
      1.3543665047338002e-01 -1.7037978075557395e-01
      7.4366505034854169e-03 8.4651996124521400e-02
      9.1625673077256678e-02 -2.5112326032203264e-01
      2.2018110843258190e-01 -2.1768473475724137e-01
      2.5650690191612774e-01 -1.6919303863439319e-01
      -2.4716630908169251e-01 9.9343914387867452e-02
      4.8144202298687259e-02 1.1294767508450206e-01
      1.5772756901554782e-01 -8.8099649316046927e-02
      -2.0203609269038009e-01 8.8692231498618643e-02
      1.2037053968919434e-01 -2.2324015248987658e-01
      -9.0663509658567513e-03 -6.9410719462378433e-03
      -3.6425623154600233e-02 -1.1054801300383377e-01
      -1.3913324243728895e-01 2.5721646019856148e-01
      8.3142050250019833e-02 1.6271913443473743e-02
      1.3199206997933757e-01 1.2797872929789361e-01
      1.1061031399287956e-01 1.8932783237359951e-01
      -1.9992691019930256e-01 4.0259452198450917e-02
      4.2656894527310286e-02 1.5848604209578012e-03
      2.3082035953087290e-02 -1.8862746395277372e-01
      4.4692697370450347e-02 8.9944162235916822e-02
      -6.1663837054506107e-02 -4.5019026038115820e-02
      -2.4186393972686162e-03 -1.2469769156295123e-02
      -1.3845805388157328e-01 -1.2236035122145450e-01
      8.5717743325097517e-02 -8.3085914776927380e-02
      -1.0505488826275611e-01 -4.0894535818232713e-02
      -3.6334912783829176e-01 1.1925348685049457e-01
      3.8979449173943310e-02 1.1549625239227634e-01
      5.8654058981198527e-02 -1.1600116607121340e-01
      -1.1535523819836796e-01 9.9508928794190925e-03
      -6.2396377273673087e-02 -6.9713591812413716e-03
      1.0302456742373488e-01 -4.8529338196357436e-02
      -1.9522673234652152e-01 1.3252586871860658e-01
      -1.0518894585678790e-01 -6.0465435931583614e-02
      -6.1296163425872980e-03 1.0494507344930715e-01
      -6.7763603105878589e-02 1.1371540230445835e-01
      3.4644479535882101e-02 2.5344887726187726e-01
      -1.9034326037612015e-01 -8.6791725091042143e-03
      4.6055086789661061e-02 -1.7539449810478641e-02
      -3.3603105356884055e-01 -3.5578127363722656e-01
      -9.5317395192171653e-02 1.0239856678446838e-01
      3.9724735861158177e-02 1.9625060766921762e-01
      2.0297053515400850e-04 4.7606573392499706e-02
      -1.9742275003044460e-01 -8.7624987217832795e-02
      2.2798451564014338e-01 -9.5316202849283910e-02
      -6.6842162601942062e-02 -2.5008778348168836e-02
      -1.0812796931399346e-01 3.1739224670477506e-01
      -9.5894406034351173e-03 9.6319102807240903e-03
      -1.9760078666547817e-02 -1.0316823949119457e-01
      -3.9398581722574827e-01 -3.0327854391213593e-01
      -1.3781809370605405e-02 -3.9749625742660347e-02
      1.7080566448748022e-01 1.1305449540551138e-01
      -7.2182870753966025e-02 -1.1184418622453056e-01
      -6.2039302510254350e-02 8.0377470689875052e-02
      -1.1357230362527200e-01 2.4263869988978459e-01
      -2.1928489649491328e-01 1.6525822672687646e-01
      3.6244516008495026e-01 1.4582981727826669e-01
      -1.0571959566838104e-01 -3.6110952255969334e-03
      -1.5897411223903955e-02 -2.6935852808736230e-02
      -6.6890810286632396e-01 -5.6252144893307189e-02
      -1.7143066378826777e-01 -1.3733210523264752e-01
      8.0965871253347380e-03 6.0041123742495102e-02
      1.0262347286307638e-01 -1.1239470936730517e-01
      1.4526234334723914e-01 1.1775045652331151e-02
      3.8838179669640288e-01 6.0470812682858803e-02
      4.3459489101310056e-01 1.0042874921294029e-02
      2.2153890007767647e-02 1.4124960660960206e-01
      -6.7468010719341553e-02 -1.4081050581415896e-01
      -9.5208425009055513e-03 -1.4066383329008156e-01
      -1.5585018544094500e-01 -6.9997387562960534e-02
      3.6897481311732094e-02 2.0213922270937959e-03
      -1.4074211384006521e-01 6.3664495633905985e-02
      -1.1379298217852758e-01 4.4018925063416051e-02
      9.0065251385241782e-02 9.3004518258278004e-02
      -5.2854201501597295e-02 2.0742707348163950e-01
      1.6576951032151465e-02 3.5317558943729493e-01
      -5.3462752402322440e-03 -1.3057982667918350e-01
      -1.3673169849281144e-01 1.3700530694144089e-01
      -3.9814080212144658e-02 -2.5220134613280265e-01
      1.8321159610022078e-01 3.9467528519940717e-02
      6.2433877137290726e-02 -1.8973824483993335e-01
      -1.1669525790232235e-01 4.6035451520559184e-02
      1.2005552221236580e-01 -1.8819974538249198e-01
      -6.6510430839101934e-04 -1.9313540195795065e-01
      -4.9729251314780114e-02 1.3819208695674090e-01
      6.3078647286222006e-02 5.2282188532335253e-02
      -1.4475000937569732e-01 1.6897347529827925e-01
      -4.3905126546853898e-02 9.5941609013384804e-02
      -2.0150854616286587e-01 2.0722420027105837e-02
      -3.5985532201935282e-02 1.4631470131265468e-02
      -2.4540731783220573e-01 -4.9482541963902713e-02
      -1.3664956294807620e-01 -9.0569718500621618e-03
      -4.5642668536906322e-01 4.7680923973394622e-02
      1.0780685245814771e-01 -2.3311711360864434e-02
      -8.9769918653780562e-02 3.2052321980344722e-01
      2.4509621845964402e-01 2.1411111976711891e-01
      1.1205116631537053e-01 -2.1558456414279417e-01
      -3.3115488913415575e-01 4.9253507961363373e-02
      -1.0048378949409514e-01 -1.1919908187157366e-01
      3.0426688280857866e-01 3.3248570527099164e-01
      -1.6559418295932547e-03 6.5040566889741636e-02
      -5.0642185590305554e-02 2.4385106852034828e-02
      9.8515047272481879e-02 -2.4317831559477163e-01
      -4.9537637466033492e-02 -2.1855345450653135e-01
      -3.8430245730830745e-02 1.3686959659978061e-03
      3.0747073643336331e-01 -4.8778255716405733e-02
      -8.3306752460952177e-02 -5.0420312640117898e-02
      2.8803726670415836e-02 3.7681819852762963e-02
      1.0299556163206640e-01 8.9992258145199774e-02
      -1.2373075845707281e-01 -2.9141365585820124e-02
      1.6189341641647098e-01 -9.6352189755675124e-02
      -1.8165475031003367e-01 -3.7756253189113006e-04
      -2.4358873637241216e-01 2.9054002893142392e-02
      6.5288632581153763e-02 -3.5954135397354064e-02
      -5.2982566973333214e-02 1.6152479395816460e-01
      2.1667340250553380e-01 -4.5240020259427680e-02
      2.2528591191569762e-03 -8.4489636047440336e-02
      -1.9889528165661841e-01 -9.8457329005256861e-02
      -7.7318496168031506e-02 -9.1196579739487374e-02
      3.6822093603262518e-01 8.8408492864745547e-01
      -3.5200682968665277e-02 1.4229706233585021e-01
      -1.4167885437974103e-02 -2.0338293712490263e-01
      1.3784794079402199e-01 -2.6964206163481813e-01
      -4.6805845211710953e-02 -1.7825734717620859e-01
      -3.4860862600686618e-02 5.7437216672662966e-02
      1.3322013071779051e-01 -5.1789752442003019e-02
      -8.9701286028073618e-02 -1.7109445804745357e-01
      -3.1357272110606779e-02 -7.8908726661012882e-02
      -1.2612301578453439e-01 -2.4766303234432355e-01
      -1.9987145581100640e-01 2.6836717072739918e-01
      8.5057201632641466e-02 4.6271012008355694e-01
      -6.9060201796265139e-02 1.2232747231363783e-01
      -1.6770830170425455e-01 6.0910138900977351e-02
      1.1439171086600387e-01 -7.8258377966996195e-02
      1.0328234388817871e-01 -2.0041019726801342e-02
      -3.7813667238302795e-01 -2.5964119589252316e-01
      -5.4575011815461587e-02 1.0518665984332104e-01
      -3.9781364966390200e-03 1.1735818929644372e-01
      2.0247428248238433e-03 -4.3205964622807021e-02
      -4.3062815311783756e-02 2.4225307072100237e-02
      1.3971584551542128e-02 1.7816812868879886e-01
      4.4010329898054829e-01 -1.1709135029143254e-01
      -1.7961270418350106e-01 3.6758517953577548e-02
      8.7640595578636599e-02 -8.6530399099120553e-02
      3.6124242886103275e-02 4.4085472218494827e-02
      2.7464552669858772e-01 1.6818094055825322e-01
      1.5353557441099874e-01 1.0906141649974399e-01
      -2.2155920958014330e-02 -1.3617787891327526e-01
      3.4296966072661750e-01 3.1319716291436517e-01
      -7.1167283006805881e-01 3.9379190381785417e-02
      9.7561023751547171e-01 3.1142637446745947e-01
      2.0923888979914450e-02 1.5980129599992409e-02
      4.4984444383272246e-02 -6.6347724618368315e-03
      -2.7923770837047605e-02 -5.5796799423614180e-02
      1.6719589453046929e-01 -3.0287591008338405e-02
      1.2157860746361254e-01 1.6101845612681742e-01
      -1.0388334700002405e-01 -1.2777107829253917e-01
      4.9849006340903307e-02 1.3434590164069974e-02
      -1.1187405953888700e-01 4.6500889088477812e-02
      3.3259445327444159e-01 -1.8472789152114516e-01
      -8.0058780962356288e-02 -3.6457356020649978e-01
      -4.4628942377500105e-02 -5.1291691469579004e-01
      -4.6152539090723343e-01 -1.6510320997396938e-01
      7.3044964947482166e-02 9.0261841575798044e-02
      9.7666235918428351e-02 -5.8963470511427085e-02
      -4.6894461986786706e-01 -8.4653277374789740e-02
      1.9213144361865211e-01 -1.8066439189259467e-01
      1.9482952264434736e-02 -2.9591995486657693e-02
      -1.8775994755974335e-01 4.8241158864712619e-01
      -3.5570635263330103e-01 -1.1723410946901361e-01
      7.0855411452209027e-02 -4.3681836032487542e-02
      -2.1285517201959907e-03 -6.3294061808984226e-01
      4.2865635700674842e-01 -1.6542846806162315e-01
      1.0556002314078201e-01 -1.7060545526067731e-02
      8.0203252791461482e-02 -1.2856098851242713e-02
      -3.4016513044221325e-01 -2.4509110867970837e-01
      -1.6042059761956498e-01 1.1981579024923049e-02
      -8.9150453163179735e-03 6.4442504273256929e-02
      -8.8972034493388905e-02 8.9940232139965298e-02
      5.7092290118729121e-03 -1.9948623416498623e-01
      -1.5872867493164861e-01 -7.6258907750681815e-01
      2.6791595775438604e-01 -2.2583695467341389e-02
      5.5775430349855482e-03 4.2784210431090786e-01
      -1.2415482780779689e-01 -4.9632601876990569e-02
      -2.6953678385663177e-01 -4.1792540303937015e-01
      -6.2396358372933025e-01 3.7969474654837146e-02
      1.5326704889594239e-01 -3.2732118012979550e-01
      1.5783034121727774e-01 -4.6188311604469384e-01
      -5.0480172915567140e-02 -1.0981138838006593e-01
      -4.4315385030909149e-01 1.3879940472512131e-01
      9.8318637403871437e-02 -8.8302377294423728e-01
      2.8331282426644866e-01 -2.1866356496792072e-01
      8.2814634303406284e-02 -3.5748774736938306e-02
      1.0531886393036788e-01 -1.1453617473779285e-01
      1.0507114847102436e-01 -7.0205907954078526e-03
      2.5828985954537409e-01 -7.0505239754759930e-01
      7.6306512807202534e-02 -1.1938525227520450e-01
      -3.8223606523508445e-02 8.9091298245791442e-02
      -8.2191041427531711e-02 -6.6473340102945491e-02
      2.2355718437938746e-01 -1.7287743678086437e-01
      4.7232116405188457e-02 1.6144867362929979e-01
      4.8150899653860529e-01 -1.1402426264283080e-01
      -5.1995808795694404e-02 3.0131890090443772e-02
      -1.3623954921250631e-01 1.4469994937206987e-01
      -7.9158579383444824e-02 -8.1751067620102424e-02
      -9.6999748132102037e-01 -8.0308440749981128e-02
      2.6598682252689532e-01 1.3919975031246121e-01
      2.4428069638277719e-01 -9.3047619442331808e-01
      -1.2884545368639225e-01 -7.5657856730275055e-03
      -3.0935952528775440e-01 2.5518936352822090e-02
      -2.9590930618388483e-01 -1.1768326701511936e-01
      -6.6364701555353833e-01 2.7403837036477396e-01
      8.0132971219970081e-02 3.2637435795732161e-01
      -8.0072581143596722e-01 2.5488140149650555e-02
      -8.4055614711013082e-01 -7.2079583478780601e-02
      5.3374807451541793e-02 2.1998861526329246e-02
      2.7668205378667243e-01 4.0724491195128254e-01
      7.0329021065152292e-02 9.5202800924473530e-01
      8.7182759535318621e-02 -2.6288136211922625e-01
      3.9077222051978244e-01 4.7569538644496906e-01
      -6.6959900651058238e-02 8.9283939632869055e-02
      6.5230209560024854e-01 5.9825024557524320e-01
      -9.8579490478776829e-02 2.9443406348899992e-01
      2.2269826531241114e-03 7.5848283818574253e-02
      7.5227957886641175e-02 8.0498069263002486e-02
      3.8566155971279503e-01 -5.3873965217774170e-02
      -2.1953417571142525e-01 8.2388458437727297e-02
      2.1287827558462047e-01 -4.9687593513488358e-02
      -1.6395455059297437e-01 1.0728996146696630e-02
      -6.6985349668164407e-01 -1.4232479581941129e-01
      -4.2514421503457916e-01 1.4051681066123153e-01
      1.4388553866797862e-01 9.8426386107131081e-01
      1.3554288173660961e-01 -1.3093074717551101e-01
      -5.0354569414443195e-01 3.0855824573463680e-01
      -4.7439000829058131e-01 3.9622178667439528e-02
      4.9476628234563902e-01 2.4773502709979880e-01
      2.7916520220685054e-01 -3.6994010481331285e-01
      -4.0803918466277081e-02 3.4393176739021644e-03
      1.4461122939150448e-01 2.6276888843108170e-01
      2.6509541421276123e-01 1.0654888004375254e+00
      -1.6145629743157661e-01 -1.8146525671736469e-01
      4.4100671112580245e-02 4.8302895018211472e-02
      -3.9237507832820467e-01 1.0355746115331053e-01
      1.6539843399525084e-01 -3.9660480348180288e-02
      3.5336828106012930e-01 3.2738493076893876e-01
      4.7933745671868438e-01 4.5369836647989764e-01
      -2.8890076349713539e-01 3.2583627891394390e-01
      3.8617035019931134e-02 -8.2921800578358379e-02
      5.1430769143013783e-02 3.6701341764169404e-01
      5.0958990748584543e-01 -1.6992046008888537e-01
      9.2937388849836278e-01 2.3092030508842987e-01
      2.0572201045367125e-01 2.9974856080358614e-01
      -2.2012120636254817e-01 3.1488887362638945e-01
      4.3520348468901104e-01 -2.0886665474249111e-01
      4.5661589312662440e-02 5.3832196131840732e-02
      -1.3952984924239364e-02 -2.4906057466671247e-01
      8.4260956658458536e-02 1.1015729363833571e-01
      -2.0692956362555018e-01 -5.5840146196480023e-01
      -1.9135855310717653e-01 2.1143802405630627e-01
      -2.2784368473475439e-02 -2.2968159002489710e-01
      -3.4173632287632838e-01 -1.1727629139782182e-02
      4.4025484156857331e-01 -3.0186598095603806e-01
      -9.0401236203137197e-02 -1.5514995195189221e-01
      6.3513501956121543e-01 -8.8282766675346958e-02
      3.6416646931917131e-02 1.5929853752266961e-02
      2.2940928512246953e-02 -6.2458662581340724e-02
      2.3355448995211364e-01 -5.1833025949018630e-01
      -1.0249994146487479e-01 5.7442953220607371e-02
      1.1554794135825924e-02 7.1993872731172504e-01
      9.7698118843146831e-02 -8.9920609189868786e-02
      5.8827918584442174e-01 1.7253532327158132e-02
      -1.1542481602480431e-01 -8.0284783452941960e-02
      -4.3632316568003315e-02 1.7740436126431300e-01
      1.4457025362890761e-02 5.2765027558857376e-02
      3.4836546046250866e-01 4.6852207364003301e-01
      -5.9774968586349612e-02 -1.6694713975261849e-01
      -3.6990984383890722e-02 3.4569130333032416e-01
      -3.5419926760779413e-01 1.7716545034383580e-01
      6.4747926836770955e-02 7.1951219244255860e-01
      6.6123151381658349e-02 -3.0683483175776816e-01
      -3.3563266959859522e-01 -6.5683940300348731e-01
      6.1586871403184285e-01 6.7845412912963143e-01
      1.7520943063918215e-01 -9.3854790463410964e-01
      -2.4816122068254702e-03 3.0058025100316004e-03
      -2.1082953582310329e-01 -3.2079614376556620e-01
      -3.0540297083781986e-01 -4.4048887856208724e-01
      1.1268061317691465e-01 -5.4367809634734132e-01
      -1.4592848370758182e-01 -4.2834709059014979e-02
      1.7925824911498298e-01 1.8752842600433436e-01
      -5.5959589789682934e-02 -9.2872187662055738e-02
      2.0828518369113293e-02 1.8989435081217110e-01
      5.2894049765120424e-03 -4.8987626023818448e-01
      -1.0614350969511530e-01 1.7525575586389577e+00
      3.2772959261906842e-01 1.5757605008006378e-01
      7.2731030457095236e-01 -2.2091952135010054e-01
      -9.7140115877175581e-02 1.4505416232357976e-01
      -5.7581832813461598e-01 -1.7184964326528104e-01
      8.6859501523103372e-02 1.9728720210293402e-01
      1.6014708675644598e-01 2.3291751695037943e-02
      -8.4113976640149102e-01 -1.0513366131971025e-01
      1.8481659761602373e-01 -9.6408236572838951e-02
      -6.9600328521696231e-02 1.5400112586515055e-01
      1.0979893669300902e-01 -5.9891810407492266e-02
      7.6250349747939858e-02 2.0344857440774733e-01
      -3.8617238342550658e-01 -2.0584144947917515e-01
      -6.7710073152164274e-01 -2.9243242687111665e-01
      1.7601383673969316e-02 -1.8647695881233786e-02
      3.4321877493965314e-01 -6.8397236853172854e-03
      1.2045913564128449e-02 2.5090516267418150e-01
      7.1269787339407342e-01 1.1564708675570633e-01
      9.8112350209648846e-01 -2.0899267272021324e-01
      3.1215033259095047e-02 3.6742617300405983e-01
      1.1586537366047692e-01 -5.0865755492338394e-01
      -1.8058954760543467e-02 2.8037629808940639e-03
      7.3491526635961979e-01 2.7916169428652750e-02
      -5.4291442698116643e-01 4.1472556221620799e-01
      4.4829652965084438e-01 1.6611502908847850e-01
      9.7524579846532414e-02 1.1968616592970051e-01
      6.1022945232908554e-01 2.3652734650707282e-03
      -3.5548998285970534e-01 -1.8084969984617041e-01
      1.7670098719462787e-01 -2.1901237690929581e-01
      2.4830138699849683e-01 -1.6215840240257375e-02
      1.3071772273828064e-01 5.6323595520192782e-02
      -1.0505442785290939e-01 1.2165978738080750e-01
      1.7014555902614018e-01 -4.0336423282045005e-03
      -3.9089778341379711e-01 7.0174602597068869e-02
      1.5818999072236273e-02 -5.0087143601144461e-03
      5.4115345929423880e-02 -2.0384289451072099e-01
      -1.4149620201372703e-01 -1.8064268548233117e-01
      -1.2616554704937357e+00 -9.1046932876117939e-02
      1.8799774811323308e-01 6.4513861129391753e-03
      6.2634325950287617e-01 2.1265052696256675e-01
      -1.8054538352066582e-01 5.9791546165630727e-01
      5.8440832487646655e-01 5.9560074973199228e-01
      1.3805306761272423e-01 4.8505854232287510e-02
      9.0902077566886486e-01 -7.5489091544113360e-02
      6.2430768891458022e-01 9.0841016476769218e-02
      2.6790030645840388e-02 1.0665610978659044e-01
      -7.6141624684518683e-02 -5.0749210719537097e-01
      -2.9038349537336372e-01 4.9569303232630074e-01
      8.6300566244193300e-01 4.6534721439308779e-01
      -9.8130681364578276e-01 1.5514358868267553e-01
      -3.0596519390132076e-01 5.4218851075284749e-02
      -5.9840243048700295e-02 1.9200139582099621e-01
      4.3740822167941584e-01 -2.1208150954819202e-01
      -8.0837204694722969e-02 -4.9906787371036077e-01
      -1.5114561391786424e-01 6.3640034577204033e-02
      1.8662131852977056e-02 -2.6959370333192574e-02
      -1.2846299663611083e-01 4.8712859814772158e-01
      -3.9276564802993380e-01 3.1830523355169865e-02
      1.9050157166419682e-01 -5.9949233174598660e-01
      -3.1014457855785693e-01 -1.0316375801229613e-01
      -4.7831329890925894e-01 3.3276209617707428e-02
      -1.0549039305680309e-01 -1.6344863404615920e-01
      1.5501814814129655e-01 -1.5869065800422666e-01
      3.1243901301229426e-01 1.6570551434588682e-01
      2.0454140502388418e-01 -9.9579365293058029e-03
      1.8916295278825801e-01 1.8905695084714250e-01
      -4.2887464597469582e-01 7.2383431069524357e-02
      1.8606787299634486e-01 2.6120692158274478e-01
      2.0018766940066340e-01 -2.3340086518499537e-01
      2.1624206182810118e-01 -1.3272702798406924e-01
      -5.0579920947397605e-01 1.7356634582408087e-01
      -5.9943819940305995e-02 8.5732895210670193e-02
      9.2588238068723849e-02 1.1961484653277388e-01
      -1.3689321774925739e-02 -1.4486447252589610e-01
      9.6673630090846452e-02 -1.5768994075999976e-01
      3.2730189511618719e-02 -4.2451875616280964e-02
      4.2584695140602352e-01 8.8881215370907207e-02
      6.5391687489926506e-02 -4.9662206349045432e-02
      -2.6180827841820308e-03 5.7633758030454001e-02
      1.2672308132820720e-01 -2.1498784660293863e-01
      -2.5797192580059098e-02 3.1713879739660021e-02
      2.8715472315834950e-01 -5.0667350824352225e-02
      1.6915493003195556e-01 9.1376130524511115e-02
      -1.4669715240857219e-03 -3.4187978344356168e-01
      8.9008522236887752e-02 -1.7604973436454917e-02
      9.0206976553257781e-02 -3.5166410369709883e-02
      7.0571914677568404e-02 2.8442353487905037e-01
      -2.1371338950118442e-02 5.7456147967353606e-02
      2.7562962343465847e-01 4.1714409242537540e-02
      7.4488216217509021e-02 2.7897434861483043e-02
      1.1646376177455714e-01 1.0341665419717800e+00
      -1.7053844932716411e-01 1.5918587685443011e-01
      1.4446295886294135e-02 1.3420766669023562e-01
      -1.4313926851838334e-02 -2.0388810252363634e-02
      1.1254652052815822e-01 2.0564901052958027e-02
      7.4485893451704283e-02 -6.1534870516636808e-01
      3.0278273398521693e-01 -1.4128645339427137e-01
      -1.9453892876814846e-01 1.3696587206692876e-01
      1.6128098318587378e-01 -1.4799440624271065e-01
      -4.1489997288057828e-01 1.9068100013193393e-01
      -5.6252984536741955e-02 2.4610741444561801e-01
      2.5806157133459229e-01 -3.0133644274026689e-01
      4.3812710138930910e-01 -5.6976735963136393e-01
      3.8847234009298720e-01 -1.3575365940965325e-01
      2.4789204403504281e-01 1.2416168014509189e-01
      -5.7690415603870440e-03 7.7937725483232551e-02
      -2.2758132191370894e-01 -1.2270785144082999e-01
      1.1245470487521025e-01 -3.1450849511481291e-02
      2.6049456595181253e-01 2.5532967878292793e-02
      -1.7507470981643375e-02 -2.1724014966117311e-01
      -2.2604955430068441e-01 -5.5462391634127944e-02
      -3.6096228836838601e-01 7.5602869201882750e-02
      -8.7320484362408871e-02 -7.7553436403153198e-01
      3.4952784837729195e-01 -4.4092542038262426e-02
      1.1959127396458425e-02 9.7238061453001651e-02
      2.0033553687291275e-01 -1.1141444136469661e-02
      5.6079466906730518e-02 8.1658693436033811e-02
      3.2038423805811442e-02 -1.7058078504811391e-01
      -2.7932914791860791e-01 7.3917754692095675e-02
      2.6285334124325982e-01 1.9269432770713552e-01
      -3.3347949114179702e-02 1.3620003505267225e-01
      6.9843985420855362e-02 1.1642859421383741e-02
      -1.7547369803270882e-01 -3.5154071989410861e-02
      6.8137168120865577e-01 -3.3229056844248844e-02
      1.2566217554596673e-01 1.2148520084384620e-01
      -9.4534410429421706e-02 2.8704192210148898e-02
      -1.5188214219267970e-01 1.3378991457148040e-01
      -3.0762259095273501e-02 -2.0687432366897951e-01
      -2.0519629848462968e-02 9.6535617060237860e-02
      3.3212481370529651e-01 1.2319957302205176e+00
      -1.7599240855351445e-02 -1.4277562337303804e-01
      -3.2113461871054699e-01 2.5849565504597721e-01
      1.4634099508039597e-01 -3.0705711343382458e-01
      -3.9411728709147509e-01 1.4160321018113223e-01
      -5.2318961197497529e-02 1.5961906715380184e-01
      -5.5304460441272407e-02 -3.1603995827898129e-01
      -2.8007912729940970e-01 2.2461358561796296e-01
      1.7131783502002829e-01 -4.6593966015244313e-02
      1.4655282898403554e-01 6.2560174477328284e-02
      2.8237254913506232e-01 8.7371521039963873e-02
      6.2073101012913627e-02 -5.7020827087505312e-02
      6.8284705281364447e-02 1.4902198408290596e-01
      -2.0964394988171254e-02 4.8841892809259635e-01
      -4.6115283038112270e-02 -2.8760502973974961e-01
      9.2941184651601103e-02 1.3374158752492774e-02
      4.5145054437362567e-02 1.0926193190902743e-01
      -2.1194592520811564e-01 2.9058468633315186e-02
      3.7000350133612553e-01 4.4877676478350281e-02
      -1.3591175870901487e-01 -8.2063402079189857e-02
      9.1946698950180317e-02 1.3283362952221442e-01
      6.5713000111045347e-02 6.5934716601261087e-02
      -3.1419356531034765e-03 -5.3657094754909068e-03
      -1.5624713208550922e-01 -8.8842807645851996e-01
      -3.4284026643115012e-01 -3.0687992134093504e-02
      -1.9424164906402583e-01 4.7443317625197073e-02
      -2.0158389939953028e-01 -2.0012508170235618e-01
      -4.5300457380616152e-03 -1.9665051041479123e-01
      -5.4169035880201798e-02 -1.5412770199396079e-03
      8.2225842056840870e-01 3.8870361799540190e-02
      -6.0681670770433871e-01 8.2340927953738458e-02
      -2.7831901614836690e-01 1.2863006468002985e-01
      -1.4677887565897488e-01 4.4985798470042353e-02
      7.7102331094541821e-01 2.8018979506275684e-02
      -1.5838133608002944e-01 6.5793898090265923e-02
      8.6580260883239599e-02 -2.1525090298243502e-01
      1.3079211557382209e-01 1.3220311156323669e-01
      1.9173214155263363e-01 -1.3565123998211268e-01
      9.1062923250777728e-01 3.7512196710461944e-02
      2.5061406353532317e-01 -2.5472762931118953e-01
      4.0687427556747985e-01 -4.1786663804990826e-01
      -2.7854404379243441e-01 7.4121334607042433e-01
      7.9789687880333485e-02 -1.6392270253937957e-01
      -1.1767348232987934e-01 -9.3336879286297941e-02
      3.3484038757622248e-01 -3.5380061286736936e-01
      1.5252143797503660e-02 3.4045590219142841e-01
      -1.3421009817623225e-01 -2.0748168943154732e-01
      -1.7610351099616804e-02 7.0021832841312104e-01
      8.5889278813642153e-02 -3.5146177014410379e-03
      3.5033370278664289e-01 1.7186367502353697e-01
      -1.3801356878575272e-01 -2.1946112170486418e-01
      9.9592787326068591e-02 -6.6188076120374653e-02
      2.7714405763205139e-02 7.5985755338443206e-02
      -3.5108062297169521e-03 -3.1602094432681027e-01
      -2.2228485961815908e-01 4.9140908868406961e-02
      -1.4743340900777893e-01 -3.1395535595517075e-02
      2.3881500704251357e-01 4.0782303078945648e-02
      2.9591286900721592e-02 3.0786288804563820e-02
      9.6476068202337034e-02 4.0456888151916524e-02
      -1.2065951379458216e-01 -6.2117405316099064e-02
      6.7308714759678134e-01 -1.1319658610934000e-01
      2.0560444929988875e-01 7.9426991132617542e-01
      2.4621098073736816e-02 -2.1263596461312453e-02
      7.0507481849017076e-02 -1.4231627953990672e-01
      1.0177183977834722e-01 2.2279673081541515e-01
      -5.7371450733926334e-02 2.1615890093064530e-01
      -1.1088638768557291e-01 -7.4729836747130240e-03
      -1.1206717535078696e-01 4.5497225713803757e-01
      -4.8679262327409434e-02 1.6552199988195934e-01
      5.2915100565538231e-01 4.2241089048759245e-01
      -1.5346413418731544e-01 -1.3344290759673955e-01
      -5.6847125965161241e-02 2.1378633720003082e-01
      -1.0107196712771251e-02 9.9690044254971161e-02
      7.4741545562564882e-01 7.0401784431780495e-02
      1.6126874244813960e-02 1.6008713578416431e-01
      -1.5606530928077628e-01 -1.2672350408543698e-01
      3.8272177031536701e-02 -1.0676925534807560e-02
      -9.0220607825724983e-02 -4.9952389488378635e-01
      5.9688537942867614e-01 -1.9830644459040261e-01
      1.4756221540505518e-01 -7.0816154518998850e-02
      -9.4316349251600193e-02 4.2320599829690669e-01
      -1.6635903361858759e-01 -1.6919297994305563e-01
      -3.5384946331246442e-01 7.6032171401089726e-02
      2.6234843845604155e-01 -1.7046623656092519e-01
      5.2660906995636469e-01 -2.4185600004266761e-01
      3.7498948221439850e-02 1.1291577440288648e-02
      -7.1434185648701121e-01 -3.3651089952886343e-01
      8.2909235982739499e-02 -6.0837601989390888e-01
      1.2198982755920548e-01 1.9832848269391953e-02
      -4.4525845363011957e-01 -1.8232788031654128e+00
      4.0007205012550112e-01 3.2383597564590044e-01
      -2.9654721169842435e-01 -5.4074586475794084e-01
      -3.0959385929766392e-01 2.3644961463386027e-01
      7.4009251671388943e-01 -9.5219214277169298e-02
      -3.4070216976745282e-02 3.3182419262972407e-01
      7.8060911969225277e-01 -4.2389288661065970e-02
      -3.1597382472880243e-03 -7.1235765787965755e-02
      -6.2215140350577425e-01 -1.0234209115954107e+00
      6.8720387802046745e-01 2.9774408586239726e-01
      4.3475499991413130e-01 3.3004808789565759e-01
      -7.8342051393155338e-02 -3.5004416672759930e-01
      -4.2014599621126095e-02 4.1340365239531773e-02
      7.4550345706065058e-02 9.0639439387323842e-02
      1.5110348287341815e-01 -1.5310397019442670e-02
      5.1325589773877434e-01 -2.3091938230364464e-01
      7.3410272971073276e-02 2.7111741186521726e-01
      6.4764064876952632e-02 -3.5406939255657682e-01
      2.2044894239863908e-01 -1.0465054998707661e+00
      4.4139136161524206e-01 -1.0025785186699330e-02
      -1.4514268902833177e-01 -8.8105698847414959e-01
      5.8992713353155679e-01 -2.1635070782437468e-01
      8.6755802293884812e-02 8.4658598164685878e-02
      4.6728278607907092e-01 1.2014683921156880e-02
      1.4648367155993408e-03 -1.5975170535065980e-01
      1.0512095415308474e-01 1.2988327456059434e-01
      6.3611981361809500e-01 6.1903900259383006e-03
      7.3263860567151617e-02 -1.0837481522175418e-01
      -2.3063316716853086e-01 -1.1848192544400435e+00
      -3.3284670636321928e-02 -4.1039214145743602e-02
      -1.1350987124276539e+00 -1.2734295906420257e-01
      -2.7085075116164298e-01 4.1980022440820214e-01
      6.4019150397528524e-01 -4.6754094455926251e-02
      1.8757105036586275e-02 1.5849373278234186e-02
      -1.7659956245054723e-01 1.3228666925595522e-02
      3.5251812679621786e-01 -6.1079948802805928e-02
      -3.2013193817865715e-01 -1.0149297623350001e-01
      1.0937628356722803e-01 -1.8489131918577401e-02
      -8.5631436487433807e-02 2.5040622197554846e-01
      1.7274462567965922e+00 1.9251081716199009e-01
      -8.0265739241085310e-01 -1.4846049389861886e+00
      8.9428753677926021e-01 1.8153703277487179e-01
      4.0558019150746505e-01 4.0495827354954883e-02
      -1.1904994924025951e-01 -5.6813822590699191e-02
      1.5687892272704551e-01 -1.6555161636497992e-02
      7.5563862486977851e-01 1.5475974570469486e-01
      6.8812180639279741e-01 4.8478994715344767e-02
      4.1247340536955285e-01 2.0213582972304509e-01
      -4.9351449070548581e-01 1.0284791119139805e-02
      1.5798356312296544e-01 2.3367619935009867e-01
      5.5097878961904725e-02 -3.5250906872583238e-01
      -8.6121011441273243e-01 1.7719725391506938e-01
      -5.2696606986952166e-01 -9.4197266716111464e-02
      -8.8775877902209130e-02 -1.7024323098038649e-01
      5.1958668973503083e-02 1.5044101338120558e-01
      2.6130912936156558e-01 -5.3093005973013585e-01
      -1.3748298449538363e-01 -1.5341670872397248e-01
      -3.7730375322246879e-02 3.5432821217350097e-01
      -3.5127344539642960e-02 5.4057593789285464e-02
      2.6473487897361040e-02 -3.6344317501721783e-02
      -7.3854234573450162e-01 -2.4447865190604792e-01
      1.2385429579183603e-01 3.1585953424527596e-01
      -1.4628948451477233e-01 2.1232070393231833e-01
      -1.1843452413715501e-01 -5.0281275295910144e-02
      1.3037259476189070e-01 -7.5916380993108101e-02
      6.4497412226341339e-02 -1.5679156443437373e-02
      1.7525978586191907e-01 3.9193654854911220e-01
      9.9044626375983977e-02 -5.6175203704505537e-02
      7.4336546909873097e-02 3.0611175267834828e-01
      -4.1884711567144878e-02 1.1147570046226006e-01
      1.7576024008388280e-01 9.1175785491126090e-03
      7.1320043497116667e-02 -2.1271571189628957e-01
      1.3002548324379824e-02 -1.2814471254272994e-01
      -1.2499181467859025e-01 -1.5182696872444371e-01
      1.2119847344335397e-03 1.7075259344192403e-01
      4.1000744660062249e-01 7.4157450448516848e-02
      -5.5192807687287009e-02 1.0537897505899474e-01
      9.8818919963205992e-02 8.3192686005567937e-02
      4.8949358732291962e-02 -5.4529694428424300e-02
      -8.9027206366311708e-03 -7.8990658200228964e-02
      -1.2408801284260411e-01 -5.1578694660796773e-02
      1.3326993198833326e-01 1.4763962628548394e-01
      -4.4506532556019957e-01 1.1378683773173459e-01
      2.4572909469918976e-02 -1.0106145658817898e-02
      2.1083517160588811e-01 -9.5465717601300459e-02
      6.4325265100866136e-01 4.0759617040936186e-01
      6.9846309207500401e-02 2.0333598382310431e-02
      9.2977822204243457e-02 -2.3569081220549221e-01
      -2.0695176489659003e-01 1.3085351076879667e-01
      -8.5761593347525575e-02 9.0591442405150838e-02
      8.0760238950661922e-02 9.0576810250797488e-02
      -1.2484047232416928e-01 2.6329264049256601e-01
      -1.1483899481029760e-02 -3.3851840530620891e-01
      -1.7059709945220922e-01 3.9112095895846750e-02
      -4.2621993345661080e-02 5.2068861857568483e-01
      8.3187216012877874e-02 -9.9360918429815800e-02
      8.0698178203852861e-02 -7.5570518017544053e-02
      -1.2960970380153741e-01 1.0059275829267444e-01
      -2.6597361850133716e-01 4.1558248713568060e-03
      1.3280948179004876e-01 1.3771573333819392e-01
      -8.2043005689321644e-02 9.2212076215303451e-01
      -2.2725538448642724e-01 5.4878590452691689e-01
      9.0038798069278798e-03 6.2863899351970190e-02
      4.9674191707541954e-01 -9.2834302280748493e-01
      1.5397539950860441e-02 -3.3105355889433093e-02
      1.5693611845136665e-01 -2.3041938131003267e-01
      -1.8319355342358667e-01 1.0332267346363308e-01
      -2.0165490854928837e-02 -2.5808138011275833e-01
      6.3445901824352974e-02 -1.4571899050264939e-01
      1.3136243589499899e-01 -2.1699756290773708e-01
      -5.4908219179446008e-02 1.4808502616217517e-02
      -6.3328280972819229e-01 1.9286894885408926e-01
      1.6862198160048883e-01 -7.5693050312339738e-01
      -3.9611222177706795e-01 -4.8973228237719796e-02
      -1.9654771177414562e-01 -1.0139639393516930e-01
      1.8149337707654092e-01 2.6734446168119486e-01
      1.2596858006505723e-01 7.3183100605573800e-03
      1.2588945420259373e-01 1.2260485235614994e-01
      -1.0669290882883391e+00 -1.8172180547024153e-01
      4.0036316745688007e-02 -1.1795904820247102e-01
      -2.5159336838870305e-01 9.2098883184030950e-02
      -2.1848313686349563e-01 2.0285972940503407e-02
      -1.5189152301344681e-02 2.9954946130870370e-02
      4.7669011104173042e-01 1.6632206724147228e-01
      1.0110936896511200e+00 5.1494027815846322e-01
      -5.6370051170470259e-01 1.4030262232852975e-01
      1.0393994131771499e-01 -2.9098347259356002e-02
      -1.5829074440479390e-01 -7.4495567059787424e-02
      -2.0324659228856368e-01 -1.4302532455283859e-01
      2.6223264269840135e-01 -4.8081637830672630e-01
      7.6036022367084427e-02 -8.8062762422806574e-03
      1.2007427978869969e-02 2.2701860046458473e-02
      2.1140405247237484e-01 -1.9232173353205193e-01
      2.9205577413969321e-02 -9.5062392807056917e-02
      8.0915596823807265e-03 -4.3167457032960149e-01
      1.0218917369575164e+00 2.8618959483394022e-02
      -3.9358913575730139e-02 -1.8921801396379626e-02
      6.0777708411374122e-02 -2.0486335732513056e-01
      -3.7266248196627311e-01 -2.3243053629645305e-01
      6.1516807710800897e-02 2.3739116574806454e-01
      9.6987057037371538e-02 -8.7674755090675863e-02
      -4.8078247181830813e-01 -9.4736835635152616e-02
      -3.1741232466596540e-02 1.3102982858310497e-01
      -6.3370075656899039e-01 4.8247083979616756e-01
      1.5341146673167022e-01 -1.1832451601223204e+00
      -6.0926284757039340e-01 -2.4544102558309841e-01
      2.1775791857198139e-03 -7.4232503910855396e-01
      2.7132908756776770e-02 -1.3353836252281115e-02
      5.6154973441347789e-01 -1.9427330261674813e-01
      6.1564524580084246e-01 3.2294485791794614e-01
      -1.3914992970533480e-01 -2.7484714020391154e-01
      -7.4279698869981248e-01 -7.0155938237361337e-01
      -8.3310641789328344e-02 1.4192145050176828e+00
      5.6038529245356905e-01 9.4331995541972954e-02
      7.5523787822740038e-02 -4.5748837318741603e-01
      2.6261873049520262e-01 -1.6711287577832618e-01
      -3.5153917584511127e-02 -2.5192760987660989e-01
      2.9036677744196787e-01 9.4479403744893581e-02
      -5.8740354529921025e-02 -2.2928222248497399e-01
      7.4032279874081619e-02 -1.7982550309647652e-01
      1.9405077067729654e-01 3.3520735770135807e-01
      -1.1217246605494981e-01 1.0715043041171664e-01
      8.8873566209453581e-02 2.4781489758755802e-02
      -1.5051020533026724e+00 1.7385591029164082e-01
      -8.2506673116311061e-03 -2.7616086855858835e-01
      -2.9639178881153878e-02 -1.4076051955232691e-01
      1.9698969729973023e-01 9.1307784299147751e-02
      1.6082775198310673e-01 2.0339978037012812e-01
      3.4275823766707991e-01 -7.8480750885645559e-02
      8.2553954141398447e-02 1.9726843486477172e-01
      4.8628619119819125e-02 -3.6344073127953069e-02
      4.5776644404180042e-02 -2.7084231466151104e-01
      3.2555335850112288e-01 3.4107531443230049e-01
      -1.8649944043780198e-01 -8.6861718134994922e-02
      3.0696728507409461e-02 3.5223732818313214e-01
      1.4806068896967892e-01 -6.2874620527044622e-02
      -9.3974471807313775e-02 1.4495335879819352e-01
      3.2040425912995391e-01 3.7904035697622435e-01
      -2.3821578146730141e-02 -4.2945898708438229e-01
      4.6030450696444139e-02 1.4511478726354438e-01
      -2.0726433657456456e-01 -1.3024979034265773e+00
      -4.2502835702298694e-02 7.7757674996195159e-01
      3.8823131131957310e-02 -9.4316333085750625e-01
      -2.1197881847222907e-01 2.1391295581180486e-01
      7.4504622742435511e-01 1.0760421095008980e-01
      -3.2174925470976223e-01 -3.8811430135702280e-01
      5.3191954306203648e-01 -6.7180662467868663e-02
      1.5398795807249333e-01 1.6513554222840796e-01
      -2.4865241966720483e-01 -1.0512871033960425e+00
      1.4361445722442194e+00 3.3522228130047910e-01
      -2.3312577542127927e-03 -2.2723161794681038e-01
      -5.5469281973174400e-01 -1.7410134370129126e-02
      -1.6733322977124249e-01 8.0366161558719229e-02
      -3.7405170580043312e-01 1.0444321088140199e-01
      2.8476574640530855e-01 9.8488927063784926e-02
      -2.4108781295850515e-01 -3.1081500567735166e-02
      -7.0964494893617974e-02 -7.4984774499426116e-02
      -1.2508812779707551e-01 -2.4899118644088991e-01
      3.2640227496463822e-02 -2.2624264927274276e-01
      3.6417130687366350e-01 5.3069043776368306e-02
      4.4201217254802326e-02 -2.5960460488775357e+00
      5.2671262918868977e-01 1.7549281408845177e-01
      -7.8358703746516684e-02 -5.4576188002939086e-01
      -4.0836254951318832e-02 7.7098531589859715e-02
      7.1102714836742631e-01 -6.6715960212274411e-02
      -9.0275339419675832e-02 -6.2314657001620963e-02
      6.1022575298200521e-01 -7.5416673981867188e-02
      -7.0547263320111103e-03 -3.5383063102318764e-03
      -2.3935880773761406e-01 -9.7704192563276637e-01
      8.5401102554949149e-01 1.8681626693086761e-01
      3.5654308011455915e-01 1.8291187679471389e-02
      -7.8263564775511343e-02 6.0927025476127872e-01
      4.5911134528879002e-02 1.7608477735360509e-02
      7.3694202739669562e-02 -1.0131930559390248e-01
      -1.4925584276139092e-01 -1.6466039426274348e-01
      8.8574963809147833e-01 -4.3116702995276684e-01
      -1.7824660517412030e-01 2.6924989792597859e-01
      1.0230313229146976e-01 -2.1766184235821825e-01
      8.0066538201506485e-02 6.5803220103483467e-03
      8.1491994353087027e-01 1.2998400308284719e-02
      6.3935813069473035e-01 -1.3049820467123494e-01
      3.0431813642470396e-01 -6.6786035624843609e-01
      3.2385386411505283e-02 -2.6973445788823186e-01
      1.6184964976357458e-01 -4.8046338894824792e-01
      1.2739188787766076e-01 5.2467358141618881e-01
      4.9042076987582221e-02 -8.2957474381364082e-02
      1.1100196667441749e-01 -8.3794646149469923e-02
      -3.2469783511050915e-01 -8.5528294980769470e-02
      1.8197711452597558e-02 -5.6145791744293272e-01
      -5.3950006309037257e-01 1.2588118497461775e-01
      3.8600345198482006e-01 -2.0604882093909807e-01
      -1.4712224247418393e+00 5.4629826264782655e-01
      -4.4795363486327183e-01 7.6710298221562534e-01
      -8.4443404300054078e-02 1.6707520660252226e-01
      3.5438726121986397e-01 3.8771574328800150e-02
      1.8284186887709161e-01 1.3637351906975929e-02
      -1.6584931270193159e-01 1.6280920155154702e-01
      2.0410342844416771e-02 3.6711713044124562e-04
      -1.1861993614629184e-01 2.4521397197007574e-01
      -1.2867664761328488e+00 3.9950916644106421e-01
      -1.0696261696961178e+00 -1.9520040335738806e+00
      8.8182540355757766e-01 6.1775799939866149e-01
      -2.4431400061973224e-01 3.3747462297663323e-02
      -8.9861181928822156e-02 -5.6126320641000739e-02
      1.5501683921011256e-01 -6.1716188197421376e-02
      7.8376265692626612e-01 1.5849641488934377e-01
      3.9344469784098413e-01 -3.1259522576313120e-02
      4.1208269456145508e-01 -6.3912084156591387e-02
      -4.7435236635926253e-01 6.4936841878629990e-03
      1.4995417512785642e-01 2.6734046739270767e-01
      1.0411582893836402e-01 -1.7840848795374445e-01
      -1.6475442253294053e+00 1.1377451344684451e-01
      -4.8617459787888756e-01 1.5656276024282614e-01
      -1.0405248219286353e-01 -1.5564048470349690e-01
      2.1925290362409705e-01 1.5861256953341663e-01
      2.0557908330911814e-01 -5.1503428387711681e-01
      -1.9264849347664531e-01 -1.5515188486692291e-01
      2.8622164133362268e-02 2.8375782537125444e-01
      -4.9525631882546800e-02 3.1504314094335406e-02
      2.0842362967212792e-02 -2.7464420335490919e-01
      -1.2758984954264130e-01 -1.9808257239796284e-01
      1.6164715837643628e-01 3.2161164528208619e-01
      -1.3580763690420475e-01 2.1077418625045685e-01
      3.8574354818518586e-01 -1.0486832187102928e-01
      7.7750392658855097e-02 6.0115639729034567e-02
      1.2589752761435063e-01 1.9910966062024293e-01
      1.1632177726521055e-01 1.5120232146918558e-01
      8.0610666545466517e-02 -3.9748354696552197e-02
      8.8782106148812837e-02 2.7750687593613599e-01
      1.2192950545127072e-01 -8.0893392230780972e-02
      1.5395358617840288e-01 2.2968003169037410e-01
      4.7963024992464104e-02 -1.7856029242322990e-01
      3.6281201871359900e-02 -2.9828252485959456e-01
      -1.7038043677446180e-01 -1.0518999072164022e-01
      1.5658719603794724e-02 1.8135572025402250e-01
      3.6680428064564036e-01 -1.1027991103596810e-01
      -5.2733717633583525e-02 1.2311736776570872e-01
      2.0124715295060443e-02 9.3079505589881636e-02
      1.0282011195624495e-01 1.7177092132096547e-02
      1.9046944624392473e-01 -1.3494103607033825e-01
      -2.8051044671887632e-01 6.5692259105751338e-01
      3.0768934117392571e-01 1.1864748152875212e-01
      2.3271324650948666e-02 -2.6943276668313026e-01
      7.1439661265961041e-01 -8.7448124073250519e-02
      -6.3341342097016293e-02 -1.0815792875003089e-01
      2.2159196564181494e-01 1.3968041427099587e-01
      3.8138774229693195e-02 -2.1862180324277417e-01
      7.9991526384623021e-02 6.6558030986980862e-02
      -7.3659182618501198e-02 -9.4728730626305029e-03
      1.0666118170277177e-01 -8.0511814106147161e-02
      -7.6790251354758544e-03 -8.2218229698470841e-02
      -3.4727121568739078e-01 -8.3060184743905849e-02
      4.0345500645845030e-02 -1.9359569427443446e-01
      -2.4536413133215376e-01 -1.2749426094287922e-01
      -1.1503884587019894e-01 5.0324657799297334e-01
      -2.0738120046687059e-01 2.2853996854246498e-02
      7.0643036189196762e-02 -1.0341053821801649e-01
      2.7106945139807950e-02 2.3404350277260505e-01
      -1.3824644547104425e-01 -4.2779458291088274e-01
      1.5157221905531112e-01 1.6374879132174103e-01
      5.3539672363840496e-02 3.5707692530531898e-01
      1.1963251127962642e-01 -5.4147496433383832e-02
      -2.5969302383375532e-02 7.9722918847882143e-02
      8.6662829170222488e-01 1.2363681505123750e-01
      5.3741700360656353e-01 -2.7967285501311984e-01
      -9.0189453523577476e-02 8.2012917233997784e-02
      -1.1688440133078022e-01 -5.7581873928973029e-02
      -4.0949609606994847e-01 -3.1812742398298410e-01
      -3.3119544183595598e-02 1.1017300127450956e-01
      6.1891937632848781e-02 -2.0577690935886617e-01
      -6.7559557429412539e-02 -8.0946114380201356e-02
      -3.5999151042247168e-01 2.5318566860514813e-01
      1.0006591190107992e+00 3.9855538911787343e-02
      -2.9495795375645678e-01 -1.7874594167618235e-01
      1.7520866641768226e-01 -1.4152206005669105e-01
      1.0972337674025329e-01 -1.1674700847802114e-01
      -5.1995022473866961e-02 -2.7012550713756623e-02
      3.0299678334078523e-01 3.5336174004937787e-01
      -1.6730445566739893e-01 -1.4928475375907327e-01
      -7.2224795291474103e-02 -1.1506262844679833e-01
      -4.0933304452528657e-01 2.2209368586214015e-01
      -2.0715498743467395e-01 -2.6185074607965186e-01
      -3.6902419816120607e-02 2.6036221983203683e-02
      -3.4191300433997124e-01 8.4269484653706417e-01
      3.5036032742199047e-01 2.2516285997312376e-02
      -1.6467776952485624e-01 -6.0825551052118398e-01
      6.3682262436286835e-03 4.5310153789363983e-01
      -7.6467848614452577e-02 2.5840357698124705e-01
      -1.9377205108649889e-02 -4.6470311322242858e-02
      -6.5789748394695119e-02 -4.8516302495472990e-01
      -2.3499276344742284e-01 1.2168381988280448e-01
      1.4277959157491496e-01 2.2349349613275574e-02
      2.5796672181934027e-01 -4.4217709558437418e-01
      2.2355546776397721e-02 1.6340086198713774e-01
      1.2694237414482579e-01 -5.1763726379101183e-01
      1.4094530410625888e-01 -5.0284300419597405e-01
      6.6020077715357561e-02 9.8029716015916174e-02
      1.2978375840250325e-01 1.3171914628615528e-01
      7.0781361805275583e-02 -7.7093617515914509e-02
      -5.5823860641463152e-01 -7.2137931599383076e-01
      -2.2171568011629936e-01 -1.2448451806881905e-01
      -8.0730752347736606e-02 -7.3358562735188787e-02
      1.5896602809361973e-02 2.6588209149147998e-02
      -1.0857480663720449e+00 9.6825383301969759e-01
      -1.7213496510507292e-01 -4.9681690305235204e-01
      -2.1828715699067358e-01 -9.0320046428120226e-01
      5.8096388735635961e-02 -2.6888077518526188e-01
      5.4522861426548337e-02 2.7980730384180408e-01
      6.3147679891322112e-02 -8.8903395798216003e-02
      -1.0257435409850080e+00 3.1844096121150356e-01
      7.2510695114041249e-02 -4.5419496441689675e-02
      3.1007727395886628e-02 -2.2888789912108168e-01
      -9.6825140717965320e-03 -3.6059813492316029e-01
      7.6274056366661114e-01 9.1070387240329259e-02
      -1.0623532620740152e-01 1.9916677762162244e-01
      5.8452324549330276e-02 -1.0429244574199679e-01
      -3.1523942096228935e-01 5.4852123755815281e-02
      5.5668399984117412e-01 1.1261166536497025e-01
      -1.0264760337804921e-01 -1.7070163959566961e-01
      2.5023103342767611e-01 -1.9646784210012613e-01
      -1.6969549675611508e-02 -1.0707291437644792e-01
      -8.0666742728955146e-02 1.7881167808265502e-01
      1.8411932743839193e-03 1.1577506182315069e-02
      -6.3342938670082083e-01 2.4178113853274116e-01
      -2.3495719590081843e-02 -5.0322461007005559e-01
      -1.0374326071801199e-01 -4.1590272453812827e-01
      -2.1957275237932981e-02 -9.2053732436032140e-02
      5.1246410262413417e-03 -8.4734600625751069e-02
      1.6214816026838055e-01 -1.5838686974968236e-01
      8.6867107005523414e-02 1.5634797463643449e-01
      2.9978315819015472e-01 4.0365295547531897e-02
      5.9822097801484793e-02 -1.3737312062115808e-01
      -1.0545777210618982e-02 -2.8307939416649952e-01
      -1.4499782531473715e-01 2.5971445820463751e-01
      1.7367516253109569e-01 5.8935525273845413e-01
      1.6031437002955690e-01 -4.7858811270589434e-02
      -7.9386299414720238e-02 -3.1151116757489095e-01
      3.5712385601924745e-01 -7.7591818054787459e-02
      -1.7512291125769599e-02 -7.4493340282057993e-02
      1.4086173562328663e-01 1.9996318864923346e-01
      4.8316283478786365e-01 -1.9871068011251136e+00
      -6.3910837711332463e-02 8.7996354661776666e-01
      2.4403996200372379e-02 -9.8208201351121904e-01
      -1.7355395795509629e-01 2.0581683356124331e-01
      7.4278170798646581e-01 2.0829529717474576e-03
      -2.4682185913354140e-01 -5.2775289641176608e-03
      8.5901136862575922e-01 2.6870673199221268e-01
      1.4766467754298487e-02 -4.9872010866929550e-02
      -4.4209462860896903e-01 -8.8847218578669329e-01
      1.6004978886901500e+00 3.2218392949094138e-01
      4.7407448107902073e-01 -4.5302816249650464e-03
      -7.6945263147946730e-01 6.4991144737639825e-02
      -1.6369391597782157e-01 -1.4625767850378488e-01
      -1.0976842118325837e-01 -4.5937375076323915e-02
      1.5430116325669910e-01 2.6633615724539955e-01
      4.3317017921631051e-01 5.3207619027641628e-01
      -7.6567164469087123e-03 -1.2608883266290274e-01
      7.7642771083989662e-02 3.0376707963475302e-01
      6.9691718813948214e-02 -9.1340233341777433e-01
      7.4529019491971948e-01 -2.1053740133123766e-01
      2.7767205577026749e-01 -1.2240887092207148e-01
      5.3322430783488717e-01 4.7504230067158720e-01
      2.2492539610572761e-02 -5.0679537271843578e-01
      -1.7442674847972017e-02 7.7953628723492221e-02
      5.3493514972844292e-01 -6.6133926718101393e-02
      2.5051657611281597e-01 -1.4047332210931784e-01
      -9.8959829366367061e-02 1.2396162147520494e-01
      1.1569694827644689e-01 1.8401766756662721e-01
      -2.4309463680182850e-01 -4.6520435836086378e-03
      -4.8228902680314066e-02 -1.8913074815270234e-01
      -4.1555599438311809e-02 6.2467218056995433e-01
      2.1836871653305609e-01 1.6768041803434861e-02
      5.6310364088212006e-01 2.9556743649630984e-01
      -8.5377919445074932e-02 -6.0672941543799382e-02
      -4.6499279478942508e-02 -2.0333447183708822e-01
      1.8267657057937055e+00 -4.3383734320204326e-01
      3.5371604492321718e-01 -1.9220237988674300e-02
      3.6023104657029381e-01 9.8017789439940425e-02
      -2.9093203217253290e-02 -7.3712910483162097e-01
      -1.6727754131259243e-01 6.5527214739731221e-02
      -3.2513135471550209e-01 -1.1416405249003547e+00
      1.0240380980553107e-01 7.1341965960097231e-02
      1.0748362425585913e-01 -2.5800884196190085e-02
      1.5499496527555558e-02 2.8560824150050268e-01
      8.1340351989412335e-02 -5.5594746362052819e-02
      4.9474458692015616e-01 1.1218030302495044e-01
      8.2487419701837233e-02 2.4903824167927618e-02
      1.1390638434294059e-01 -1.0065845044806143e-01
      -2.7537542002616894e-01 -2.7759720282308470e-01
      3.7441729048354838e-01 9.3731804531814317e-02
      4.6495215819451104e-03 1.3372081790020424e-01
      -1.3092624999300498e-01 -3.3991916213677205e-02
      3.5096103965788867e-03 -7.6246846438555851e-02
      -2.8255473028055138e-02 -7.7869246336194214e-02
      1.7402038673410136e-01 2.7289770276320563e-01
      1.8770106427567043e-01 -9.5792977699524617e-03
      1.7425898041543622e-01 -5.6333738105038847e-02
      -1.4570179761372312e-01 2.7402295916124308e-02
      -1.2950355123961010e-01 4.8787816356846941e-01
      -2.5908188108942576e+00 9.2028073250706013e-02
      -7.2782995196804623e-01 -1.9011538748175336e+00
      2.0959462328752843e-01 5.9619155166761173e-01
      -6.4046474434339640e-01 8.6742812844869191e-02
      3.5470974134298304e-02 -6.5143377355432588e-02
      1.0686311368513986e-01 1.7337614668119233e-01
      6.9254103085044627e-01 9.6614354221565790e-01
      7.1357989582419468e-01 1.2891119782209214e-02
      7.5011038297663546e-01 -2.2732184661088548e-01
      -4.9268639201926895e-01 -1.5944408289824689e-02
      2.6328990504398098e-01 2.6299963443594687e-01
      2.0615145199808013e-01 -2.1058617642108594e-02
