<?xml version="1.0"?>
<opencv_storage>
<svm type_id="opencv-ml-svm">
  <svm_type>C_SVC</svm_type>
  <kernel><type>LINEAR</type></kernel>
  <C>1.</C>
  <term_criteria><epsilon>2.2204460492503131e-16</epsilon>
    <iterations>1000</iterations></term_criteria>
  <var_all>14688</var_all>
  <var_count>14688</var_count>
  <class_count>2</class_count>
  <class_labels type_id="opencv-matrix">
    <rows>1</rows>
    <cols>2</cols>
    <dt>i</dt>
    <data>
      0 1</data></class_labels>
  <sv_total>1</sv_total>
  <support_vectors>
    <_>
      3.08789640e-05 7.16513887e-06 -1.18466496e-05 3.22851665e-05
      9.00447139e-06 -3.47004288e-06 1.86441212e-05 1.15437979e-05
      -8.00591920e-07 3.44600157e-05 2.37479562e-05 2.33413957e-05
      4.07608277e-05 2.92124842e-05 2.87303264e-05 3.33507523e-05
      1.61122207e-05 2.20570528e-05 2.29232755e-05 1.36072995e-05
      1.04854316e-05 3.17720915e-05 1.86401776e-05 1.76339618e-05
      1.50501082e-05 6.00239082e-06 3.40479301e-06 -2.05391680e-05
      -3.03793277e-05 -2.58465479e-05 -5.42115122e-05 -4.78189395e-05
      -4.69940896e-05 -1.53290712e-05 -1.71829051e-05 -1.15326275e-05
      1.51146387e-05 2.39299188e-05 2.66028055e-05 4.88913829e-05
      4.31085791e-05 4.33620844e-05 6.50907532e-05 5.62312016e-05
      4.77586473e-05 4.53577559e-05 2.47706084e-05 1.60456293e-05
      2.43386312e-05 -1.30460961e-07 -3.95685265e-06 -1.15579923e-09
      -3.04174282e-05 -2.96932249e-05 -2.09714763e-05 -3.13779565e-05
      -4.27633204e-05 -1.84128166e-05 -3.12067605e-05 -3.63532054e-05
      -1.95768243e-05 -2.36012729e-05 -3.01714699e-05 -1.61150783e-05
      -2.02999818e-05 -2.15824639e-05 -2.67577980e-05 -1.21635239e-05
      -2.50088506e-05 -1.71583251e-05 -7.42913380e-06 -1.22383417e-05
      -3.86163128e-06 1.17771351e-05 7.10168297e-06 1.46031998e-05
      1.90118681e-05 1.91590716e-05 1.35938644e-05 3.76721619e-05
      2.09831542e-05 3.45005246e-05 4.74925801e-05 3.56398232e-05
      4.28504500e-05 5.34977989e-05 4.34608774e-05 3.77147517e-05
      3.55224111e-05 2.72198104e-05 8.96012693e-07 1.58102484e-05
      -9.25290442e-06 -1.91443305e-05 -8.61108128e-06 -3.48783688e-05
      -3.92460170e-05 -2.95513237e-05 -4.80341478e-05 -1.83069442e-05
      -1.36154968e-05 -3.45583212e-05 -7.52360211e-06 7.48075263e-06
      -2.54491115e-05 1.87463138e-05 3.36851881e-05 -2.94165807e-06
      2.10932740e-05 5.04134914e-05 9.87734438e-06 1.56848782e-05
      4.29574284e-05 7.26638564e-06 9.49977164e-07 2.78532461e-05
      -1.21138351e-06 -3.72566251e-06 1.51745071e-05 -2.98115583e-06
      -1.36620120e-05 2.20555739e-06 -7.03937121e-06 -2.68400854e-05
      -2.32427628e-05 -2.29507550e-05 -2.74200829e-05 -1.75942678e-05
      -1.91464223e-05 -1.64894682e-05 -1.47656683e-05 -1.44049054e-05
      -3.30891562e-05 -2.79931519e-05 -3.22791675e-05 -3.22517662e-05
      -3.40352817e-05 -3.45512635e-05 -2.81161119e-05 -2.27073833e-05
      -2.94146594e-05 -1.40090870e-05 -1.57667382e-05 -1.58865350e-05
      -9.58821784e-06 -2.00341128e-05 -1.79823928e-05 6.92825893e-07
      -1.53412329e-05 -1.34230468e-05 8.14813029e-06 9.65179152e-06
      -1.16139336e-05 1.61604294e-06 2.33779610e-06 -2.59971075e-05
      -1.34440006e-05 -9.63821913e-06 -4.14940805e-05 -5.19425703e-06
      -6.96075858e-06 -3.39278122e-05 6.00137992e-06 1.37869692e-05
      -1.77314269e-05 3.21029911e-05 3.18059101e-05 1.03603143e-05
      5.23057897e-05 4.16024195e-05 2.22938052e-05 5.26102413e-05
      2.53564449e-05 8.08995992e-06 3.29414470e-05 4.12345798e-06
      -3.30145158e-05 1.22633910e-05 -3.12054908e-05 -6.69502406e-05
      5.08256744e-06 -3.35042569e-05 -7.87511162e-05 -9.89012460e-06
      -5.02103139e-05 -8.82162058e-05 -2.76901319e-05 -4.80063754e-05
      -9.05209890e-05 -2.47361004e-05 -4.54936962e-05 -8.04484080e-05
      -1.13846988e-06 -2.44933490e-05 -5.57768399e-05 2.70319051e-05
      -5.73884563e-07 -2.28153003e-05 2.42078968e-05 1.58806452e-05
      -1.66215686e-05 2.24740943e-05 7.15336228e-06 -1.59008196e-05
      1.21483190e-05 -9.56711574e-07 -2.91390897e-05 1.07498845e-05
      1.69330747e-06 -2.01961211e-05 3.21330162e-06 1.47141236e-05
      -1.00658362e-05 6.43260319e-06 2.30648075e-05 8.18928493e-06
      -1.14915219e-05 1.71185256e-05 9.96089784e-06 -2.12096838e-05
      2.55294140e-06 1.52172788e-06 -2.91052820e-05 -5.38324321e-06
      -1.57202230e-05 -2.26644934e-05 -1.49504012e-05 -2.29855432e-05
      -5.84575901e-06 -1.19069800e-05 -2.09645186e-05 1.73198678e-05
      -7.68071914e-06 -1.42799345e-05 1.85247445e-05 -3.88214266e-06
      -1.95707016e-05 1.00062953e-05 -1.98151356e-05 -3.11044641e-05
      -2.66704428e-05 -5.14393250e-05 -5.38932763e-05 -3.38778882e-05
      -5.61938141e-05 -5.42613234e-05 -4.60543633e-05 -4.83169206e-05
      -5.39344182e-05 -2.85876340e-05 -4.05073588e-05 -3.97118165e-05
      -4.97909298e-07 -2.59586413e-05 -2.84366342e-05 1.62376400e-05
      -2.03678628e-05 -1.27987532e-05 -1.63440091e-05 -3.35473669e-05
      -3.56898345e-05 -2.97241986e-05 -4.92077052e-05 -4.17015544e-05
      -3.02864919e-05 -3.80213896e-05 -3.09647949e-05 -1.52520042e-05
      -2.65683666e-05 -1.63537425e-05 -1.35204727e-05 -1.24227736e-05
      -1.16585989e-05 6.08560754e-07 -6.14596183e-06 -2.64380469e-06
      -1.87471578e-05 -2.28390454e-05 -1.83561388e-05 -3.53326759e-05
      -5.12124934e-05 -4.19184325e-05 -2.74647391e-05 -3.97295844e-05
      -3.90044479e-05 1.37477973e-05 -8.26825908e-06 -6.47415936e-06
      3.44214168e-05 6.18386048e-06 5.96218933e-06 2.39935744e-05
      -4.20625247e-06 -3.59631304e-06 3.53272262e-05 2.91018623e-05
      1.98244015e-05 4.51124106e-05 4.28330313e-05 4.10990287e-05
      4.22140183e-05 4.54696310e-05 4.72195170e-05 3.97880940e-05
      4.24446298e-05 6.07154398e-05 1.61972039e-05 2.60995585e-05
      4.85236123e-05 2.90438838e-05 2.43734667e-05 6.01622960e-05
      4.53828434e-05 3.63701874e-05 6.94563787e-05 5.55278057e-05
      2.96742546e-05 6.51573209e-05 4.33208879e-05 2.80753102e-05
      4.26266488e-05 4.06515428e-05 1.28037846e-05 2.86178420e-05
      2.02169358e-05 -2.43466138e-06 1.01654923e-05 1.50307005e-05
      -1.88074246e-05 8.49551554e-07 1.71659503e-05 -5.64587981e-06
      5.78450636e-06 4.36898154e-06 -3.12069315e-05 -7.89787646e-06
      -1.14371360e-05 -4.41841075e-05 -2.28894642e-05 5.35175468e-06
      -3.56352029e-05 -1.30940161e-05 5.80837514e-06 -2.01009643e-05
      -1.82705444e-05 4.05245373e-05 2.85795113e-06 4.57422448e-06
      6.13377852e-05 1.61477928e-05 1.85558583e-05 5.55460101e-05
      -5.11467169e-06 2.21666778e-06 3.49641668e-05 -1.90814189e-05
      -1.69689829e-05 3.09256502e-05 -2.59314202e-05 -2.08438778e-05
      3.84202258e-06 -3.29119357e-05 -3.17143858e-05 -7.31529781e-06
      -4.15776412e-05 -3.13178170e-05 -4.05588980e-05 -5.82281900e-05
      -5.20044123e-05 -5.44319591e-05 -7.44349236e-05 -6.05477653e-05
      -6.25597968e-05 -7.91703060e-05 -6.29837450e-05 -5.92175275e-05
      -8.31598882e-05 -6.22387815e-05 -2.94787678e-05 -5.62643399e-05
      -4.06751824e-05 2.29622884e-07 -3.85682288e-05 -1.50512460e-05
      1.85333975e-05 -2.69398861e-05 -8.75640922e-07 4.90656857e-05
      -5.87622935e-06 2.56878629e-05 6.36247132e-05 1.23313566e-05
      2.86746763e-05 4.65747871e-05 -1.55019952e-05 4.46763079e-06
      1.66279624e-05 -4.80642921e-05 -3.50111404e-05 2.64028586e-05
      -4.26619663e-05 -2.66624957e-05 6.95751223e-05 1.31467177e-05
      2.10149010e-05 7.40729010e-05 1.96012388e-05 2.57412394e-05
      1.09962575e-05 -1.29703294e-05 -3.12631419e-05 1.08943132e-05
      -1.11457257e-05 -2.51924521e-05 -6.23703863e-06 -1.54531390e-05
      -2.37518743e-05 1.67966518e-05 1.15636922e-05 7.13436975e-06
      2.71509107e-05 1.31752113e-05 1.58458588e-05 1.78083537e-05
      3.11220583e-06 7.18873525e-06 1.33677404e-05 4.86974557e-07
      -7.43486339e-07 2.43861123e-05 8.24182644e-06 7.18920637e-06
      1.72456140e-07 -1.46600732e-05 -1.62967917e-05 -4.35242036e-05
      -5.59910550e-05 -5.30610996e-05 -7.66135563e-05 -7.48450257e-05
      -7.26004946e-05 -5.03499687e-05 -5.08083467e-05 -4.68427897e-05
      -4.27935811e-06 -5.09780966e-06 -1.80898815e-06 4.83435906e-05
      3.89619927e-05 4.04039711e-05 5.29855533e-05 3.61524726e-05
      2.84047474e-05 3.96422438e-05 1.48300587e-05 3.36132962e-06
      3.98518605e-05 8.56286988e-06 4.16619241e-06 2.69612810e-05
      -3.84849545e-06 -8.73272256e-06 5.43947181e-06 -1.49483112e-05
      -2.35152947e-05 6.00693875e-06 -1.10919882e-05 -1.80982424e-05
      1.36314411e-05 9.06031630e-07 -3.13846317e-06 2.26508218e-05
      1.43324696e-05 1.53466208e-05 1.03335988e-05 1.64929370e-05
      1.00843899e-05 -1.35284108e-05 -7.99880036e-06 -1.05293748e-05
      -5.14720978e-06 -3.06618472e-06 -2.89332434e-06 2.22659128e-06
      2.88739034e-06 2.97560746e-06 -4.18904574e-06 9.14959401e-06
      -2.83543318e-06 1.45341282e-05 2.47296666e-05 1.32137611e-05
      2.05404558e-05 2.27563214e-05 1.56716760e-05 1.15748726e-05
      1.06895259e-05 1.16711112e-06 1.43598550e-06 9.02194733e-06
      -1.36094295e-05 -1.07506512e-05 3.09313145e-06 -2.00931754e-05
      -2.93839566e-05 -1.80596835e-05 -3.58058132e-05 -1.67483704e-05
      -7.97476969e-06 -2.91896904e-05 -3.54921008e-06 1.35363434e-05
      -2.07283392e-05 1.63611112e-05 3.71501083e-05 5.51189885e-07
      3.30340299e-05 5.92961078e-05 2.12658215e-05 3.99011806e-05
      6.90967208e-05 3.17855374e-05 2.21213049e-05 4.74802655e-05
      1.44144824e-05 -1.66778264e-05 3.08655422e-06 -1.98131602e-05
      -2.89824093e-05 -2.05109645e-05 -3.49462098e-05 -4.07557891e-05
      -3.84501327e-05 -4.43268837e-05 -3.14212339e-05 -3.17148842e-05
      -3.68535475e-05 -2.52228274e-05 -2.70562941e-05 -3.38871905e-05
      -2.49446894e-05 -3.24855064e-05 -3.79347766e-05 -2.27938599e-05
      -3.24330613e-05 -3.85036255e-05 -1.25718707e-05 -1.51449267e-05
      -2.30972055e-05 -2.18153127e-06 -1.08713703e-05 -1.24575618e-05
      -8.14264354e-07 -1.30219587e-05 -1.52469784e-05 5.49236302e-06
      -6.27638656e-06 -1.43284888e-05 1.45537442e-05 1.03353032e-05
      -1.75781315e-05 -6.58859562e-06 -2.89392960e-06 -3.83682200e-05
      -2.03940926e-05 -2.13755320e-05 -5.62632740e-05 -2.58132823e-05
      -2.28671415e-05 -5.67205789e-05 -1.13782903e-06 -3.57167266e-07
      -3.06952243e-05 3.55917109e-05 3.57303252e-05 1.09006651e-05
      5.43291608e-05 4.37150084e-05 2.65393282e-05 7.08283260e-05
      4.97447691e-05 3.03575307e-05 9.03080145e-05 5.79070584e-05
      2.34462022e-05 7.66063094e-05 3.52563693e-05 -4.67205109e-06
      6.26876354e-05 1.61031694e-05 -2.45332139e-05 3.68469082e-05
      -8.16723787e-06 -4.59037838e-05 1.44350161e-05 -1.75368041e-05
      -5.97825237e-05 1.70486310e-05 -1.26034629e-05 -4.99062844e-05
      4.74909757e-05 1.99143487e-05 -1.52525918e-05 5.44772956e-05
      2.91194592e-05 1.33027925e-06 4.10607681e-05 2.09230020e-05
      -1.07373207e-05 2.14340616e-05 2.60083857e-06 -2.78169082e-05
      8.97803056e-06 -1.60650616e-05 -4.76900459e-05 -1.64480607e-05
      -2.79246797e-05 -5.86300957e-05 -1.81170308e-05 -1.41928049e-05
      -4.61149939e-05 1.77915467e-06 1.49101943e-05 -9.22838080e-06
      -1.10719366e-05 5.87741852e-06 -7.46760043e-06 -8.60735145e-06
      1.07476862e-05 -8.64574588e-07 -1.94146196e-06 1.14448094e-05
      -5.77878473e-06 1.89262508e-07 4.27580699e-06 -1.23713562e-05
      1.61790904e-05 3.02403851e-06 -1.30741701e-05 3.03133893e-05
      5.89810679e-06 -9.54557618e-06 3.21910848e-05 6.62005232e-06
      -1.37842990e-05 3.30834810e-05 4.36392884e-06 -1.06364159e-05
      9.72737962e-06 -2.14744105e-05 -2.94433412e-05 -1.21827279e-05
      -3.37071615e-05 -3.99378296e-05 -1.46730463e-05 -2.21950449e-05
      -2.98659779e-05 -1.19386114e-05 -2.11600072e-05 -2.39486053e-05
      1.86201069e-05 -9.47424542e-06 -8.56233237e-06 2.56424300e-05
      -1.00763664e-05 -4.60525507e-06 1.04795026e-05 -6.85464920e-06
      -6.53966208e-06 -1.49233657e-07 -1.30947938e-05 -1.09666589e-05
      1.39348213e-05 2.63830702e-06 1.26087934e-05 6.07890343e-06
      8.25904067e-07 7.40251153e-06 -2.03381433e-06 -3.09964344e-06
      -3.74826777e-06 9.72075486e-06 7.92551509e-06 3.97601843e-06
      4.35922266e-06 -2.91494393e-06 4.96344853e-07 -2.64110640e-05
      -4.17783012e-05 -3.82626058e-05 -1.68281658e-05 -3.57448043e-05
      -3.37940037e-05 2.10191083e-05 -5.65170785e-06 -4.89280364e-06
      2.76128249e-05 -2.81556800e-06 -7.87085901e-06 2.63735164e-05
      -1.09109021e-06 -9.75605144e-06 3.60358026e-05 2.40923200e-05
      1.06574043e-05 4.06552535e-05 3.73677467e-05 2.79762626e-05
      3.98627599e-05 3.49017391e-05 4.01201905e-05 3.44428481e-05
      3.39073085e-05 5.11216931e-05 1.98909420e-05 2.43103877e-05
      4.59351249e-05 1.73635599e-05 1.20091308e-05 4.38831012e-05
      2.84486778e-05 9.76924366e-06 4.52520471e-05 3.70066446e-05
      1.00488332e-05 4.11767942e-05 2.19143312e-05 -9.33067099e-07
      1.53259352e-05 1.07527922e-05 -2.09126956e-05 -8.66565097e-06
      1.86776083e-06 -3.22437336e-05 -1.93027681e-05 1.61131641e-06
      -3.49986803e-05 -2.07965368e-05 1.59456958e-05 -1.97407244e-05
      -6.17278920e-06 -5.91297339e-06 -4.62164317e-05 -2.59727713e-05
      -4.83326767e-06 -4.93435437e-05 -2.52497066e-05 1.51677261e-06
      -4.64143923e-05 -2.53687231e-05 2.33935389e-05 -1.55756370e-05
      -1.25666520e-05 6.33533200e-05 1.86878569e-05 1.96359542e-05
      8.34548846e-05 2.75332113e-05 3.15674988e-05 5.18476336e-05
      -1.35590572e-05 -6.51149276e-06 4.10554530e-05 -1.55718917e-05
      -1.36850485e-05 4.10408866e-05 -1.45036511e-05 -1.09360990e-05
      2.88845586e-05 -1.76575159e-05 -1.36065464e-05 6.04637626e-06
      -2.79174346e-05 -2.07760495e-05 -1.91401596e-05 -4.43331191e-05
      -3.49641632e-05 -3.44113396e-05 -5.66963936e-05 -4.23310739e-05
      -3.60798585e-05 -6.37910634e-05 -4.38911738e-05 -2.63266029e-05
      -5.45399562e-05 -3.13928795e-05 -6.18328659e-06 -3.74869924e-05
      -2.06585810e-05 -3.29996715e-06 -4.01443976e-05 -1.66095324e-05
      8.88613977e-06 -3.77972319e-05 -7.09560209e-06 4.04509155e-05
      -1.08551158e-05 1.99787482e-05 6.87180727e-05 1.29234104e-05
      3.30139337e-05 7.50212130e-05 1.46612319e-05 3.36584526e-05
      5.74241458e-05 -9.86941177e-06 7.88841135e-06 5.40374276e-05
      -1.00239322e-05 4.26175757e-06 7.58833630e-05 1.49368479e-05
      2.52420941e-05 4.79622140e-05 -9.86802388e-06 -9.96839162e-07
      1.13541537e-05 -1.48390654e-05 -3.18250095e-05 1.57951963e-05
      -4.89668219e-06 -1.80028983e-05 4.08291817e-05 3.90151727e-05
      2.43327922e-05 6.62593156e-05 6.88492655e-05 5.89282827e-05
      5.31722544e-05 4.50533807e-05 4.63205979e-05 2.72538382e-05
      1.54569898e-05 1.76110661e-05 1.58548628e-05 2.37953236e-06
      -1.29210741e-06 4.29174215e-05 2.52512782e-05 2.11202150e-05
      3.03744964e-05 9.88326155e-06 8.95976700e-06 -1.67896706e-05
      -3.13384298e-05 -3.09035131e-05 -5.50703626e-05 -5.84401059e-05
      -5.78321196e-05 -3.44290165e-05 -3.80948040e-05 -3.43622487e-05
      1.54608097e-05 8.30491263e-06 1.53957153e-05 6.12660879e-05
      4.50284715e-05 4.97318906e-05 3.62535939e-05 1.64850608e-05
      1.25496235e-05 1.64059365e-05 -1.45661425e-05 -1.97459085e-05
      1.85501867e-05 -2.01920975e-05 -2.25910371e-05 2.12438317e-06
      -3.59354708e-05 -3.87827095e-05 -5.92745891e-07 -3.07790251e-05
      -3.59019141e-05 1.18767803e-05 -1.60821237e-05 -1.74282195e-05
      2.38934736e-05 2.73001888e-06 9.10212475e-06 3.79348276e-05
      2.00704108e-05 3.07528644e-05 1.46985576e-05 1.31114884e-05
      1.63210625e-05 -1.32484538e-05 -1.34951742e-05 -7.09656524e-06
      8.64536923e-06 7.28496161e-07 1.16752763e-05 1.99435381e-05
      1.37881161e-05 2.26376451e-05 2.57464478e-07 3.89809793e-06
      1.30026376e-06 -9.59547378e-06 -6.92226513e-06 -1.19167971e-05
      -3.28490496e-05 -3.74811898e-05 -3.75026611e-05 -3.02312001e-05
      -3.42881831e-05 -3.92207330e-05 -2.11080405e-05 -7.91476305e-06
      -2.42548904e-05 2.21863070e-06 1.93191736e-05 -3.40466067e-06
      -9.83742302e-06 5.94467110e-06 -1.17187165e-05 7.50507979e-06
      2.66664065e-05 4.99265207e-06 2.42368696e-05 5.05531098e-05
      1.56219667e-05 3.59704864e-05 6.25627363e-05 2.44739622e-05
      5.95818383e-05 8.61926965e-05 4.65219855e-05 6.18826889e-05
      8.64197937e-05 4.96533794e-05 3.85830681e-05 6.52419258e-05
      2.63810034e-05 2.32581010e-06 2.01085622e-05 -1.07768228e-05
      -7.33268507e-06 -8.25949940e-07 -2.28781828e-05 -5.94955281e-06
      -8.54738209e-06 -2.35912212e-05 7.50020845e-09 -4.33525565e-06
      -1.94489367e-05 1.74945835e-05 7.05481079e-06 -7.47741979e-06
      1.28658621e-05 -2.47732282e-06 -1.60096042e-05 -1.11121981e-05
      -3.21557018e-05 -4.22962512e-05 -2.20274546e-06 -1.54362915e-05
      -2.62498343e-05 6.15365889e-06 -7.75501212e-06 -1.38946079e-05
      1.67254584e-05 5.37917504e-06 -8.25335428e-06 2.45097181e-05
      1.54785575e-05 -2.86374348e-06 3.48613758e-05 2.82536112e-05
      -5.32428066e-06 -7.70440181e-07 -2.27032410e-06 -4.27021332e-05
      -3.07062946e-05 -3.82003018e-05 -7.44339995e-05 -2.67380547e-05
      -3.06464972e-05 -6.71451053e-05 -1.42072349e-05 -1.58203711e-05
      -4.26559345e-05 1.40949705e-05 1.59550254e-05 -6.05963487e-06
      3.69036970e-05 3.34147480e-05 1.47279579e-05 4.27448249e-05
      3.03106281e-05 1.08293361e-05 5.25880168e-05 2.61513469e-05
      -8.08146160e-06 7.35482245e-05 3.17877639e-05 -7.55007659e-06
      6.95879207e-05 1.23203154e-05 -2.39420988e-05 6.08804148e-05
      1.41727583e-06 -3.39207618e-05 4.10083485e-05 -7.54085295e-06
      -4.56587186e-05 5.12560582e-05 7.13989493e-06 -3.16297119e-05
      6.95414928e-05 3.35049663e-05 -5.64595393e-06 6.31902585e-05
      4.00452373e-05 1.68830161e-06 4.37028393e-05 1.62046690e-05
      -1.79129311e-05 4.20838005e-05 1.25142042e-05 -1.91622512e-05
      3.10046380e-05 2.63656921e-06 -3.35273653e-05 7.45901571e-06
      -1.31220240e-05 -4.96005086e-05 -6.07413858e-06 -1.05623139e-05
      -4.95149252e-05 2.72398233e-06 1.17093541e-05 -2.71113186e-05
      -5.46950893e-08 1.25055340e-05 -1.46939383e-05 7.54488974e-06
      1.76632966e-05 -5.68519636e-06 6.60240539e-06 1.54313366e-05
      -1.41640849e-05 1.12660528e-05 1.00658835e-05 -1.89888360e-05
      3.40510378e-05 1.14659324e-05 -1.03788971e-05 4.10503235e-05
      1.39229005e-05 -9.98925589e-06 4.19559474e-05 1.14954919e-05
      -1.76000867e-05 5.52465317e-05 2.69622178e-05 1.31665558e-06
      3.14747631e-05 5.73879606e-06 -1.21106741e-05 6.52457459e-07
      -1.63487166e-05 -2.98225805e-05 1.68508689e-06 -2.02929232e-06
      -1.26920531e-05 -1.90650587e-06 -3.22826099e-06 -5.72956014e-06
      1.34399634e-05 -2.44136072e-06 -3.90194919e-06 8.45823524e-06
      -1.10229876e-05 -6.68412076e-06 7.06779520e-06 2.43525761e-07
      1.65976826e-06 -1.72735672e-05 -2.00243194e-05 -1.51562799e-05
      -1.10167257e-05 -9.26719895e-06 -5.62318348e-07 -6.28184580e-06
      -1.63341679e-06 2.47449339e-06 -1.43945608e-05 -6.24088398e-06
      -1.23944892e-05 -6.91580362e-06 1.25740044e-07 -7.92221454e-06
      1.60084819e-05 1.23311202e-05 1.22210504e-05 6.36422146e-06
      -5.50897721e-06 -4.54629617e-06 3.02818285e-06 -1.32038449e-05
      -1.29600076e-05 1.80812985e-05 -2.83571103e-06 -6.69436031e-06
      1.78021419e-05 -1.69422783e-05 -2.70478522e-05 2.81587854e-05
      1.81321838e-08 -1.65546699e-05 4.28253334e-05 2.45227893e-05
      5.01802879e-06 4.64031837e-05 3.48361318e-05 2.06716741e-05
      2.03016498e-05 1.31911584e-05 1.52780576e-05 -8.98491351e-07
      -7.16513205e-06 9.90492481e-06 -1.93836313e-05 -1.54462959e-05
      6.76148738e-06 -1.94944096e-05 -2.27095043e-05 7.90505874e-06
      1.00997540e-05 -7.71143732e-06 2.36465567e-05 4.14052665e-05
      1.02032100e-05 3.99216769e-05 2.97295937e-05 -4.77084131e-06
      9.93590584e-06 1.73800108e-05 -2.33584233e-05 -1.15880293e-05
      1.62467986e-05 -2.27983855e-05 -1.30971312e-05 1.21334106e-05
      -3.33318239e-05 -1.88946015e-05 1.36443750e-05 -2.80565673e-05
      -1.15588373e-05 1.77201709e-05 -2.84010930e-05 -1.10609290e-05
      2.00453196e-05 -3.61934326e-05 -1.18884327e-05 2.94915644e-05
      -2.89715645e-05 -7.97212851e-06 4.91986611e-05 -4.88435717e-06
      2.53718190e-06 7.63285861e-05 1.79191393e-05 2.28803165e-05
      7.74467553e-05 8.93674314e-06 1.54110821e-05 6.62618695e-05
      -8.82597851e-06 -3.69228104e-07 4.61327691e-05 -1.33178537e-05
      -1.27013300e-05 3.80543825e-05 -1.78360278e-05 -1.45205540e-05
      3.22514170e-05 -1.73209373e-05 -1.25047545e-05 2.79753440e-05
      -1.39707863e-05 -9.15715532e-07 1.39346275e-05 -2.29296074e-05
      -6.07227594e-06 6.02853970e-06 -3.15413963e-05 -1.11279824e-05
      1.44142514e-05 -2.47560274e-05 7.14908879e-07 3.11868898e-05
      -7.30687952e-06 1.88177946e-05 4.38183743e-05 3.11557415e-06
      2.44927669e-05 2.92306231e-05 -1.28364809e-05 1.71863921e-05
      7.24837855e-06 -3.67812572e-05 -3.28459146e-06 2.24755368e-05
      -2.84882826e-05 5.22577011e-06 4.21815203e-05 -1.21756657e-05
      1.06265452e-05 7.12405890e-05 1.02534796e-05 3.06044822e-05
      6.99207521e-05 4.58072600e-06 2.25444692e-05 8.22334041e-05
      1.90351475e-05 3.49192451e-05 5.74693258e-05 -3.14608110e-06
      8.05188847e-06 6.26904693e-06 -4.73869950e-05 -3.80492675e-05
      -7.09842789e-06 -3.67321409e-05 -5.19143032e-05 -3.13752707e-06
      -2.85887345e-05 -3.91842768e-05 3.93818009e-05 3.49494730e-05
      2.04316602e-05 6.93005350e-05 6.60782825e-05 5.72073659e-05
      4.69094484e-05 3.50122937e-05 3.62527462e-05 2.04868320e-05
      7.05842604e-06 9.59082809e-06 2.02460560e-05 7.57633131e-07
      -1.36032634e-06 3.21222578e-05 4.75356501e-06 3.60808417e-06
      2.49410023e-05 -6.34606204e-06 -4.54213705e-06 4.82206406e-06
      -2.61493806e-05 -1.69681462e-05 -3.93552909e-05 -5.76548773e-05
      -5.02321236e-05 -1.74079159e-05 -3.35255318e-05 -2.44439470e-05
      2.35024818e-05 1.53997382e-06 1.56867391e-05 4.48989740e-05
      1.17512363e-05 2.08584115e-05 7.71123325e-07 -3.07514965e-05
      -2.87497442e-05 -1.47507108e-05 -5.53802638e-05 -5.46643460e-05
      -1.42356475e-06 -4.44931538e-05 -4.41444790e-05 -4.53117445e-06
      -4.83107433e-05 -5.07823897e-05 -2.39580349e-05 -6.31770890e-05
      -6.69398069e-05 -1.23977327e-06 -3.91939684e-05 -3.89871093e-05
      2.08256879e-05 -8.08417008e-06 2.61716605e-06 3.44049258e-05
      9.20076855e-06 2.49204604e-05 9.65348931e-07 -9.20706407e-06
      -1.93179339e-08 -1.39849317e-05 -2.19477224e-05 -1.11956033e-05
      -2.32453681e-06 -1.63696495e-05 3.08637482e-06 6.29385477e-06
      -8.19028719e-06 5.41561303e-06 -1.53766305e-05 -1.69401428e-05
      -1.73802800e-05 -2.82707897e-05 -2.77949748e-05 -2.92311506e-05
      -4.09592176e-05 -4.98950649e-05 -4.78638285e-05 -5.17237022e-05
      -5.24796778e-05 -5.69164476e-05 -4.70353734e-05 -3.22692867e-05
      -4.63716387e-05 -2.67575560e-05 2.79836598e-07 -1.77351776e-05
      -1.57377981e-05 5.85049520e-06 -9.67664346e-06 1.10944966e-05
      3.10972100e-05 1.32684972e-05 3.02281969e-05 5.86538736e-05
      2.63953189e-05 2.16369244e-05 5.32926315e-05 1.55950638e-05
      3.84455125e-05 6.25748653e-05 2.46794825e-05 4.54020992e-05
      6.60319492e-05 2.63024958e-05 1.45661006e-05 3.58852958e-05
      -4.97010160e-06 -8.05519812e-06 3.45282297e-06 -3.43338907e-05
      -1.04178052e-05 -1.33691628e-05 -4.11584442e-05 7.94655807e-06
      -5.90844502e-06 -2.84777943e-05 2.17616398e-05 4.16921239e-06
      -1.51992826e-05 1.70418025e-05 -5.72985118e-06 -2.47595672e-05
      5.73306033e-06 -2.58169021e-05 -4.11525980e-05 -1.56218830e-05
      -5.00862880e-05 -6.20063729e-05 -9.92990772e-06 -3.63470572e-05
      -4.82667274e-05 1.58708699e-05 -8.94658660e-06 -1.97003155e-05
      2.36357755e-05 7.22450159e-06 -8.80806510e-06 3.41882842e-05
      2.53180115e-05 -2.55681221e-06 3.98748780e-05 3.46719789e-05
      -5.74406795e-06 1.13080641e-05 6.79875939e-06 -3.62030041e-05
      -7.54509938e-06 -1.52128678e-05 -5.57495914e-05 -2.03253549e-05
      -2.26083957e-05 -5.79911357e-05 -2.14751944e-05 -2.10186790e-05
      -4.47965540e-05 -3.75183936e-06 7.24093013e-07 -1.73959106e-05
      2.70149085e-05 2.86525592e-05 1.41500959e-05 2.14836655e-05
      1.89974380e-05 4.80052222e-07 1.91077943e-05 5.83374003e-06
      -2.73038549e-05 3.44704458e-05 5.42194357e-06 -3.23677268e-05
      6.61797239e-05 9.29837188e-06 -2.71303925e-05 6.53676470e-05
      -9.34173414e-08 -3.71372189e-05 5.07340847e-05 -7.31801902e-06
      -4.68228245e-05 5.41712106e-05 6.77194021e-06 -3.42008098e-05
      6.32703086e-05 2.81311513e-05 -1.31283523e-05 4.16960211e-05
      1.57662289e-05 -2.23430307e-05 2.95975715e-05 1.18668925e-06
      -3.28449860e-05 1.87670048e-05 -6.01687589e-06 -3.75096279e-05
      2.92283603e-05 4.05225455e-06 -3.02692279e-05 1.86149227e-05
      -2.27870896e-06 -3.83846309e-05 1.52948578e-05 9.11782445e-06
      -3.48675094e-05 5.85085354e-06 8.43309135e-06 -2.94215206e-05
      5.00617534e-06 1.47033934e-05 -1.68302759e-05 1.85799108e-05
      2.90263179e-05 1.28946567e-06 1.15398325e-05 1.31370434e-05
      -2.05926917e-05 2.51212441e-06 -4.70894793e-06 -4.08966043e-05
      4.28754720e-05 1.83797365e-05 -1.40538159e-05 5.57766725e-05
      2.49413151e-05 -5.79430571e-06 5.16873879e-05 2.71235695e-05
      -4.25065673e-06 5.37219639e-05 3.09976676e-05 -8.10525421e-07
      3.20611543e-05 4.44854686e-06 -1.87448441e-05 1.57771319e-05
      -1.98482462e-06 -2.13722124e-05 5.37358119e-06 5.58946795e-07
      -8.55029248e-06 1.37072257e-05 1.34243428e-05 9.70337169e-06
      -7.52910955e-06 -1.13159449e-05 -1.19769811e-05 -1.31095439e-05
      -1.66360751e-05 -1.17299505e-05 -3.45625340e-05 -3.28078422e-05
      -2.76754636e-05 -4.03650847e-05 -3.71770184e-05 -3.27575472e-05
      -1.52775629e-05 -7.22956293e-06 2.45150295e-06 -1.61975750e-05
      -7.28418581e-06 -4.01257921e-06 -1.28338970e-05 9.63176831e-07
      -3.43952433e-06 -1.74821271e-05 -1.04597075e-05 -2.14376741e-05
      -6.42878717e-07 -3.17058993e-06 -7.44467661e-06 1.16593674e-05
      -3.99126111e-06 -3.39415215e-06 1.83963289e-06 -2.23164188e-05
      -1.92521802e-05 2.04910248e-05 -1.03887132e-05 -1.55378166e-05
      1.80903353e-05 -2.86748054e-05 -4.00306999e-05 1.53198562e-05
      -2.43745071e-05 -4.65991179e-05 4.97283909e-05 1.50186288e-05
      -1.23698592e-05 5.98340630e-05 3.46064953e-05 1.28404472e-05
      4.02688602e-05 2.16948356e-05 2.12246614e-05 1.28733891e-05
      5.43414535e-06 1.91241470e-05 -1.99265887e-05 -2.16036842e-05
      -2.54578686e-06 7.98329802e-06 -1.09520658e-06 2.55322648e-05
      4.67740138e-05 2.39453184e-05 5.29305871e-05 6.74652911e-05
      3.25137989e-05 5.59839718e-05 5.03284718e-05 1.36941744e-05
      2.45704960e-05 3.75020973e-05 -3.04918831e-06 1.76094443e-06
      4.60714982e-05 2.48464016e-06 1.07375654e-05 4.23981110e-05
      -4.14349324e-06 7.98863675e-06 2.46541495e-05 -2.13321928e-05
      -6.31478133e-06 3.70453272e-05 -1.71697957e-05 2.23593361e-06
      3.47917521e-05 -2.79788001e-05 -7.06139735e-06 4.10085631e-05
      -2.69678221e-05 -6.10579809e-06 5.82972134e-05 -1.05852287e-05
      -4.38873684e-07 7.09844535e-05 -1.07066091e-06 6.47693059e-06
      6.34891549e-05 -1.50601254e-05 -3.20346339e-06 4.30999607e-05
      -3.24129905e-05 -1.76413414e-05 3.10135001e-05 -2.96097824e-05
      -2.07936882e-05 1.81758387e-05 -3.23826462e-05 -2.46369964e-05
      2.03197415e-05 -2.38370030e-05 -1.08537224e-05 2.44825678e-05
      -1.00459447e-05 8.57604482e-06 9.29113503e-06 -2.34113195e-05
      1.31049489e-07 1.06286207e-05 -2.38582452e-05 7.33056277e-06
      4.23682795e-05 5.47463742e-06 3.89695997e-05 5.44302784e-05
      1.29968885e-05 5.24428178e-05 4.61385280e-05 1.16278225e-05
      4.06071267e-05 9.06065270e-06 -2.36147262e-05 1.00377110e-05
      -5.89055526e-06 -4.45156511e-05 -8.26480118e-06 -2.62558501e-06
      -5.24767020e-05 -1.40986158e-05 9.76090450e-06 -4.16875191e-05
      -1.67075013e-05 2.35855150e-05 -3.30985131e-05 -1.34701704e-05
      2.75807506e-05 -3.64159314e-05 -1.71887750e-05 5.10328646e-05
      -8.85754616e-06 8.48078071e-06 3.75055824e-05 -2.09389964e-05
      -1.14099030e-05 -2.37196801e-07 -5.39993853e-05 -4.52096538e-05
      -2.19764388e-06 -3.03929210e-05 -5.04311611e-05 -4.74867011e-06
      -2.63902566e-05 -4.33281093e-05 2.08465844e-05 1.95108569e-05
      1.93329970e-06 3.94733361e-05 4.05523024e-05 3.11764743e-05
      2.68540225e-05 1.75882124e-05 2.02583633e-05 8.08039294e-06
      -7.31343016e-06 -1.77724064e-06 -3.50148730e-06 -2.65049584e-05
      -2.51532638e-05 1.98205453e-06 -3.03655961e-05 -2.95670070e-05
      2.81539269e-05 -1.81248670e-05 -7.63275693e-06 5.12303905e-06
      -3.64436783e-05 -2.30914393e-05 -4.57168135e-05 -7.75818771e-05
      -6.31123112e-05 -2.16498956e-05 -5.61987617e-05 -3.68490873e-05
      1.68596944e-05 -1.85409281e-05 4.53948860e-06 3.28611095e-05
      -1.55975904e-05 6.14497503e-06 1.76363501e-05 -2.79040651e-05
      -1.34244356e-05 1.25493580e-05 -3.39385515e-05 -2.50347239e-05
      1.61682565e-05 -2.65584604e-05 -2.16620665e-05 3.67113103e-06
      -4.13446251e-05 -4.13436792e-05 -1.38239784e-05 -5.61434244e-05
      -5.82167777e-05 2.87947614e-07 -4.29747088e-05 -4.19684438e-05
      1.99465576e-05 -1.52564207e-05 -2.62685671e-06 3.17414233e-05
      -3.35427160e-07 1.83457305e-05 1.15450566e-05 -3.70603948e-06
      1.13700462e-05 1.73258741e-05 6.82990139e-06 2.59098106e-05
      2.95625669e-05 1.52999855e-05 3.80830024e-05 1.26998557e-05
      3.63530989e-06 2.41305170e-05 -1.47926303e-05 -1.77456950e-05
      -7.61035699e-06 -1.57152281e-05 -1.73376357e-05 -7.72349085e-06
      -8.11312020e-06 -9.50791673e-06 -3.79684070e-06 -1.44610303e-05
      -7.68490099e-06 -4.73941100e-06 -2.42249989e-05 3.28145529e-06
      -2.94571373e-06 -1.44410897e-05 2.06973618e-05 1.17672462e-05
      9.78227399e-06 3.06331603e-05 2.45922693e-05 2.22681047e-05
      4.30301625e-05 3.46519701e-05 2.34738764e-05 5.09805359e-05
      2.92682944e-05 2.79807155e-05 5.69047988e-05 3.02407389e-05
      4.72876309e-05 6.76201889e-05 3.88750377e-05 5.40311412e-05
      7.13059053e-05 3.40373517e-05 4.86870085e-05 6.39574646e-05
      2.71179069e-05 2.54093120e-05 2.94738620e-05 -5.64531138e-06
      2.55424147e-05 1.24561939e-05 -1.13106971e-05 4.52778258e-05
      2.31910217e-05 2.30398427e-06 4.05549290e-05 1.13459246e-05
      -8.02021532e-06 5.40327928e-05 1.97957834e-05 3.96883206e-06
      4.84570955e-05 8.68366442e-06 -3.70705766e-06 1.87469832e-05
      -2.42684346e-05 -3.26800364e-05 -3.44725890e-06 -3.75347190e-05
      -4.27186387e-05 2.44027956e-06 -2.59604822e-05 -3.27968082e-05
      9.83829977e-06 -1.03446655e-05 -2.63651273e-05 9.95799383e-06
      2.30311434e-06 -2.17297966e-05 1.91963845e-05 1.59081774e-05
      -1.54500467e-05 1.23132004e-05 1.29456303e-05 -2.24251035e-05
      -3.14076965e-06 1.53006482e-07 -3.24955290e-05 -1.70336243e-05
      -9.66374228e-06 -3.54637123e-05 2.28551585e-06 1.19191245e-05
      1.23907728e-06 5.16177852e-06 1.77630518e-05 1.07877140e-05
      2.61493005e-06 2.16955723e-05 1.49666448e-05 1.44080077e-05
      3.00935008e-05 1.70184048e-05 5.01108332e-07 9.88351439e-06
      -1.91800591e-05 2.14800439e-05 6.84671704e-06 -3.20485633e-05
      7.58260067e-05 2.58765358e-05 -1.05965164e-05 9.55535288e-05
      3.06030233e-05 -6.78718470e-06 9.26412395e-05 3.08523595e-05
      -1.18974394e-05 8.05939999e-05 3.13876262e-05 -1.17437176e-05
      7.12493202e-05 3.60428239e-05 4.90555612e-06 5.33912498e-05
      3.19906649e-05 9.78915614e-06 4.60008305e-05 2.25904241e-05
      7.33377783e-06 2.66449279e-05 1.11505497e-05 -2.85637952e-06
      2.79416745e-05 1.57364848e-05 -1.10288408e-06 1.57153663e-05
      6.43518388e-06 -1.33648919e-05 -1.19862971e-05 -4.82019641e-06
      -3.66683416e-05 2.48029124e-07 1.86113903e-05 -6.76383797e-06
      -2.97315410e-06 1.80222269e-05 -1.29462978e-06 -4.41902284e-06
      6.85820623e-06 -9.41767667e-06 -1.95771781e-06 5.19573723e-06
      -2.01890507e-05 8.36205709e-06 1.16020726e-06 -2.75010261e-05
      2.52434365e-05 4.63591050e-06 -2.33909323e-05 4.33997011e-05
      2.20819566e-05 -6.13515067e-06 3.93656264e-05 2.58516538e-05
      -3.13621172e-06 3.51584822e-05 2.04038424e-05 -2.79906590e-06
      1.65816091e-05 -1.29408218e-05 -3.10600553e-05 3.45079425e-05
      1.18608950e-05 2.32146317e-06 3.08807139e-05 3.02157823e-05
      3.05924441e-05 2.77769977e-05 3.45102235e-05 4.07861662e-05
      4.95130917e-06 1.41020737e-05 2.43099184e-05 -1.79278632e-05
      -8.12187579e-07 1.10701430e-05 -3.00437077e-05 -9.49576315e-06
      2.99024146e-06 -3.03978304e-05 -1.03907223e-05 2.79546543e-06
      -1.32765899e-05 6.40161215e-06 2.84302423e-05 -1.04166147e-05
      4.78515631e-06 2.03202490e-05 1.95943721e-06 2.01298008e-05
      2.35103889e-05 -1.98951911e-05 -7.48501816e-06 -8.53619622e-06
      -6.49641606e-06 -1.12870566e-05 -7.07403797e-06 -2.34692970e-06
      -1.87806654e-05 -1.14149971e-05 -8.46204603e-06 -3.66957174e-05
      -2.61439254e-05 4.77989715e-06 -3.58006109e-05 -3.47230671e-05
      3.39033832e-05 -2.46587733e-05 -3.08130657e-05 5.68100695e-05
      -3.32297645e-06 -1.86396792e-05 9.19277882e-05 4.09563254e-05
      1.83642205e-05 8.72064411e-05 4.62390235e-05 2.92213390e-05
      4.59557377e-05 1.62895631e-05 2.09835762e-05 9.06805599e-06
      -1.07476299e-05 6.26396331e-06 -6.63957326e-06 -1.19791630e-05
      6.45979753e-06 2.60458437e-05 1.77619186e-05 3.77092074e-05
      6.57327837e-05 4.81149436e-05 6.84273255e-05 7.38169183e-05
      4.49626314e-05 6.34967655e-05 6.33662639e-05 3.42450621e-05
      4.03054146e-05 3.48224203e-05 1.09448160e-06 5.72808631e-06
      3.42537387e-05 -1.76827541e-06 7.88100442e-06 3.62972969e-05
      -3.70248767e-06 1.09267339e-05 2.26820684e-05 -2.24084415e-05
      -5.00343822e-06 4.96511757e-06 -5.10021127e-05 -3.08674062e-05
      3.10163778e-05 -3.68646179e-05 -1.05603067e-05 3.74450319e-05
      -3.36633420e-05 -8.26629275e-06 7.56247173e-05 2.50997346e-06
      1.41540231e-05 7.22137047e-05 -7.14747466e-06 6.14172450e-06
      6.32558076e-05 -1.66990267e-05 6.52750259e-06 3.31971605e-05
      -3.59457190e-05 -7.61593901e-06 4.30204364e-06 -4.54151923e-05
      -2.41477956e-05 -1.20972991e-05 -4.21950972e-05 -2.27800756e-05
      1.34356451e-05 -1.05640584e-05 2.00832092e-05 1.39862295e-05
      -1.73336184e-06 3.38797508e-05 -1.19235892e-05 -2.33077735e-05
      1.82606964e-05 6.72520400e-06 -4.99625094e-06 4.22068952e-05
      3.93382543e-05 2.20073380e-05 7.09497981e-05 4.72300635e-05
      2.61590121e-05 7.70826737e-05 1.20241102e-05 4.82895821e-08
      4.07067455e-05 -2.35658422e-06 -2.03823056e-05 2.47971675e-05
      -1.69087853e-05 -4.47118073e-05 2.45997762e-06 -2.97781517e-05
      -6.73044269e-05 -2.41081325e-05 -1.95288139e-05 -5.91089010e-05
      -3.52957213e-05 -2.93594894e-05 -7.78144240e-05 -5.62148998e-05
      -2.55750638e-05 -7.82973657e-05 -6.13540687e-05 2.22515118e-05
      -2.82292203e-05 -1.33505500e-05 5.78668369e-05 9.87917701e-06
      1.60134532e-05 1.11819290e-05 -2.99324802e-05 -2.58759319e-05
      6.40316921e-06 -2.41484468e-05 -4.49163963e-05 1.22347146e-05
      -1.34604443e-05 -3.01959990e-05 1.70653020e-05 1.01392052e-05
      -6.91650575e-06 1.90012834e-05 1.63010918e-05 7.56674717e-06
      5.97162398e-06 -5.86083161e-06 2.45107890e-06 -1.30517783e-05
      -3.39243052e-05 -2.08616439e-05 -1.52374078e-05 -4.16236908e-05
      -3.37902020e-05 5.85566340e-06 -3.07342889e-05 -2.17700326e-05
      1.41938253e-05 -3.21572988e-05 -1.42377921e-05 -1.84757591e-05
      -6.50104485e-05 -4.35206639e-05 -7.63469143e-05 -1.12840928e-04
      -8.73204626e-05 -6.36974219e-05 -1.01337719e-04 -7.40716714e-05
      -5.85252610e-06 -4.86224162e-05 -1.68801052e-05 5.38114800e-05
      3.91962658e-06 3.46640081e-05 4.02421574e-05 -8.14865416e-06
      1.72736673e-05 1.55622565e-05 -2.91495744e-05 -1.36378139e-05
      1.38138539e-05 -2.60104134e-05 -1.76760077e-05 1.13917558e-05
      -3.08940471e-05 -2.90428197e-05 -2.23591314e-06 -4.28165004e-05
      -4.50711159e-05 -3.28787883e-06 -4.60669180e-05 -4.36605551e-05
      3.07295613e-06 -3.61445818e-05 -2.09846003e-05 4.48862265e-05
      1.14233690e-05 3.21837033e-05 5.10575192e-05 3.60495214e-05
      5.73499674e-05 4.43870122e-05 3.29009090e-05 5.95819474e-05
      3.25904002e-05 1.80236002e-05 4.97306137e-05 6.74574312e-06
      2.05920216e-07 2.96440376e-05 -1.68171446e-05 -1.54887766e-05
      1.38869871e-06 -8.51046207e-06 -3.54195436e-06 6.40796588e-06
      -6.57759028e-06 -2.20608126e-06 8.75268961e-06 1.03511798e-06
      1.75203386e-05 2.36969172e-05 -3.13776654e-05 1.17860345e-05
      9.80406367e-06 -3.32336349e-05 1.03761440e-05 8.68819188e-06
      -5.66695599e-06 2.17870638e-05 2.38179855e-05 1.63807872e-05
      3.73955372e-05 3.48837748e-05 1.37994512e-05 4.18330164e-05
      2.62127978e-05 4.45298901e-05 6.82433019e-05 4.67278005e-05
      6.15050958e-05 7.87710524e-05 5.00604983e-05 5.71214841e-05
      6.44342945e-05 3.36908233e-05 5.55738734e-05 6.22832449e-05
      2.98176528e-05 4.55984009e-05 4.35790353e-05 1.33081403e-05
      3.82156759e-05 1.80684528e-05 -3.60250829e-06 4.67552927e-05
      2.03152576e-05 1.57780778e-06 5.79550506e-05 2.56502171e-05
      8.59931515e-06 8.90918527e-05 4.89689774e-05 3.61773200e-05
      8.56970219e-05 4.45748956e-05 3.34956021e-05 6.93504408e-05
      2.38341308e-05 1.73808621e-05 1.21175872e-05 -2.03780637e-05
      -2.16412864e-05 -2.29461257e-05 -5.03233787e-05 -5.22405026e-05
      -4.14312490e-05 -5.95523998e-05 -7.30043103e-05 -3.45581066e-05
      -4.34905014e-05 -6.73022296e-05 -1.98902380e-05 -2.60283705e-05
      -5.37177912e-05 6.02433488e-07 3.14774502e-06 -2.81635057e-05
      1.83577195e-05 3.03935503e-05 1.80133426e-07 2.49706591e-05
      4.58537470e-05 2.42599854e-05 1.46113080e-05 3.73412695e-05
      3.07664050e-05 -9.21085120e-06 2.06212662e-05 2.01673502e-05
      -2.24941014e-05 9.15653618e-06 9.74126488e-06 -4.35408947e-06
      2.32253806e-05 1.70202420e-05 -1.67041999e-05 4.43205778e-07
      -2.68276981e-05 -1.60111194e-05 -1.84910477e-05 -5.43533024e-05
      3.87100517e-05 -1.57823604e-06 -4.13563939e-05 8.77035272e-05
      2.79403594e-05 -1.38484193e-05 9.00423256e-05 3.21819061e-05
      -1.50218648e-05 8.44318056e-05 3.52367388e-05 -1.96325004e-06
      6.29469432e-05 3.34010438e-05 1.11206200e-05 4.50164625e-05
      3.14076497e-05 1.90530081e-05 2.86852483e-05 2.04572661e-05
      1.20201566e-05 -4.39759191e-07 -5.82120947e-06 -1.14785116e-05
      -1.97291774e-05 -2.23856023e-05 -3.26113804e-05 -1.30639091e-05
      -5.32289596e-06 -1.97237150e-05 -3.04187033e-05 -5.19155537e-06
      -2.54531733e-05 -4.19047319e-06 2.72527705e-05 7.77469540e-06
      -8.09403787e-07 3.22566593e-05 1.57880731e-05 5.91675462e-06
      2.80279019e-05 1.38287378e-05 3.56059900e-05 5.12141523e-05
      3.32495692e-05 3.86505926e-05 3.67061839e-05 1.51790127e-05
      2.12190826e-05 9.66349216e-06 -1.69756531e-05 2.67021096e-05
      8.36619165e-06 -1.61446151e-05 3.27857888e-05 2.43351333e-05
      -4.40282156e-06 2.74246886e-05 1.22233369e-05 -1.04484416e-05
      3.04918303e-05 2.09017230e-06 -1.71926276e-05 6.27264089e-05
      3.75265299e-05 2.94764031e-05 3.28536553e-05 3.86644642e-05
      4.15529576e-05 -3.79280209e-06 1.97730860e-05 3.29963514e-05
      -2.52359769e-05 9.32037710e-06 2.38738630e-05 -2.20554230e-05
      1.27470576e-05 3.08365852e-05 -3.49275761e-05 3.56211785e-06
      1.39607646e-05 -1.53359415e-05 1.71267711e-05 3.30154253e-05
      -4.75113666e-06 2.35540647e-05 4.47515340e-05 -1.61732271e-06
      1.86927045e-05 3.89999004e-05 4.05358551e-05 6.85787527e-05
      7.36596776e-05 2.69964894e-05 4.98411318e-05 4.85315613e-05
      1.82688236e-05 2.14443553e-05 2.65110284e-05 -4.32275601e-06
      -1.95682296e-05 -1.12121497e-05 -1.55101225e-05 -4.62795106e-05
      -3.52772659e-05 2.12974101e-05 -2.79924334e-05 -2.71030021e-05
      6.16489342e-05 -7.88694433e-06 -1.59514402e-05 9.95739538e-05
      2.41350390e-05 7.96924178e-06 1.36741524e-04 6.83748585e-05
      4.22298690e-05 9.40403697e-05 3.76796343e-05 1.90554056e-05
      3.32934032e-05 -9.10131894e-06 -8.34674756e-06 1.08458707e-05
      -1.12932930e-05 2.16828994e-06 1.02724835e-05 2.87677130e-06
      1.67389462e-05 3.67698121e-05 2.76989140e-05 4.45705700e-05
      6.67450877e-05 5.01681352e-05 6.76937270e-05 6.78305878e-05
      4.74278422e-05 6.38080819e-05 3.01937962e-05 1.33477197e-05
      1.72445107e-05 8.09223911e-06 -9.02130887e-06 -3.81316158e-06
      2.58630753e-05 4.28641761e-06 1.00726493e-05 4.04425300e-05
      7.91412731e-06 2.02880583e-05 2.57363699e-05 -1.86827401e-05
      -2.80246900e-06 1.82756594e-05 -3.44741566e-05 -1.52838002e-05
      3.31748706e-05 -3.29601498e-05 -8.10549500e-06 2.72717225e-05
      -4.81570751e-05 -2.70306136e-05 5.56709019e-05 -2.42974329e-05
      -1.73228218e-05 7.38369272e-05 -4.36523260e-06 5.07987443e-06
      5.70815209e-05 -1.75843525e-05 2.11821543e-06 4.10908397e-05
      -2.17609122e-05 8.16580541e-06 1.71072879e-05 -1.07291871e-05
      1.09956891e-05 -8.26723590e-06 -1.98828220e-05 1.35287182e-05
      -1.86383238e-06 -1.00117104e-05 2.87426974e-05 4.23106258e-07
      5.94281391e-06 5.29818280e-05 -4.13679618e-06 4.83061331e-06
      5.76444982e-05 1.61677654e-05 2.64620103e-05 8.09970079e-05
      5.76792008e-05 5.70261836e-05 1.12985763e-04 5.02483563e-05
      4.70619379e-05 1.01462159e-04 1.29422970e-05 1.09080665e-05
      6.25433313e-05 5.14304475e-07 -5.50682626e-06 4.61881427e-05
      -7.91326602e-06 -2.26900247e-05 2.46318177e-05 -4.21508812e-05
      -6.99682860e-05 -2.56707553e-05 -3.05696594e-05 -6.35947072e-05
      -3.97045333e-05 -2.27473101e-05 -6.57162745e-05 -4.45844526e-05
      4.50538619e-06 -4.27461237e-05 -2.77728195e-05 4.06971194e-05
      -6.30634304e-06 6.24139011e-06 7.57472226e-05 2.96353701e-05
      3.22920241e-05 2.71995614e-05 -1.32984760e-05 -1.25041452e-05
      6.05508285e-06 -2.23098396e-05 -4.97108085e-05 1.14240574e-05
      -1.22925076e-05 -3.62259016e-05 5.17831859e-06 2.75207049e-06
      -1.87603746e-05 -1.15396469e-05 -9.09143000e-06 -1.84217552e-05
      -1.89468010e-05 -2.34136696e-05 -1.38004698e-05 -2.02179799e-05
      -3.40320803e-05 -1.57589384e-05 -7.17689954e-06 -2.46949112e-05
      -1.07439273e-05 1.29817158e-06 -2.33053634e-05 -5.79835205e-06
      6.26262590e-06 -2.15130931e-05 1.52206417e-06 -2.17999532e-05
      -5.46279734e-05 -2.84245725e-05 -6.51324881e-05 -8.91690433e-05
      -5.92092110e-05 -3.19559040e-05 -6.02638465e-05 -3.03855777e-05
      2.42095921e-05 -9.38178346e-06 2.58577420e-05 6.33900127e-05
      2.19928716e-05 5.55321603e-05 3.72005343e-05 1.27654596e-06
      3.18853599e-05 -4.36311757e-06 -3.46833767e-05 -1.39215472e-05
      -1.49215630e-05 -3.89028028e-05 -3.05601388e-05 -4.70338455e-06
      -3.18758248e-05 -3.01485579e-05 -1.59616538e-05 -4.81743627e-05
      -5.06309152e-05 -3.86346219e-05 -7.21346805e-05 -7.37120863e-05
      -2.60745164e-05 -5.85380258e-05 -4.66545134e-05 2.43758641e-05
      1.40319617e-06 2.02710980e-05 3.94409362e-05 2.86073882e-05
      6.02351101e-05 2.03511263e-05 1.30787994e-05 4.93425869e-05
      1.48299596e-05 1.12234657e-05 5.46499723e-05 -1.61509172e-06
      -5.03773754e-06 3.62022838e-05 -1.47654073e-05 -6.50660331e-06
      1.30721319e-05 -2.60336401e-05 -1.48354757e-05 1.25349334e-06
      -1.91482486e-05 -4.01931629e-06 1.25936831e-05 -7.27679026e-06
      2.14977827e-05 3.53590767e-05 -3.41477680e-05 1.06039233e-05
      2.05288943e-05 -3.56122728e-05 1.30365679e-05 1.90779956e-05
      -2.12316045e-05 8.50647666e-06 1.81850446e-05 -9.99167787e-06
      1.39038439e-05 1.93157848e-05 -2.52425762e-05 2.43612067e-06
      -6.44991769e-06 1.45564827e-05 3.12979391e-05 1.80433490e-05
      2.46792697e-05 3.66043460e-05 1.60919608e-05 1.21396424e-05
      1.61171665e-05 -5.16397586e-06 3.66409085e-06 6.04528896e-06
      -1.52062867e-05 1.53937835e-05 1.18821117e-05 -6.29333454e-06
      -2.64604910e-06 -1.99944388e-05 -3.02846001e-05 7.14863427e-06
      -1.41253295e-05 -2.19655649e-05 2.55348823e-05 -5.38005725e-06
      -6.16623629e-06 5.40557085e-05 1.61523985e-05 1.70670792e-05
      5.13888772e-05 1.03263465e-05 1.08808272e-05 5.28229502e-05
      1.04997298e-05 1.39372514e-05 2.19657636e-06 -2.45786305e-05
      -2.17404231e-05 -8.23593746e-06 -2.66466432e-05 -2.55328141e-05
      -1.47769642e-05 -3.12449265e-05 -2.95784721e-05 -2.97662264e-05
      -3.74029405e-05 -4.67753707e-05 -2.45323226e-05 -2.43987051e-05
      -4.41893026e-05 5.51922676e-06 1.99376300e-05 -6.59156194e-06
      1.15733801e-05 3.88292319e-05 1.65920865e-05 1.54794780e-05
      5.42078124e-05 4.22233497e-05 -1.76890517e-05 2.48568467e-05
      2.71259560e-05 -5.63052599e-05 -1.24671651e-05 -2.86667409e-06
      -5.53523787e-05 -1.24407306e-05 -7.51090909e-07 -3.56761811e-05
      4.65389746e-07 3.99948522e-06 -5.45744551e-05 -2.30484511e-05
      -4.15151299e-05 -5.25371543e-05 -3.93614318e-05 -7.04691774e-05
      1.22605366e-06 -2.21444243e-05 -5.96154787e-05 4.70389059e-05
      -2.64972641e-06 -4.14523493e-05 7.71252307e-05 2.52586869e-05
      -1.85449353e-05 7.63414209e-05 3.67850153e-05 2.41511748e-06
      4.27886007e-05 2.26233096e-05 1.45652548e-05 1.16492183e-05
      7.43542751e-06 1.58500152e-05 -1.57455888e-05 -1.13639144e-05
      1.31287280e-07 -5.94236262e-05 -4.99017224e-05 -3.62978208e-05
      -3.89736415e-05 -3.09392926e-05 -2.20310121e-05 -2.11222359e-05
      -2.16671424e-06 1.49305515e-06 -7.96231507e-06 3.61703896e-05
      2.77960662e-05 9.70646923e-08 5.16555374e-05 4.38437783e-05
      -6.45385171e-06 4.48303799e-05 3.99330347e-05 -7.10900486e-06
      3.65219239e-05 3.29770737e-05 4.57653823e-06 4.24072059e-05
      3.07398623e-05 2.33057540e-06 1.96125275e-05 1.04624851e-05
      -1.97090703e-05 -1.78271948e-05 -3.17212289e-05 -2.49040004e-05
      -2.97505103e-05 -4.89584927e-05 -3.68493647e-06 -8.76025933e-06
      -3.27701564e-05 5.63898402e-06 -6.09254812e-06 -2.55556952e-05
      1.32234036e-05 -1.33662952e-05 -2.72635007e-05 2.45781375e-05
      6.68674738e-06 3.96645510e-06 2.32047341e-06 1.22190040e-05
      2.85518872e-05 -4.20077849e-05 -2.11298561e-06 2.09366390e-05
      -7.94403604e-05 -2.05847864e-05 1.41114867e-06 -7.34747591e-05
      -1.16259807e-05 1.17297304e-05 -4.10290013e-05 1.72451309e-05
      3.62237042e-05 -2.35385578e-05 2.81154280e-05 4.74863627e-05
      1.71779462e-07 4.65704252e-05 6.70644076e-05 1.44866144e-05
      4.89385129e-05 6.84722254e-05 2.37927361e-05 6.28128400e-05
      7.37553783e-05 4.18734771e-06 3.93968876e-05 4.53250505e-05
      -5.64812490e-06 8.34742877e-06 2.06769510e-05 -3.63032668e-05
      -3.66731874e-05 -2.65919116e-05 -3.48385911e-05 -5.07552322e-05
      -3.88505432e-05 3.82504586e-05 -4.14026408e-06 6.96102688e-07
      1.05165578e-04 3.28689857e-05 2.13762760e-05 1.38349773e-04
      5.25223113e-05 3.63193940e-05 1.44172765e-04 6.61032318e-05
      4.12845911e-05 1.10796042e-04 4.51517226e-05 2.86261275e-05
      5.35620202e-05 7.60976081e-06 8.71468364e-06 2.71742902e-05
      -4.84112718e-07 1.04269202e-05 1.01695068e-05 6.03237686e-06
      1.49449834e-05 1.87626956e-05 1.88031063e-05 3.17546546e-05
      2.77953750e-05 2.16841399e-05 3.99909113e-05 2.14897191e-05
      1.41611899e-05 3.62874162e-05 -3.18520542e-05 -2.51331057e-05
      -1.61461194e-05 -4.33315836e-05 -3.60337617e-05 -2.46981126e-05
      -3.40115948e-05 -3.74757110e-05 -2.71579138e-05 -1.74283559e-05
      -3.45540138e-05 -2.10577928e-05 -9.44999374e-06 -4.29409520e-05
      -2.75776638e-05 5.71121791e-06 -4.09704844e-05 -2.21064383e-05
      1.80792831e-05 -3.70090493e-05 -2.12945233e-05 1.56158731e-05
      -5.89988849e-05 -4.43197532e-05 2.58511700e-05 -5.33559978e-05
      -5.00616443e-05 2.74681024e-05 -4.94150045e-05 -4.28930252e-05
      3.69104673e-05 -3.12663724e-05 -1.37383677e-05 2.59517055e-05
      -2.32684142e-05 9.58294095e-06 -1.49268444e-05 -2.52762184e-05
      7.09784808e-06 -4.87132456e-05 -3.80147430e-05 9.80612526e-07
      -4.81383868e-05 -2.46624077e-05 2.18126206e-05 -5.25711293e-05
      -2.36970718e-05 3.09666066e-05 -4.67660866e-05 -1.40576794e-05
      4.38786192e-05 -3.12477860e-05 1.51287884e-06 6.05327004e-05
      -7.71850137e-06 1.15267303e-05 6.67232380e-05 -1.28208058e-06
      1.39571748e-05 6.70787413e-05 -3.03184606e-05 -1.56000169e-05
      3.45601729e-05 -2.26441189e-05 -1.50312071e-05 3.44069595e-05
      6.07966513e-06 4.85374494e-06 5.20533249e-05 -1.18428861e-05
      -2.47796997e-05 1.79035906e-05 9.56388067e-06 -1.35660721e-05
      9.93206686e-06 1.64593348e-05 -1.92406842e-05 -7.72863757e-07
      2.03055988e-05 -2.56242020e-05 -1.30143799e-05 4.21978111e-05
      -5.45197781e-06 5.39265056e-06 6.31788935e-05 1.91267645e-05
      1.32624373e-05 3.27004273e-05 -9.84974395e-06 -1.68595579e-05
      5.00605965e-05 1.71071133e-05 -1.36454983e-05 3.04211644e-05
      3.79100766e-06 -2.21039973e-05 8.91024320e-06 1.90730225e-06
      -2.16776116e-05 1.26519280e-05 8.98442795e-06 2.51131553e-07
      1.33117856e-05 5.34197898e-06 1.83892589e-05 1.44043710e-07
      -1.17212630e-05 9.58886449e-06 -2.14152587e-05 -3.21569205e-05
      -1.29514265e-05 -2.45020692e-05 -3.82580001e-05 -1.59459869e-05
      -1.88588492e-05 -3.64020452e-05 -8.86267389e-06 -4.03727136e-05
      -5.69381264e-05 -2.73764435e-05 -5.41472327e-05 -6.18209597e-05
      -3.16090955e-05 -3.95733787e-06 -1.78408973e-05 1.20217792e-05
      4.45535479e-05 2.20418842e-05 5.92139222e-05 4.27044215e-05
      1.70467029e-05 5.01790055e-05 -5.51920175e-06 -2.26017401e-05
      8.42150655e-07 -2.17303568e-05 -3.47861314e-05 -1.89866696e-05
      -4.10862740e-05 -5.13638333e-05 -4.27646955e-05 -7.42199472e-06
      -2.10585222e-05 -1.91990421e-05 -1.75276887e-06 -2.40470854e-05
      -2.49611785e-05 -3.32849049e-05 -5.68119649e-05 -5.50569603e-05
      -1.27489948e-05 -3.87205146e-05 -2.74290669e-05 3.91749272e-05
      2.69096545e-05 4.51385713e-05 2.75865896e-05 2.49007699e-05
      5.78444378e-05 -1.30968510e-05 -3.59314436e-06 3.57819008e-05
      -5.94622179e-06 3.65151959e-06 5.33065941e-05 -5.47171185e-05
      -4.44230609e-05 1.25175904e-06 -5.87679606e-05 -4.94532796e-05
      -2.07019420e-05 -2.91736378e-05 -1.28278834e-05 6.18989634e-06
      4.49551817e-06 2.38168032e-05 4.24900209e-05 2.21519040e-05
      6.06426947e-05 7.48759048e-05 -2.57984466e-05 2.00470040e-05
      3.35523000e-05 -4.03679551e-05 1.22790088e-05 2.66970965e-05
      -2.58060281e-05 -1.68767156e-06 1.24471817e-05 -2.77500603e-05
      -1.06129901e-05 -6.13575412e-06 -2.85897859e-05 -6.93257289e-06
      -1.63577897e-05 -5.17990998e-07 1.20783634e-05 -1.49269806e-06
      -5.28894543e-06 -3.73962644e-06 -2.35250045e-05 -2.44078601e-05
      -2.86956219e-05 -4.58128779e-05 -2.21493538e-05 -2.93378544e-05
      -3.86521606e-05 -1.82577696e-05 -2.14869251e-05 -2.96577291e-05
      -2.39527399e-05 -3.87148284e-05 -3.69687805e-05 -3.21830630e-05
      -5.12254519e-05 -4.85527598e-05 -1.74544020e-05 -4.69474980e-05
      -4.10896573e-05 3.91835738e-06 -3.06783440e-05 -2.28017761e-05
      2.96549042e-05 -1.17426534e-05 -6.36671575e-06 4.11280380e-05
      2.61777586e-06 7.60951889e-06 8.40345092e-06 -1.00812040e-05
      -7.55915653e-06 2.45752126e-05 1.15790199e-05 1.63288260e-05
      -5.17411763e-06 -1.33005633e-05 -1.50399846e-05 -4.12543195e-05
      -4.38755997e-05 -4.90417005e-05 -3.73585535e-05 -3.16550941e-05
      -5.16432192e-05 9.24588130e-06 2.72385787e-05 2.55588634e-06
      3.61710909e-06 4.19103817e-05 1.96466262e-05 5.59499358e-06
      5.65639020e-05 4.33915739e-05 -4.81159514e-05 1.25522283e-05
      1.28713109e-05 -9.66559965e-05 -3.86473948e-05 -2.54611441e-05
      -5.99394443e-05 -3.35123855e-06 6.45371119e-06 -3.53686955e-05
      1.46430930e-05 1.93667638e-05 -5.52124984e-05 -2.71616523e-06
      -2.32393213e-05 -6.51231167e-05 -3.34473298e-05 -6.41986699e-05
      -2.76288756e-05 -3.92039292e-05 -7.74307991e-05 2.90291227e-05
      -9.16938734e-06 -5.24770840e-05 7.91061320e-05 4.30118271e-05
      -4.71105386e-06 7.73933061e-05 4.62846729e-05 1.47404489e-05
      1.86249436e-05 5.11310009e-06 1.24397354e-06 -4.86251395e-07
      5.64163929e-06 1.53384117e-05 -3.07972587e-05 -8.40646135e-06
      5.28886994e-06 -6.52318558e-05 -3.74328811e-05 -2.81258581e-05
      -2.44105231e-05 -3.37575329e-06 5.29667795e-06 -2.37148492e-06
      2.47257667e-05 2.93983194e-05 -9.76678439e-06 4.29473293e-05
      3.25393776e-05 -2.52206446e-05 3.19787869e-05 2.00972172e-05
      -4.42102719e-05 1.16055253e-05 1.36769370e-06 -1.42260460e-05
      4.01821089e-05 3.32320196e-05 -2.40036607e-05 1.70670482e-05
      8.15919702e-06 -2.07906614e-05 9.66911193e-06 -2.54424026e-06
      -2.70115615e-05 -1.94692002e-05 -3.61501152e-05 -3.56301571e-05
      -3.85728417e-05 -5.98710467e-05 -2.11497900e-05 -3.23255481e-05
      -5.99377963e-05 -1.17816353e-05 -2.72585094e-05 -5.22811351e-05
      2.01626663e-05 -8.77337516e-06 -1.93860724e-05 1.92154966e-05
      2.56451858e-06 4.30274577e-06 -2.87825442e-05 -1.80050961e-06
      1.27962358e-05 -9.46655127e-05 -3.61426646e-05 -1.54320605e-05
      -1.17349286e-04 -4.07019397e-05 -1.88848571e-05 -7.91238344e-05
      3.70033308e-06 2.55554241e-05 -2.66004754e-05 4.81335082e-05
      6.33767195e-05 -4.93193829e-06 5.82329667e-05 7.15278875e-05
      8.12163580e-06 5.44404938e-05 6.66653577e-05 2.94319798e-05
      6.88776054e-05 7.75621811e-05 1.88750601e-05 5.86849892e-05
      5.88023941e-05 -3.18225029e-05 3.38472751e-06 4.58015165e-06
      -5.21935617e-05 -3.04967962e-05 -2.16194985e-05 -8.53846941e-05
      -8.04099982e-05 -6.19577404e-05 -6.76181880e-05 -7.56226800e-05
      -6.00198291e-05 2.24748455e-05 -1.08286631e-05 -1.50037249e-06
      1.35970506e-04 6.49794092e-05 5.74491205e-05 1.60042211e-04
      6.95141571e-05 5.19888999e-05 1.37589173e-04 4.99354683e-05
      2.92722434e-05 1.02185790e-04 2.84773905e-05 1.18233729e-05
      4.24334467e-05 -1.11433365e-05 -1.32922023e-05 7.56494001e-06
      -2.19012054e-05 -1.64996836e-05 -1.35972559e-05 -1.63812783e-05
      -1.14637141e-05 2.19643698e-05 2.21937535e-05 3.20842410e-05
      3.39281105e-05 3.75780219e-05 5.36537700e-05 2.17403340e-05
      2.62691901e-05 4.77642025e-05 -9.48068373e-06 1.25024280e-05
      2.39490455e-05 -7.54443226e-06 1.15032781e-05 2.26842221e-05
      -1.08355089e-05 -2.95768677e-06 9.76015963e-06 -2.41469970e-05
      -3.61014609e-05 -2.03307663e-05 -3.25592446e-05 -5.50271689e-05
      -4.48209794e-05 1.98636135e-05 -1.91542531e-05 -7.83732685e-06
      3.25557558e-05 -1.47061291e-05 -6.89773333e-06 3.08689087e-05
      -2.76592691e-05 -2.27824348e-05 1.46773818e-05 -5.60737681e-05
      -6.27494373e-05 1.00329071e-05 -6.37557387e-05 -6.37402627e-05
      4.65625271e-05 -1.34582388e-05 4.78007621e-07 4.42190540e-05
      1.05258587e-05 3.19879728e-05 -6.36242157e-06 -5.58346755e-06
      2.59409171e-05 -8.63300829e-06 1.62199867e-05 5.67805400e-05
      -2.86645954e-05 5.73108491e-06 5.28523960e-05 -3.52021707e-05
      1.32524028e-05 6.33788295e-05 -5.85513444e-05 -1.39180938e-05
      3.65208070e-05 -5.90509590e-05 -2.14545453e-05 2.74951835e-05
      -2.58568089e-05 -2.98771101e-06 4.37426170e-05 -2.54708084e-05
      -3.35597474e-06 3.86862775e-05 -2.68616441e-05 -1.11137151e-05
      2.67464438e-05 -2.02363790e-05 -9.16901445e-06 3.07427799e-05
      3.09698748e-06 3.46802040e-06 4.43950266e-05 1.94661661e-05
      1.36716526e-05 5.03346237e-05 3.06791881e-05 1.33736867e-05
      3.41470768e-05 4.15077775e-05 8.90785304e-06 2.15879973e-05
      3.02726839e-05 -1.19074984e-05 -1.02812089e-06 3.58977159e-05
      -1.47003584e-05 -8.02474278e-06 5.37579508e-05 2.15776981e-06
      -2.22682502e-06 2.68889962e-05 -1.98314629e-05 -2.90382904e-05
      8.64435569e-05 4.78397997e-05 1.22572965e-05 6.70820227e-05
      3.39699545e-05 2.65368408e-06 2.13577896e-05 6.46465833e-06
      -1.85021763e-05 1.19412662e-05 5.41952932e-06 -5.60159287e-06
      3.99227683e-05 2.99579406e-05 4.06634426e-05 -2.45690535e-05
      -3.16091682e-05 -1.09427747e-05 -5.10356185e-05 -5.17329936e-05
      -2.89083018e-05 -3.64742555e-05 -3.14286262e-05 -7.95335473e-06
      -5.06931792e-06 -2.17777119e-06 2.33143201e-05 -4.49570616e-05
      -3.49890688e-05 -9.79771630e-06 -4.24574828e-05 -2.70684905e-05
      -2.20740299e-06 -1.69377495e-06 1.10666651e-05 3.47721361e-05
      2.51830133e-05 2.45260599e-05 4.90208295e-05 8.35108676e-06
      9.45960153e-07 2.09895989e-05 -1.56405040e-05 -1.17628624e-05
      -1.90940750e-06 -6.45563614e-06 -1.58910620e-06 4.76072637e-06
      -3.16512051e-05 -3.11330368e-05 -2.17969464e-05 -3.04465229e-05
      -3.58290526e-05 -3.06161346e-05 -6.13197972e-06 -1.71909978e-05
      -1.28470892e-05 -4.05228275e-05 -5.06529723e-05 -4.82022078e-05
      1.10535047e-05 -2.09513996e-06 1.07949172e-05 5.35624058e-05
      4.84748962e-05 6.83031321e-05 5.24800744e-05 6.10010356e-05
      9.41549879e-05 -1.87992046e-05 4.18603031e-06 4.40075710e-05
      -3.70967537e-05 -1.15509765e-05 3.83187507e-05 -7.29580206e-05
      -4.62309326e-05 1.29215755e-06 -8.87680362e-05 -6.98677686e-05
      -4.07480984e-05 -3.03717061e-05 -1.23446216e-05 7.55183055e-06
      2.40731442e-05 4.52051099e-05 6.10137067e-05 4.22445955e-05
      7.67443198e-05 9.28338341e-05 2.35745392e-06 3.93895571e-05
      6.00334533e-05 -2.28866847e-05 1.98265934e-05 3.82672733e-05
      -4.26581209e-06 1.38850201e-05 3.21763910e-05 -2.10173112e-05
      -9.08179118e-06 -3.54440999e-06 -1.83198044e-05 -1.02744885e-07
      -1.31647348e-05 2.75054954e-05 3.51479030e-05 2.01208968e-05
      2.80642216e-05 2.41325251e-05 7.03548039e-06 -4.76586365e-06
      -1.26278483e-05 -2.63544425e-05 -1.16986557e-05 -1.86937450e-05
      -2.15763721e-05 7.19337095e-06 3.03766751e-06 6.23585856e-06
      -2.36217729e-05 -3.72677059e-05 -2.50964349e-05 -3.45061926e-05
      -5.20812828e-05 -3.61051243e-05 -3.00275715e-05 -5.85184316e-05
      -4.27929299e-05 -2.47093703e-06 -3.81403552e-05 -2.18725945e-05
      3.35019540e-05 -9.73965416e-06 -1.28873751e-06 5.15264292e-05
      1.08010117e-05 1.74005963e-05 2.21078499e-05 4.82028383e-07
      1.77073525e-06 3.35256082e-05 2.30228397e-05 2.74036756e-05
      -1.24045737e-05 -1.04263127e-05 -1.06764037e-05 -5.52078163e-05
      -5.31844671e-05 -5.61958659e-05 -2.50073354e-05 -1.04154451e-05
      -3.28595488e-05 2.72061625e-05 4.83149779e-05 2.09774153e-05
      7.98819838e-06 5.24521784e-05 2.57444244e-05 3.85167041e-05
      9.20083839e-05 8.00618582e-05 -2.71679119e-06 5.85183698e-05
      6.05405148e-05 -1.31214738e-05 5.12795305e-05 6.09295057e-05
      -1.15557361e-06 5.54922735e-05 6.72662427e-05 -2.10104117e-05
      3.76653988e-05 4.22551566e-05 -5.34899264e-05 1.10603160e-05
      -4.74265289e-06 -4.25210383e-05 3.39686403e-06 -2.41614616e-05
      -1.15595731e-05 -1.13018059e-05 -4.56822090e-05 1.60930886e-05
      -1.04069150e-05 -5.07955920e-05 6.27192057e-05 3.26262743e-05
      -1.12430498e-05 4.62651878e-05 2.33697301e-05 -6.27649752e-06
      1.35456185e-06 -6.86652675e-06 -7.40712994e-06 2.10611015e-05
      3.45045701e-05 4.97866240e-05 -3.54161348e-05 -7.49378978e-06
      1.10903220e-05 -4.69083498e-05 -1.54014742e-05 6.89329056e-07
      -5.70342399e-06 2.13781605e-05 2.99101666e-05 6.78835522e-06
      3.87894761e-05 3.82330691e-05 -1.06307925e-05 2.78743573e-05
      1.49756888e-05 -4.57265160e-05 1.24096698e-06 -1.42304507e-05
      -7.18158553e-05 -2.08988295e-05 -3.93554838e-05 -4.53819375e-05
      7.66434005e-06 -6.25229677e-06 -2.47635071e-05 1.80253282e-05
      6.18808099e-06 -2.46703530e-05 5.04224772e-06 -8.41161454e-06
      -1.03428492e-05 1.57298598e-06 -1.83399443e-05 -1.33486546e-05
      -1.91722029e-05 -4.26768311e-05 1.10110695e-05 -2.03761078e-06
      -3.66248241e-05 3.39800681e-05 1.24539483e-05 -1.75857713e-05
      3.27306661e-05 5.60402168e-06 -5.65377923e-06 -1.76472145e-06
      -1.97593545e-06 6.58893725e-07 -4.40722906e-05 4.08210099e-07
      1.61203188e-05 -1.04846498e-04 -2.96047765e-05 -5.38885706e-06
      -1.28264262e-04 -2.89931540e-05 -4.21573486e-06 -7.77463283e-05
      2.34911331e-05 4.22484227e-05 -5.33920138e-05 2.99293206e-05
      3.49367838e-05 -1.94471068e-05 5.14793865e-05 4.93983134e-05
      -3.17686827e-05 1.52605935e-05 5.74716296e-06 -2.86592003e-05
      7.77718014e-06 -1.14280226e-06 -3.41299456e-05 -7.12943020e-08
      -1.23694772e-05 -7.05461862e-05 -3.83316110e-05 -4.20452234e-05
      -1.13279013e-04 -8.34949606e-05 -7.26748840e-05 -1.14922790e-04
      -9.61366968e-05 -7.65955410e-05 -8.59010979e-05 -8.52279627e-05
      -5.72970421e-05 -1.02254726e-05 -3.87393338e-05 -2.13134244e-05
      9.52310947e-05 2.62803915e-05 2.32967432e-05 1.18644624e-04
      2.96790240e-05 1.50257847e-05 9.85631923e-05 9.24754022e-06
      -1.02423464e-05 8.29880446e-05 1.00511870e-05 -4.03154581e-06
      1.21993316e-05 -3.83772094e-05 -4.20788565e-05 -3.15436228e-05
      -5.55063525e-05 -5.36388870e-05 -3.12749144e-05 -2.88597148e-05
      -2.91154429e-05 7.87800673e-06 1.53797246e-05 1.97652771e-05
      2.70811634e-05 3.95952957e-05 5.23548806e-05 -2.04824555e-05
      9.82938104e-07 1.89495240e-05 -6.47237539e-06 2.70155288e-05
      3.81260397e-05 3.10684591e-05 5.65670525e-05 6.81026067e-05
      1.02261210e-05 2.33950159e-05 3.04015030e-05 -1.29127257e-05
      -1.81770629e-05 -1.00349598e-05 -2.70954642e-05 -3.93069495e-05
      -3.83727129e-05 -9.13178098e-07 -2.53330400e-05 -2.73144888e-05
      1.94070617e-05 -1.33641461e-05 -1.67121780e-05 2.29722427e-05
      -2.07936791e-05 -2.37111981e-05 1.55472171e-05 -4.11679284e-05
      -5.34075007e-05 1.33361737e-05 -4.91487190e-05 -5.47449745e-05
      4.74982917e-05 -4.77128879e-07 5.66735207e-06 3.29793584e-05
      1.32420109e-05 3.14396311e-05 -8.61594344e-06 9.10322615e-06
      3.07937444e-05 2.02522915e-05 5.44497925e-05 8.33434678e-05
      1.15415987e-05 5.92377546e-05 9.80949626e-05 1.44751084e-06
      5.32928098e-05 9.44102067e-05 -5.25182804e-05 -9.24583492e-06
      2.68842632e-05 -7.02369653e-05 -3.18148777e-05 -1.44048772e-06
      -2.64901046e-05 -4.79170637e-07 2.68650001e-05 -2.21462051e-05
      -6.04966726e-06 1.73873959e-05 -4.55724985e-05 -3.67005960e-05
      -1.28681377e-05 -4.76007226e-05 -4.23862475e-05 -1.42913277e-05
      -2.82573569e-06 -1.02513195e-05 2.21397022e-05 1.92113703e-06
      -8.39033237e-06 2.17854449e-05 1.11767249e-05 -5.39987604e-06
      6.10317738e-06 2.21245791e-05 -4.40294161e-06 4.33553942e-06
      1.01301102e-05 -2.95394293e-05 -2.07414796e-05 4.71792519e-05
      -3.87473028e-06 3.34247216e-06 6.15936806e-05 6.56060274e-06
      5.74200476e-06 4.24059290e-05 -7.87466706e-06 -1.62250471e-05
      8.38991473e-05 4.15154318e-05 2.66040706e-06 6.74654511e-05
      2.95475038e-05 -4.56326416e-06 2.17193465e-05 4.14376109e-06
      -2.24377927e-05 3.17148042e-05 2.33714145e-05 9.39043002e-06
      2.71891386e-05 1.82430576e-05 2.80569257e-05 -5.22194132e-05
      -5.38850982e-05 -3.35013974e-05 -6.29987771e-05 -5.69704207e-05
      -3.58273755e-05 -1.62609576e-05 -2.39872134e-06 1.93805790e-05
      2.16683816e-06 1.85858044e-05 4.26445149e-05 -2.65426497e-05
      -5.52779795e-07 2.08237016e-05 -3.53000032e-05 -1.02291699e-06
      1.66571845e-05 3.72047680e-06 3.14553436e-05 4.75246197e-05
      5.47017908e-06 1.46580205e-05 2.99464391e-05 1.18523694e-05
      1.11920899e-05 2.36534979e-05 1.70081912e-05 2.66830102e-05
      2.94427464e-05 4.31714652e-05 5.02879411e-05 5.02393850e-05
      -1.64649737e-05 -1.15017901e-05 -5.82473604e-06 -2.88350075e-05
      -3.17130907e-05 -2.66058069e-05 -3.30871408e-05 -3.74126721e-05
      -3.53603718e-05 -5.49597098e-05 -6.08232767e-05 -5.63562753e-05
      -3.51705830e-06 -1.08232343e-05 2.83820600e-06 5.32734120e-05
      5.79170555e-05 7.89495243e-05 6.51728114e-05 8.54476311e-05
      1.18355078e-04 2.26605721e-06 3.43698375e-05 7.53330751e-05
      -4.15691575e-05 -1.11383742e-05 3.88166991e-05 -8.17069013e-05
      -5.25875585e-05 -8.21390950e-06 -9.51650582e-05 -7.22988043e-05
      -4.93181142e-05 -5.40193687e-05 -3.69022018e-05 -2.10474027e-05
      2.03098534e-05 3.36030607e-05 4.32583802e-05 3.81745886e-05
      5.52018573e-05 6.76251075e-05 1.88834565e-05 4.15090544e-05
      5.41719492e-05 -8.78878291e-06 1.13034775e-05 2.64463579e-05
      -1.85842655e-05 -4.93357038e-06 8.92023854e-06 -1.99435854e-05
      -1.16242163e-05 -9.47939134e-06 -2.26764732e-05 -8.94110326e-06
      -2.22511153e-05 2.38704361e-05 3.50499322e-05 1.75459827e-05
      3.77809338e-05 3.79432204e-05 1.95570265e-05 2.86674822e-05
      1.94546556e-05 9.36758533e-06 1.13221745e-06 -8.86632336e-07
      7.77921514e-07 1.13284523e-05 6.48502601e-06 2.09767441e-05
      -1.25286733e-05 -2.24595824e-05 1.29601574e-06 -2.40619102e-05
      -3.97938747e-05 -1.39915028e-05 -3.27820271e-05 -5.87587565e-05
      -3.56830715e-05 6.38523488e-06 -3.01435302e-05 -1.09578650e-05
      5.87042960e-05 1.24700737e-05 2.13398944e-05 7.62279305e-05
      3.80433848e-05 4.24282916e-05 1.44919604e-05 -2.54835595e-06
      2.96785788e-06 7.89730439e-06 8.17615273e-06 8.78753053e-06
      -4.27423292e-05 -3.27169182e-05 -3.34357755e-05 -6.87155116e-05
      -5.21261318e-05 -6.03980807e-05 -7.50687968e-06 9.45638385e-06
      -1.45685317e-05 4.30711552e-05 6.87950305e-05 3.57423341e-05
      1.21033891e-05 4.89352788e-05 1.82156982e-05 1.07390679e-05
      5.78882646e-05 3.34481010e-05 6.34599019e-06 5.63033245e-05
      4.65670710e-05 6.41618669e-07 5.86575152e-05 6.00419917e-05
      -5.14717021e-06 4.57551505e-05 5.10443388e-05 -3.20415820e-05
      2.46600885e-05 2.68803851e-05 -6.45795226e-05 -6.98399526e-06
      -2.03512336e-05 -5.83459259e-05 -1.67539074e-05 -4.20936449e-05
      -6.37208996e-06 -6.10816869e-06 -4.20070028e-05 2.29967936e-05
      1.71824843e-06 -4.05412356e-05 4.00585923e-05 1.42268445e-05
      -3.11623662e-05 1.88957238e-05 -3.31377646e-06 -3.22836058e-05
      -2.64077898e-05 -3.02454791e-05 -3.11182885e-05 9.18308251e-06
      2.67688865e-05 4.29490392e-05 -3.21443113e-05 1.65513279e-06
      1.60646796e-05 -3.58875441e-05 3.21115044e-06 1.64634421e-05
      -8.03753551e-07 3.14825847e-05 3.40999359e-05 2.76921746e-05
      5.38178138e-05 4.75896413e-05 -2.13920362e-06 2.56161511e-05
      8.59142347e-06 -4.36093396e-05 -7.61361753e-06 -3.33820062e-05
      -6.05518107e-05 -2.51378715e-05 -5.35921936e-05 -1.94798904e-05
      1.94238492e-05 -4.06571417e-06 -1.18628532e-05 1.93295109e-05
      -3.10860014e-06 -2.85368933e-05 -8.93644767e-07 -2.32871662e-05
      -3.06009133e-05 -1.39065723e-05 -4.40659751e-05 -5.62229707e-06
      -4.97018891e-06 -3.71344795e-05 4.07953921e-05 2.16599219e-05
      -1.87414553e-05 5.72488243e-05 3.21435182e-05 -5.47643140e-06
      3.15911966e-05 1.19249298e-05 -7.65675395e-06 -3.38442078e-06
      -2.93404764e-06 -5.95465826e-06 -3.31090559e-05 1.85853514e-05
      2.97329407e-05 -8.87639253e-05 -4.60891243e-07 2.13609783e-05
      -1.03837585e-04 2.15119326e-06 1.94418317e-05 -5.90069503e-05
      4.59933726e-05 5.80365559e-05 -2.96534836e-05 4.55496483e-05
      3.83389197e-05 -1.56021142e-05 3.76491989e-05 2.00712166e-05
      -3.76606295e-05 -9.53031122e-06 -3.60887607e-05 -4.36288174e-05
      -2.56340991e-05 -5.57645544e-05 -3.25918991e-05 -1.24407634e-05
      -3.87399596e-05 -5.06870419e-05 -2.41320049e-05 -4.20241959e-05
      -8.66715345e-05 -4.91058054e-05 -4.45639598e-05 -9.07879948e-05
      -6.11785581e-05 -4.23624588e-05 -7.77930836e-05 -6.39088248e-05
      -3.47433561e-05 -1.65055262e-05 -3.59376027e-05 -1.56144906e-05
      7.59332688e-05 9.41639519e-06 5.25339874e-06 7.92720093e-05
      -1.00264424e-05 -2.71197750e-05 6.81394304e-05 -1.57702652e-05
      -3.57176104e-05 6.17179612e-05 -7.60075136e-06 -2.21352711e-05
      1.85068905e-06 -4.48488281e-05 -4.93792577e-05 -1.40252150e-05
      -3.23471977e-05 -3.28315546e-05 1.34509055e-05 2.11656989e-05
      1.57497925e-05 4.54465844e-05 6.31497678e-05 6.14798701e-05
      5.12069573e-06 2.75071616e-05 3.51622002e-05 -3.56431156e-05
      -5.82485518e-06 6.08284199e-06 -3.21512453e-05 8.20508922e-06
      1.48153986e-05 -1.02958884e-05 2.12007180e-05 2.45833908e-05
      -7.15160286e-06 1.19903416e-05 1.05684167e-05 -2.82566798e-05
      -2.50656594e-05 -2.79205688e-05 -1.13315864e-05 -1.74854249e-05
      -2.90622720e-05 1.11723566e-05 -5.98719726e-06 -2.01064977e-05
      1.93599699e-05 -3.48774506e-06 -1.37622874e-05 4.74029039e-05
      9.27275596e-06 -1.78489768e-06 5.30474645e-05 4.47051356e-08
      -1.42334711e-05 4.37341114e-05 -1.19775677e-05 -2.28636236e-05
      3.92893380e-05 -1.23565781e-06 -4.31331216e-07 1.00727702e-05
      -7.28574105e-06 4.05436185e-06 -2.32354050e-05 6.95192796e-07
      1.23708423e-05 2.39976907e-05 6.24520690e-05 8.52914236e-05
      3.70949892e-05 8.87539718e-05 1.17507705e-04 1.83756201e-05
      6.74088005e-05 9.44676503e-05 -3.58883044e-05 4.53945404e-06
      2.45740648e-05 -4.43298013e-05 -7.23986250e-06 5.36275820e-06
      -5.98770785e-05 -3.93257505e-05 -3.41287014e-05 -5.19245696e-05
      -4.29306965e-05 -3.75476666e-05 -4.69997758e-05 -4.18079617e-05
      -3.27666894e-05 -4.02898986e-05 -4.23576457e-05 -2.86312879e-05
      -1.68714712e-06 -1.37259549e-05 7.40050609e-06 -8.02172053e-06
      -2.44416606e-05 -4.28103976e-06 -7.78991671e-06 -2.75127095e-05
      -1.86410944e-05 5.05049547e-06 -1.95381763e-05 -1.42092304e-05
      1.14040949e-05 -2.78823754e-05 -1.99253318e-05 5.66987837e-05
      1.67509688e-06 1.05715553e-05 8.26888354e-05 2.50389221e-05
      2.36725537e-05 8.03912480e-05 2.67724536e-05 2.02571700e-05
      5.23489362e-05 1.72663204e-05 -1.99645820e-05 2.88838655e-05
      -2.00200452e-06 -3.58297366e-05 -2.31863796e-05 -3.71394926e-05
      -6.63281171e-05 3.94806648e-06 -7.58862427e-07 -1.55922698e-05
      1.59674364e-05 1.72906530e-05 2.28373228e-05 -3.48405156e-05
      -2.48918495e-05 -1.05167928e-05 -3.44898581e-05 -1.73804438e-05
      1.47564052e-07 -1.22248239e-05 7.76657453e-06 2.71001718e-05
      -1.21471803e-05 1.94984896e-05 3.56856035e-05 -4.66234014e-05
      -7.30345619e-06 3.99196915e-06 -6.20066057e-05 -1.52088987e-05
      -1.00983198e-05 -2.94077036e-05 4.89375907e-06 9.58054625e-06
      -1.87156711e-05 -6.83193412e-06 -2.32574706e-07 -1.05283179e-05
      -6.80720177e-06 -7.42119482e-06 -2.01123294e-06 9.79569995e-06
      -2.78444577e-06 2.85603819e-05 3.28711103e-05 2.12242867e-05
      -4.08338155e-06 -8.37133575e-06 -8.96565598e-06 -3.87412438e-05
      -4.49532818e-05 -4.33993591e-05 -6.22621155e-05 -6.85334526e-05
      -6.82438040e-05 -7.79887632e-05 -8.37472762e-05 -8.06354947e-05
      -3.47875066e-05 -3.83670122e-05 -2.52635436e-05 3.10162468e-05
      4.26433871e-05 6.50620495e-05 3.11509939e-05 5.85485359e-05
      8.76053600e-05 -1.51837658e-05 2.32310667e-05 5.98130573e-05
      -4.59459334e-05 -1.19130336e-05 3.43211432e-05 -8.75209007e-05
      -5.77528153e-05 -1.90820738e-05 -7.98377150e-05 -6.20551073e-05
      -4.77683134e-05 -5.19660316e-05 -4.14430615e-05 -3.97035255e-05
      -1.48086963e-06 -3.23003547e-07 1.36932351e-06 7.46849810e-06
      5.24879306e-06 9.73130318e-06 1.33527874e-05 1.44370788e-05
      2.45257525e-05 -9.05619254e-06 -1.89627451e-06 8.52020821e-06
      -5.49141396e-06 7.81797723e-07 1.64055564e-05 -2.17048928e-05
      -1.78782539e-05 -1.18126845e-05 -3.63878353e-05 -1.83882967e-05
      -2.48343185e-05 -1.36012932e-05 3.37827305e-06 -9.88659485e-06
      3.00022821e-05 3.67691900e-05 2.54688075e-05 3.14149329e-05
      3.10669275e-05 2.83438130e-05 -9.98105043e-06 -8.06193566e-06
      4.10528764e-06 -1.22199817e-05 -7.26504004e-06 1.84130749e-05
      -3.62161591e-05 -3.98692464e-05 -6.19926823e-06 -4.30383152e-05
      -5.61283669e-05 -1.56893875e-05 -2.87977346e-05 -5.11838080e-05
      -1.78470600e-05 2.57068968e-05 -6.62377943e-06 1.81253654e-05
      7.58131355e-05 3.05349749e-05 4.84133197e-05 9.02434986e-05
      5.59288383e-05 6.85244740e-05 2.02100000e-05 3.98392058e-06
      2.23011630e-05 -8.65936363e-06 1.90338289e-06 1.28129168e-05
      -7.35928625e-05 -4.76250571e-05 -4.92618856e-05 -9.03519467e-05
      -5.91619064e-05 -6.90981178e-05 -1.22849860e-05 9.84334292e-06
      -1.83840584e-05 3.78040568e-05 6.00151870e-05 2.26902557e-05
      -1.17582094e-05 6.31104376e-06 -2.81246921e-05 -2.20911879e-05
      5.13025907e-06 -2.26079355e-05 -1.41929149e-05 1.05789741e-05
      -6.98949862e-06 -1.79023809e-05 1.88143549e-05 1.21382027e-05
      -1.84157489e-05 1.20684745e-05 1.42322478e-05 -1.05874587e-05
      2.57735119e-05 2.96755516e-05 -4.66642705e-05 -8.72631574e-07
      -1.20840496e-05 -4.10672692e-05 -8.86805628e-06 -2.73173628e-05
      -1.28292568e-05 -1.76653448e-05 -4.73955697e-05 1.22467563e-05
      -7.78075719e-06 -4.39613104e-05 4.39272808e-05 1.18089010e-05
      -2.84210455e-05 1.45552958e-05 -1.24413828e-05 -3.89696979e-05
      -2.15084638e-05 -2.46130567e-05 -2.31360627e-05 6.41330189e-06
      2.64885912e-05 4.47229722e-05 -1.12473190e-05 3.31789270e-05
      4.55513436e-05 -4.18040509e-06 4.51660271e-05 5.48423741e-05
      2.62321864e-05 6.61891754e-05 6.53379175e-05 2.26541342e-05
      4.70974774e-05 3.54009426e-05 1.00149209e-05 2.58487289e-05
      -3.46458847e-07 1.28104105e-07 1.70965159e-05 -1.44245814e-05
      -2.21974387e-05 -4.01436273e-06 -4.24064601e-05 -6.64645449e-06
      1.47265200e-05 -2.44635085e-05 -2.99297994e-06 1.66626924e-05
      -2.00641280e-05 -1.05975942e-05 1.38904725e-05 -2.18881505e-05
      -1.34001493e-05 3.43560600e-06 -2.67661853e-05 2.55756240e-05
      2.73627938e-05 -4.78196125e-06 8.89819057e-05 6.68588400e-05
      2.80305067e-05 8.24945892e-05 5.50913610e-05 1.57742252e-05
      3.77799879e-05 2.00346094e-05 -3.40888278e-06 -1.94689310e-05
      -1.25618280e-05 -1.68887709e-05 -4.11422916e-05 2.03435102e-05
      2.62801514e-05 -5.83962901e-05 3.72152244e-05 5.27469529e-05
      -5.32109589e-05 5.98420702e-05 6.96809220e-05 -1.86943016e-05
      7.34818823e-05 7.50246109e-05 1.00963116e-05 6.62734674e-05
      4.21280347e-05 9.25611494e-06 3.47550558e-05 -3.75660807e-06
      -2.63822349e-05 -2.54646147e-05 -7.79225229e-05 -4.45167170e-05
      -5.38662389e-05 -1.08335567e-04 -2.89167474e-05 -3.10926625e-05
      -7.44726567e-05 -6.81831261e-06 3.40726069e-06 -2.66238967e-05
      -4.86632302e-07 3.48253234e-05 3.36440607e-05 -2.82515448e-05
      7.80183109e-06 2.30179357e-05 -2.09933041e-05 3.83783254e-06
      2.34804065e-05 4.44726829e-05 3.20594263e-05 4.59108451e-05
      7.15496499e-05 8.88706563e-06 7.14873295e-06 5.77978244e-05
      -2.65704639e-05 -3.91977410e-05 6.34035678e-05 -1.06729785e-05
      -2.71340705e-05 7.46032892e-05 1.49488887e-05 5.94789799e-06
      2.51125330e-05 -1.13024862e-05 -1.30753724e-05 1.73542812e-05
      1.01513951e-05 1.00440820e-05 2.89223735e-05 4.30514337e-05
      3.90144924e-05 3.09978714e-05 5.46796218e-05 5.21720758e-05
      -1.92997722e-05 7.81185281e-06 1.09526600e-05 -3.75123273e-05
      -9.52086884e-06 -6.02157616e-06 -1.88652539e-05 1.42491117e-05
      1.28336751e-05 -1.50718433e-05 1.86451434e-05 1.46888351e-05
      -1.21514622e-05 1.03376469e-05 1.11018221e-06 -2.44432958e-05
      -1.54336176e-05 -2.58689997e-05 -3.21796542e-05 -3.19820065e-05
      -5.30486686e-05 -1.15084240e-05 -2.14015399e-05 -4.60811971e-05
      -1.98445559e-05 -3.37151396e-05 -5.24108509e-05 -4.04635193e-06
      -3.29429058e-05 -4.89680679e-05 3.05987269e-05 -1.39455478e-05
      -3.37005149e-05 1.91389336e-05 -2.47133230e-05 -4.07816515e-05
      -4.81460847e-06 -4.23979109e-05 -4.68616017e-05 -3.37085403e-05
      -4.86015051e-05 -4.54738220e-05 -5.49474025e-05 -3.30013427e-05
      -3.11948024e-05 -1.09071179e-05 2.65681392e-05 3.42122257e-05
      1.32622581e-05 5.08290323e-05 6.83811450e-05 1.47065957e-05
      4.67872269e-05 6.72317692e-05 -1.23729287e-05 1.98423422e-05
      2.89523141e-05 -3.25613837e-05 -2.97098723e-07 -5.14274575e-07
      -5.00148053e-05 -3.39987564e-05 -4.26906336e-05 -4.48495048e-05
      -4.38886418e-05 -5.56707455e-05 -2.27791206e-05 -2.48473134e-05
      -2.99993044e-05 -8.68780262e-06 -2.48876349e-05 -2.16485605e-05
      3.24623979e-05 4.51739834e-06 1.36822509e-05 6.47942034e-06
      -1.82957210e-05 -5.60162471e-06 2.09882255e-05 -4.41350767e-06
      1.89779178e-06 3.19214705e-05 4.15697059e-06 9.08861966e-06
      2.88274296e-05 -1.05004501e-05 -1.02634726e-06 4.77482427e-05
      -6.91321884e-06 4.60670390e-06 6.05159003e-05 4.25169128e-06
      4.62689195e-06 6.66289998e-05 1.34459751e-05 9.84565668e-06
      4.11498258e-05 1.45795766e-05 -2.36873766e-05 2.28986410e-05
      1.90067874e-06 -3.32690142e-05 -7.56492000e-06 -1.89637121e-05
      -5.01211289e-05 2.73876994e-05 2.47373864e-05 6.24366430e-06
      3.07626688e-05 3.58003199e-05 3.28801543e-05 1.02484573e-05
      1.92626412e-05 2.95057871e-05 2.37238055e-05 4.58403374e-05
      5.44561663e-05 3.67702705e-05 6.26391484e-05 7.40274190e-05
      7.17086414e-06 3.90477253e-05 4.96217908e-05 -4.28932435e-05
      -1.04272676e-05 -3.40563633e-06 -4.50674961e-05 -8.83603116e-06
      -8.93760989e-06 -1.38512933e-05 1.67165017e-05 1.27868752e-05
      5.50351433e-06 1.97830686e-05 1.76753892e-05 -1.34694901e-05
      -1.38121159e-05 -2.10019934e-05 1.53378332e-05 1.82472741e-05
      -5.39451139e-06 2.18365949e-05 1.99375190e-05 -5.20306139e-06
      2.75338880e-06 -1.11083209e-05 -1.95551074e-05 -1.37536144e-05
      -3.40692168e-05 -3.69338632e-05 -3.85433959e-05 -5.10951686e-05
      -5.42341550e-05 -5.33179227e-05 -5.81753739e-05 -5.63790309e-05
      9.80409914e-06 1.00342177e-05 2.66133211e-05 5.58788488e-05
      6.82970276e-05 9.51671245e-05 3.62057872e-05 6.56008779e-05
      9.76982192e-05 -8.02372597e-06 2.72153102e-05 6.16774923e-05
      -1.84534183e-05 4.58157047e-06 4.61738709e-05 -5.20380745e-05
      -3.25346300e-05 -9.28052657e-07 -2.67026862e-05 -2.28982590e-05
      -1.79608560e-05 -2.25015028e-05 -3.07897171e-05 -3.75576601e-05
      -2.97886199e-05 -4.65358680e-05 -5.42273592e-05 -2.29886555e-05
      -4.10968460e-05 -4.31274420e-05 8.36733852e-06 -6.22076732e-06
      -2.11170618e-06 1.02179629e-05 1.07403030e-05 1.52985103e-05
      1.41380142e-05 1.66007012e-05 3.20774452e-05 -1.00724665e-05
      1.31887339e-06 1.39224094e-05 -2.96139842e-05 -3.84735495e-06
      -8.48034688e-06 -1.77008660e-05 6.51696473e-06 1.07700566e-06
      2.84655835e-05 4.40649674e-05 3.74159536e-05 2.26034717e-05
      3.37878992e-05 3.64997904e-05 -2.86012801e-05 -1.78691698e-05
      3.58806028e-06 -3.29403301e-05 -2.10880389e-05 1.28116253e-05
      -5.64519323e-05 -4.90376697e-05 -7.23427456e-06 -5.07234727e-05
      -5.40332658e-05 -8.48865966e-06 -3.10538126e-05 -4.42658711e-05
      -5.73177522e-06 1.26426321e-05 -1.10464543e-05 1.78064602e-05
      6.82778627e-05 2.97365332e-05 4.98976879e-05 7.71285559e-05
      5.19222449e-05 6.90820743e-05 1.95088087e-05 2.11598945e-05
      3.88911540e-05 3.17692211e-05 6.00202839e-05 6.95390481e-05
      -2.84882371e-05 2.26850771e-05 1.67602921e-05 -6.62688544e-05
      -1.20512987e-05 -2.93706762e-05 2.80453150e-05 5.36011867e-05
      2.41192192e-05 3.36456615e-05 5.32097292e-05 1.39574695e-05
      -9.57503374e-08 1.02295344e-05 -2.64790106e-05 -4.91276978e-06
      6.37493122e-06 -2.76698283e-05 1.65762162e-06 1.62602773e-05
      -8.88131490e-06 1.62925862e-05 3.41419000e-05 2.30153382e-05
      -9.68565200e-06 1.25821616e-05 1.06824546e-05 2.03018590e-06
      3.08459385e-05 2.88119390e-05 -5.52889906e-05 -1.28987540e-05
      -2.97158713e-05 -3.84067898e-05 -8.08840105e-06 -2.76223418e-05
      -2.86555860e-05 -3.25333967e-05 -6.37613048e-05 2.40442350e-05
      -8.35903109e-07 -3.51625531e-05 6.09573326e-05 2.71095214e-05
      -1.07531032e-05 3.32145282e-05 5.16840873e-06 -2.32358107e-05
      -1.60040599e-05 -1.26786308e-05 -1.06151801e-05 -8.42449026e-06
      2.07444045e-05 3.56044729e-05 -2.25036601e-05 3.40891966e-05
      4.83808763e-05 -2.12455889e-05 4.21036384e-05 4.80783710e-05
      2.53098005e-05 6.71528105e-05 6.73002141e-05 1.69998257e-05
      3.75171076e-05 2.34823110e-05 1.11762856e-05 1.65045240e-05
      -9.69181201e-06 2.19968388e-05 2.35157713e-05 -1.21363792e-05
      -9.11883944e-07 -1.21477080e-06 -4.27885279e-05 -2.00443137e-05
      -1.37247816e-05 -5.93689547e-05 8.68744792e-06 1.86277284e-05
      -2.52726586e-05 1.34737775e-05 3.11220938e-05 -1.02715867e-05
      3.47053651e-06 2.02149331e-05 -1.70294225e-05 5.21649235e-05
      5.72385979e-05 1.95987559e-05 8.22318252e-05 6.13703960e-05
      1.83014708e-05 6.11751748e-05 3.61976381e-05 -4.45947489e-06
      2.69485622e-06 -1.27384028e-05 -4.00576464e-05 -3.89149136e-05
      -2.86312734e-05 -4.00881763e-05 -3.25526380e-05 3.09753377e-05
      3.24059911e-05 -4.59198600e-05 4.32394736e-05 5.25141731e-05
      -4.86951321e-05 5.23935196e-05 5.91109892e-05 -5.56685745e-06
      7.13873960e-05 6.23756132e-05 2.55254799e-05 6.56646152e-05
      3.13813252e-05 2.20702677e-05 3.14835306e-05 -2.17229299e-05
      -9.60827856e-06 -2.52163718e-05 -8.88295835e-05 -4.92217478e-05
      -7.20980242e-05 -1.40330085e-04 -4.13706512e-05 -5.55614861e-05
      -1.11016088e-04 -1.98243852e-05 -1.53329747e-05 -5.06792494e-05
      4.33082869e-06 4.00201025e-05 3.25700275e-05 1.55635666e-06
      3.74881492e-05 4.80382078e-05 1.98297494e-05 4.75065281e-05
      6.09224153e-05 7.88070756e-05 6.76819109e-05 7.28310843e-05
      7.06093488e-05 9.52046139e-06 4.27619170e-06 5.84323279e-05
      -1.96056262e-05 -3.26020490e-05 6.52648741e-05 -4.43480803e-06
      -2.19823633e-05 9.75145886e-05 4.55703557e-05 3.99662495e-05
      4.03214726e-05 1.61536591e-05 1.96165529e-05 2.17312445e-05
      2.54662336e-05 3.17324702e-05 3.15724101e-05 5.44038885e-05
      5.42771886e-05 2.59315675e-05 5.12585611e-05 5.04538111e-05
      -3.49984839e-05 -8.11150312e-06 -1.18334019e-05 -3.69352529e-05
      -1.25015740e-05 -1.34899246e-05 -2.85623864e-05 -4.02787236e-06
      -8.46215971e-06 -2.50552257e-05 -1.17081981e-06 -8.11195514e-06
      -9.33667980e-06 8.44298938e-06 -7.30271358e-06 -2.39983328e-05
      -8.53933307e-06 -2.74638205e-05 -4.30097716e-05 -2.95770860e-05
      -6.12137519e-05 -2.94940801e-05 -2.38227112e-05 -5.38569257e-05
      -2.69411794e-05 -3.74919764e-05 -5.67776442e-05 -8.85460850e-06
      -3.26597001e-05 -5.31458209e-05 1.88197046e-05 -1.74268625e-05
      -4.15318500e-05 -1.79076560e-05 -5.55139704e-05 -7.35837675e-05
      -3.57817808e-05 -6.47877314e-05 -7.57180242e-05 -4.41302764e-05
      -5.99891428e-05 -6.16260950e-05 -2.61300665e-05 -9.70792007e-06
      -1.52633147e-05 2.25547956e-05 5.43113492e-05 4.96437569e-05
      -1.81125070e-05 9.56726126e-06 1.70662643e-05 -3.89168781e-05
      -8.58955264e-06 -3.68270292e-07 -1.95799894e-05 9.57863540e-06
      9.69294433e-06 -4.49560184e-06 2.07705762e-05 1.05562794e-05
      -1.89893308e-05 -5.01828845e-06 -2.86447721e-05 -2.15372111e-05
      -2.22080216e-05 -4.62023345e-05 -1.37233826e-06 -1.44836367e-05
      -3.15304605e-05 2.32755428e-05 1.61433911e-06 -9.44769511e-07
      4.17673473e-05 1.21104167e-05 8.91091258e-06 2.34344930e-06
      -2.41409580e-05 -2.53517774e-05 3.83710831e-05 1.36335048e-05
      1.16278770e-05 6.12015065e-05 3.20520521e-05 3.26889131e-05
      4.19545468e-05 5.60239187e-06 1.24858998e-05 1.53534256e-05
      -3.45845474e-05 -2.58928230e-05 2.42394108e-05 -3.21781699e-05
      -3.13154560e-05 3.71671340e-05 -1.71427400e-05 -1.86292091e-05
      4.71694220e-05 2.96710587e-05 -1.01915903e-05 3.88436601e-05
      2.53902836e-05 -9.44383464e-06 1.26985979e-05 1.26976201e-05
      -1.96530491e-05 3.68067740e-05 4.21024779e-05 2.07170524e-05
      4.39880714e-05 5.63817994e-05 4.75836096e-05 1.66419068e-05
      2.94083929e-05 3.38146274e-05 1.21140138e-05 3.93262490e-05
      3.66356217e-05 9.02480861e-06 3.76182470e-05 4.15315153e-05
      8.23442133e-06 3.33871540e-05 3.74212214e-05 -5.31635624e-06
      2.12764935e-05 2.19713966e-05 3.92165566e-06 3.87074069e-05
      3.11992226e-05 3.27239650e-05 6.02192194e-05 4.84557895e-05
      2.71922454e-05 3.88819099e-05 2.82572055e-05 -4.36805067e-06
      -6.51066102e-06 -2.37701715e-05 1.69947925e-05 7.03871638e-06
      -2.54877650e-05 3.50162554e-05 1.72170730e-05 -1.90798255e-05
      1.80843454e-05 -8.42335885e-06 -2.70815872e-05 1.45049889e-05
      -1.30635717e-05 -2.28121662e-05 -4.18004493e-06 -1.97203808e-05
      -2.97028528e-05 -1.96562851e-05 -2.65444323e-05 -2.78629705e-05
      3.50130795e-05 3.15238467e-05 4.74787812e-05 4.52556524e-05
      4.92507825e-05 7.62696727e-05 2.77927993e-05 5.03325791e-05
      8.48167474e-05 -1.43636717e-05 1.20807917e-05 4.94597880e-05
      -1.82126150e-05 -4.42449027e-06 3.16524893e-05 -3.89002562e-05
      -3.33929311e-05 -8.87223177e-06 2.19755270e-06 -6.52523067e-06
      -1.29988466e-05 2.05442338e-05 -1.83811505e-06 -1.84254841e-05
      1.02287886e-05 -2.45840001e-05 -3.34091164e-05 3.80978554e-06
      -2.61856203e-05 -2.91020024e-05 2.05836495e-05 2.68219082e-06
      -2.53710732e-06 2.14686897e-05 2.45173906e-05 2.89558866e-05
      1.99839742e-05 3.38669270e-05 5.09651945e-05 -1.44269752e-05
      1.43029583e-05 3.19788196e-05 -2.87718849e-05 1.01044106e-05
      1.76844005e-05 -2.09792306e-05 1.71892516e-05 2.32002039e-05
      3.85486528e-05 6.34030512e-05 7.09550004e-05 2.75554703e-05
      4.60912488e-05 6.42704399e-05 -2.06797231e-05 6.43343014e-07
      3.42916792e-05 -2.90497865e-05 -5.27281736e-06 3.56640558e-05
      -4.60535011e-05 -2.52474747e-05 2.21560986e-05 -5.63313479e-05
      -3.96346077e-05 6.31204102e-06 -3.40780171e-05 -3.30070652e-05
      8.97237624e-06 -1.44434825e-05 -2.40206573e-05 1.15406365e-05
      1.84481032e-05 -3.62284709e-06 2.34369199e-05 2.27914115e-05
      1.26488385e-05 3.58267280e-05 -2.21678747e-05 -2.62500384e-06
      1.74289544e-05 1.59526971e-05 6.55012700e-05 7.73470820e-05
      -2.54721326e-05 5.32345257e-05 5.05002681e-05 -3.80252350e-05
      3.27192211e-05 1.64567336e-05 3.93761475e-05 7.48507664e-05
      4.62630269e-05 3.53382129e-05 5.95851197e-05 2.38572720e-05
      2.97537008e-05 3.88062981e-05 1.36538097e-06 1.71606334e-05
      2.38111297e-05 -8.64358026e-06 9.74027353e-06 1.57722825e-05
      -8.40910252e-06 4.14182323e-05 4.84368538e-05 3.29288996e-05
      4.00702947e-06 2.85973747e-05 1.93662836e-05 -2.28705212e-05
      8.51382720e-06 3.12691623e-06 -3.16324440e-05 7.12346764e-06
      -1.11241052e-05 -3.27694470e-05 -7.67890197e-06 -3.18116872e-05
      -1.30204053e-05 -1.61715325e-05 -4.81064708e-05 4.03809172e-05
      1.85047684e-05 -1.46455832e-05 7.29858002e-05 3.82238359e-05
      2.56623230e-06 1.57758932e-05 -8.90689535e-06 -3.09531351e-05
      -3.30060138e-05 -1.91163199e-05 -1.80262959e-05 -2.48779015e-05
      1.63442983e-05 3.03160123e-05 -6.91503010e-05 1.08724430e-06
      1.20403383e-05 -5.57639942e-05 1.79069939e-05 2.41628004e-05
      2.58200998e-05 6.26730252e-05 6.61236554e-05 1.13654114e-05
      1.97524005e-05 1.03295215e-05 4.74558647e-06 5.96390373e-06
      -1.87129517e-05 1.11647150e-05 -3.67167968e-06 -3.84171872e-05
      2.32647526e-05 6.19889988e-06 -3.59995429e-05 3.11946974e-06
      -3.50429536e-06 -5.14598578e-05 3.03487582e-07 1.11284853e-05
      -3.78587320e-05 -1.16914671e-05 8.48104719e-06 -3.49833281e-05
      4.22689254e-07 2.13048515e-05 -1.52902394e-05 4.45408514e-05
      5.66952876e-05 2.00957766e-05 2.76730843e-05 1.44629230e-05
      -3.08316521e-05 4.84773955e-06 -1.78174741e-05 -5.95648926e-05
      -1.65137244e-05 -3.09629431e-05 -6.07450456e-05 -4.70375526e-05
      -3.99943820e-05 -5.21893198e-05 -5.10947393e-05 5.52618303e-06
      8.80461357e-06 -8.26083342e-05 -1.75056925e-06 5.91306798e-06
      -8.69462456e-05 -3.27369958e-06 -5.23067138e-06 -2.70340370e-05
      3.38599421e-05 1.60423388e-05 -1.45213799e-05 2.02040010e-05
      -2.48673605e-05 1.35921719e-05 1.81443793e-05 -3.86389365e-05
      2.20905986e-05 -4.34015107e-07 -6.68539215e-05 -1.48576428e-05
      -4.66480633e-05 -1.14038798e-04 -5.55283841e-05 -7.67702295e-05
      -1.28802334e-04 -6.49795911e-05 -5.46709452e-05 -9.13599652e-05
      -1.25885463e-05 2.18406731e-05 1.11942072e-05 -3.79953804e-06
      4.16411749e-05 4.26914885e-05 3.58870857e-05 6.44122993e-05
      6.49106660e-05 5.28873352e-05 4.18763084e-05 3.51165181e-05
      2.72772359e-05 -2.98835239e-05 -3.94217459e-05 2.90923999e-05
      -4.18646596e-05 -5.55730367e-05 5.10123609e-05 -1.75295700e-05
      -2.61410369e-05 5.64346628e-05 7.12412611e-06 9.80879304e-06
      1.04940602e-06 -1.96037108e-05 7.14439238e-07 -1.98599682e-05
      -1.10806122e-05 1.64520152e-05 -8.41398742e-06 1.56161223e-05
      3.15142606e-05 -6.20635547e-06 1.84185883e-05 3.34350079e-05
      -4.72988213e-05 -2.64753198e-05 -2.20214552e-05 -4.57651404e-05
      -3.23658569e-05 -2.69931643e-05 -4.04805141e-05 -2.24351461e-05
      -2.91536871e-05 -5.77316168e-05 -4.26150909e-05 -5.25814685e-05
      -2.44974817e-05 -1.40955126e-05 -2.96976104e-05 -1.13619144e-05
      -3.01364207e-06 -2.31452032e-05 -3.95454117e-05 -1.69657505e-05
      -4.66547717e-05 -2.69520260e-05 -1.47785768e-05 -4.28353742e-05
      2.48034175e-05 2.06456061e-05 1.61043170e-06 2.80214026e-05
      1.25273300e-05 -5.36387415e-06 5.05231728e-05 2.15659802e-05
      -3.70196767e-06 -8.56876341e-06 -4.07043517e-05 -6.34113094e-05
      -2.90355983e-05 -5.48818171e-05 -7.28827436e-05 -2.63024922e-05
      -4.36894115e-05 -5.29241916e-05 -8.34582988e-06 4.38942749e-07
      -1.24088610e-05 2.54168990e-05 4.20640899e-05 3.59906990e-05
      4.70196983e-06 1.92643747e-05 2.07194789e-05 -3.72665017e-05
      -1.34289940e-05 -8.32380920e-06 -2.39380770e-05 5.59746377e-06
      1.79083429e-07 -1.54963764e-05 9.07901176e-06 -6.65761854e-06
      -5.71256851e-06 2.88097863e-06 -1.98718553e-05 -9.29806174e-06
      -9.39593974e-06 -3.70494381e-05 -2.73067531e-06 -1.25474153e-05
      -3.21893349e-05 3.77041797e-05 1.48982672e-05 4.89449985e-06
      2.85207025e-05 -1.90929291e-06 -1.37071793e-05 -2.34421077e-05
      -5.21641232e-05 -6.23231972e-05 1.57681170e-05 -8.15857129e-06
      -1.54395930e-05 6.92018875e-05 4.02341502e-05 3.65310625e-05
      4.02799742e-05 7.67506299e-06 1.26094073e-05 -1.28656393e-05
      -5.41438167e-05 -4.84804405e-05 -8.54392238e-06 -5.84692862e-05
      -5.64298098e-05 2.35710759e-05 -2.72955967e-05 -2.84698035e-05
      3.01687433e-05 1.78870941e-05 -2.18788518e-05 1.23685431e-05
      -2.36389027e-07 -3.54700351e-05 -9.96233848e-06 -7.43983856e-06
      -4.19054631e-05 4.73249711e-05 5.26203003e-05 2.70906639e-05
      6.52361559e-05 7.68209793e-05 5.90425188e-05 2.06454970e-05
      3.05454851e-05 2.55451178e-05 -2.66201678e-05 -3.79033804e-06
      -1.31800280e-05 -3.98880802e-05 -1.60948930e-05 -1.95447828e-05
      -3.15795078e-05 -9.59871886e-06 -1.12937259e-05 5.81440736e-06
      2.55206760e-05 2.17167835e-05 -7.95442338e-06 2.33134160e-05
      1.12881280e-05 -2.67801329e-06 2.23490024e-05 9.37819277e-06
      1.95047251e-05 2.40318514e-05 1.22135671e-05 3.48686954e-05
      2.45811898e-05 3.66941799e-06 1.04572100e-05 -9.49610785e-06
      -5.12346196e-05 3.02474054e-05 1.12048053e-06 -4.06642685e-05
      1.40794236e-05 -2.34537729e-05 -4.65886078e-05 2.09890732e-05
      -1.43938832e-05 -3.04865316e-05 3.97777476e-05 1.45622189e-05
      -1.86368629e-06 1.23043892e-05 1.07481549e-06 -5.25457335e-06
      4.85095870e-06 -7.86840792e-06 9.18406295e-06 1.98988237e-05
      1.48296540e-05 4.55175068e-05 2.07469311e-05 3.24221764e-05
      6.90223242e-05 1.27771127e-05 2.81927041e-05 6.17237019e-05
      7.70180668e-06 9.54539973e-06 4.19209173e-05 9.62862123e-06
      5.68715109e-07 1.35243827e-05 3.06663533e-05 9.87637668e-06
      -3.74331125e-06 5.80109700e-05 2.95729660e-05 6.66910637e-06
      3.33739408e-05 -7.82686402e-06 -1.87856676e-05 4.91836545e-05
      1.20023096e-05 8.06293065e-06 5.67261741e-05 3.59984260e-05
      3.10598843e-05 4.23748497e-05 4.99296366e-05 5.15625143e-05
      3.31741421e-06 2.32897182e-05 4.09258355e-05 -5.31906699e-06
      3.40020524e-05 5.20937647e-05 -1.64172143e-05 3.34528995e-05
      4.71996318e-05 -1.56414681e-05 3.13833225e-05 4.45126170e-05
      2.98547147e-05 6.23081214e-05 7.29784806e-05 5.90290392e-06
      3.38791506e-05 5.72608296e-05 -4.25563630e-05 -1.92152638e-05
      2.08183428e-05 -4.10532230e-05 -7.88691068e-06 3.72351533e-05
      -6.31036892e-05 -3.04796467e-05 1.90709270e-05 -6.23371889e-05
      -3.24489120e-05 1.08039221e-05 -2.00832274e-05 -2.00127761e-06
      3.40026781e-05 -7.28862506e-06 3.04834748e-06 3.17609010e-05
      1.92850221e-05 1.22244883e-05 3.82984399e-05 5.33558341e-06
      1.43981260e-05 3.40320221e-05 -3.85023304e-05 -2.21453183e-06
      1.61969001e-05 -2.34978106e-05 3.98417724e-05 5.09467573e-05
      -3.61803031e-05 5.49778342e-05 5.29373647e-05 -6.42519008e-05
      1.57499253e-05 2.21910028e-07 -1.56206315e-05 2.67771920e-05
      1.50529570e-06 3.03738432e-07 2.95609061e-05 -4.92552147e-07
      1.29083401e-05 2.67067717e-05 -8.02935119e-06 2.91156939e-05
      3.16690057e-05 7.18262186e-07 -1.81791188e-06 6.65974267e-06
      -1.90912269e-05 2.74371287e-05 3.36380908e-05 1.86243615e-05
      1.17373856e-05 3.66535241e-05 2.71571171e-05 -1.82139102e-05
      1.40447073e-05 5.55983479e-06 -6.86833801e-06 3.23226013e-05
      1.14630866e-05 -1.42296694e-05 7.61055981e-06 -1.78072733e-05
      -4.41938801e-06 -9.90988883e-06 -3.94123817e-05 3.89728848e-05
      1.81887972e-05 -1.62649703e-05 2.96890557e-05 -6.14777582e-06
      -3.80205638e-05 -1.29532727e-05 -3.16537335e-05 -4.94562046e-05
      -3.29029972e-05 -9.32271723e-06 -5.64086895e-06 -4.12736845e-05
      1.12118578e-05 2.66398310e-05 -9.79159086e-05 -2.02767678e-05
      -6.77313346e-06 -8.10830825e-05 -6.88068531e-06 8.53543611e-07
      -1.51897993e-05 2.03884592e-05 2.47635598e-05 -1.41491000e-05
      -6.90369689e-06 -1.07394908e-05 -6.69407473e-06 -1.16892907e-05
      -3.08200761e-05 4.37621784e-05 2.66680199e-05 -3.29151021e-06
      3.92448419e-05 2.66943007e-05 -1.17511954e-05 2.65129420e-05
      1.45051617e-05 -2.80916447e-05 5.19027435e-06 1.43417437e-05
      -2.94386209e-05 -1.69243995e-05 9.61843580e-06 -3.35285731e-05
      1.26462965e-05 4.20382748e-05 3.53303949e-06 1.92699481e-05
      3.57328354e-05 -2.67913470e-06 8.85691588e-06 6.99907559e-07
      -5.23054623e-05 -4.07243903e-07 -1.79436593e-05 -6.68182911e-05
      -1.54768113e-05 -2.69181637e-05 -6.17943515e-05 -4.81426105e-05
      -4.57385577e-05 -6.10534844e-05 -4.88677288e-05 -4.75875510e-07
      1.36691119e-06 -7.68167083e-05 -3.08702647e-06 1.09766177e-06
      -7.09800588e-05 -2.58280670e-06 -8.72948749e-06 -1.71765205e-05
      3.57461904e-05 1.07511023e-05 -1.54849931e-05 1.24790931e-05
      -3.43284009e-05 2.11471433e-05 2.76300161e-05 -3.08782655e-05
      5.39387329e-05 3.69477202e-05 -2.80805907e-05 5.62686819e-06
      -2.14804277e-05 -8.69767391e-05 -2.88995325e-05 -4.15051254e-05
      -8.83968896e-05 -4.88318219e-05 -2.78227762e-05 -6.04885390e-05
      1.89183174e-05 6.18428312e-05 5.08370686e-05 6.12356644e-06
      5.69519252e-05 5.37420201e-05 -1.00254556e-05 1.77866095e-05
      1.15581688e-05 -4.23852816e-06 -1.35037180e-05 -2.97762308e-05
      -1.81156483e-05 -6.86346975e-05 -8.78198116e-05 -6.34066282e-06
      -7.26099315e-05 -9.14477205e-05 1.10286892e-05 -5.17134795e-05
      -6.41048537e-05 4.17480915e-05 1.00104796e-06 5.44687555e-06
      -7.88757825e-06 -1.70256244e-05 8.29438886e-06 -5.22086812e-05
      -3.94160961e-05 -5.88662215e-06 -3.45539120e-05 -9.93286903e-06
      1.70889016e-05 -1.42612098e-05 1.26427112e-05 3.47651076e-05
      -4.43600675e-06 1.16211077e-05 2.30437909e-05 -1.43868338e-05
      -6.36074219e-07 1.89235880e-06 -4.85218297e-05 -2.48545985e-05
      -3.15055659e-05 -5.02422081e-05 -3.73021430e-05 -4.73433429e-05
      -2.43364393e-05 -1.28378024e-05 -3.19514584e-05 -1.81916221e-05
      -5.90077207e-06 -2.84918333e-05 -1.29963673e-05 1.82717431e-05
      -1.52863340e-05 4.11878900e-05 6.15218523e-05 2.97179649e-05
      3.88394183e-05 4.66983947e-05 2.15069413e-05 3.39788203e-05
      3.14620411e-05 7.46782962e-06 4.72394531e-05 2.85047645e-05
      -1.59208366e-06 -3.82261533e-06 -2.88621541e-05 -5.46916744e-05
      -1.62162323e-05 -4.03045997e-05 -5.75608719e-05 -1.54484205e-05
      -3.08937015e-05 -4.71275307e-05 -8.11704831e-06 -4.88147271e-06
      -2.56900239e-05 1.13166716e-05 2.69269513e-05 1.64329413e-05
      -2.16473018e-06 1.21479416e-05 1.63008517e-05 -1.71929969e-05
      6.68916482e-06 1.29702430e-05 -1.64176345e-05 1.38056203e-05
      5.43059923e-06 -1.72300770e-05 1.33648155e-05 -2.76527135e-06
      -3.25973974e-06 1.31575707e-05 -1.66217360e-05 8.85173176e-06
      1.62140586e-05 -1.31122652e-05 -1.97671088e-05 -2.78694424e-05
      -4.67396931e-05 3.50166229e-05 1.33242029e-05 2.30575495e-07
      -7.14218322e-06 -3.44872315e-05 -5.52337297e-05 -5.31783735e-05
      -8.30418576e-05 -9.76161682e-05 -2.88682040e-05 -4.90941457e-05
      -6.40334038e-05 5.37487867e-05 3.07596893e-05 2.31485610e-05
      1.49281586e-05 -9.67573033e-06 -1.23072414e-05 -2.93236699e-05
      -6.72919050e-05 -6.49869253e-05 -7.94590414e-06 -4.92484724e-05
      -5.11498729e-05 3.58452126e-05 -9.52152459e-06 -1.18322750e-05
      3.93495793e-05 3.04004552e-05 -6.52266954e-06 1.82311123e-05
      1.21679595e-05 -2.23332318e-05 -7.28251007e-06 -4.45617343e-06
      -3.80998536e-05 2.17450688e-05 2.48971519e-05 -3.52019470e-07
      5.86805327e-05 6.52335802e-05 3.97488329e-05 8.33229569e-06
      1.53208839e-05 2.18610307e-06 -2.41736234e-05 -6.68130815e-06
      -2.18335790e-05 -3.38664759e-05 -1.57841896e-05 -2.41717480e-05
      -4.01275865e-05 -2.36546657e-05 -3.15814541e-05 -2.27683086e-05
      -4.89853073e-06 -1.35176233e-05 -3.29974209e-05 -2.62855065e-06
      -1.59280862e-05 -4.26563893e-05 -1.44533378e-05 -3.17147133e-05
      2.63066863e-06 1.34382308e-05 -1.52088228e-06 3.88925473e-05
      3.06531838e-05 9.74956583e-06 2.48099277e-05 -5.80600499e-07
      -4.00431854e-05 3.11473341e-05 -6.53097959e-06 -4.90232924e-05
      1.29711289e-05 -2.73395162e-05 -5.15422216e-05 3.43084939e-05
      -3.22205710e-06 -2.44205476e-05 4.92946965e-05 2.09069822e-05
      -3.09094639e-06 1.79601084e-05 2.56613447e-07 -1.20164923e-05
      -1.40352777e-05 -3.29177783e-05 -1.75331097e-05 8.95816265e-06
      -7.38836525e-06 2.08796992e-05 2.88466731e-06 3.66317795e-06
      3.96559153e-05 1.29559003e-05 1.84006258e-05 5.17946792e-05
      2.08372621e-05 1.10101510e-05 3.64933803e-05 2.28100307e-05
      7.03746309e-06 1.35051969e-05 6.73488876e-06 -9.54917414e-06
      -2.96696344e-05 5.46913143e-05 2.73087280e-05 1.05717686e-06
      5.31331098e-05 1.84349574e-05 6.59057059e-06 4.29239954e-05
      1.50838741e-05 8.84062047e-06 3.65522792e-05 2.99085605e-05
      2.42475035e-05 -3.07524465e-06 1.55147463e-05 1.82145359e-05
      -4.11166366e-05 -1.50470987e-05 1.60501622e-06 -5.79326525e-06
      3.44574037e-05 5.89695410e-05 -4.60926185e-06 4.96475805e-05
      6.43384628e-05 -2.26587235e-05 2.59959015e-05 4.02731202e-05
      -8.60429918e-06 3.07494556e-05 4.58784307e-05 -5.41265581e-05
      -2.16043227e-05 1.57302759e-06 -7.99169939e-05 -4.80575509e-05
      -1.11068248e-05 -6.79130389e-05 -2.53792350e-05 1.98618709e-05
      -7.53393979e-05 -3.60007434e-05 1.59383562e-05 -6.82404279e-05
      -2.65238923e-05 1.79306790e-05 -2.32785369e-05 1.40475440e-05
      4.54571345e-05 1.21109942e-05 4.15531722e-05 6.55416079e-05
      6.95049675e-05 7.77447858e-05 9.57857337e-05 3.96905525e-05
      6.14755772e-05 7.43710916e-05 -3.45253284e-05 9.66735479e-06
